6913 50
Harry -0.564650 -0.199488 -0.325106 0.175618 0.041413 0.245742 0.655501 -0.018295 0.245094 -0.360819 -0.440313 0.296955 0.142645 0.105276 -0.182648 0.819918 -0.834063 -0.086807 -0.433164 -0.484937 0.137956 0.023134 -0.574665 -0.241197 -0.683570 0.317472 -0.274685 0.408028 -0.164986 -0.913246 0.210821 -0.011676 -0.855528 -1.120389 -0.551775 -0.323663 -0.032706 -0.155052 0.210605 0.013338 -0.831305 -0.659814 0.170475 0.808091 0.373474 -0.206810 0.560846 0.005956 -1.139782 -0.093269
Potter 0.592138 0.051499 -0.540965 0.467478 0.238983 -0.126195 1.336891 -0.184957 0.331054 -0.972585 -0.357213 0.144798 0.593718 -0.810274 0.889863 0.717996 -0.651587 -0.596699 -1.308329 0.025272 1.011827 0.734699 -0.503931 -1.005774 0.010578 -0.852415 0.440827 0.348658 -0.106425 -0.595358 0.437174 0.836268 -0.300300 -1.082523 -0.208014 -0.432750 0.350705 0.267028 -0.428386 -0.977927 0.115579 -0.377070 0.444532 0.385138 1.172506 -0.093325 0.681851 -0.003201 -0.765443 -0.839062
and -0.467412 -0.157889 -0.122643 -0.197028 0.404208 -0.227198 -0.293722 -0.278235 -0.062207 -0.335700 -0.128132 -0.248456 -0.043634 0.092094 0.390309 0.202815 0.127498 0.054724 -0.120080 -0.449474 0.217948 0.162798 -0.697068 -0.757281 -1.131290 0.068354 -0.875246 -0.086797 0.321685 -0.283396 -0.040772 -0.374053 -0.407273 -0.558302 -0.347647 -0.235623 -0.469278 -0.059430 -0.231308 -0.050458 -0.227904 0.154157 0.409616 0.395720 0.086616 0.027412 0.871976 0.170163 -0.386770 -0.477760
the -0.498411 0.037349 -0.248878 0.289112 -0.263810 -0.629742 0.725018 -0.423939 0.030403 -0.964055 -0.521199 0.316025 -0.309636 -0.152413 -0.004071 -0.275042 -0.078738 -0.129423 -0.284220 -0.150846 -0.298421 0.174182 0.414534 0.142760 -0.275236 0.088320 -0.270607 -0.464622 1.153305 0.722239 0.328942 -0.440485 0.369384 -0.365399 -0.000230 -0.726755 -0.239208 1.418361 0.438828 -0.373312 -0.278858 -0.473981 -0.091261 -0.979700 0.212314 -0.209518 0.198016 0.058824 -0.821027 -0.005036
Sorcerers -0.118363 0.243719 -0.534111 0.872771 0.243040 0.083513 0.168856 -0.993533 -0.427031 -0.987469 -0.345928 0.434195 0.311187 -0.489198 -0.346350 0.612215 -0.617465 0.039515 -0.012095 0.057272 -0.371171 0.407470 0.194068 -0.012153 -0.540753 0.064422 -0.640809 0.579709 0.149365 0.747648 0.327939 -0.211748 0.295852 -0.211115 -0.266748 -0.325047 -0.454340 1.172281 0.397399 -0.054415 -0.288630 0.695079 -0.431027 0.062701 0.500417 0.086282 0.732676 -0.620349 -0.050487 0.495426
Stone 0.244726 0.351238 -0.679006 0.535289 -0.754538 0.261448 0.454627 -0.641603 0.713298 -0.752911 -0.202529 0.503640 0.156939 0.001305 0.295802 0.161208 -0.013086 -0.297293 -0.180627 -0.358139 0.122031 -0.321280 0.337839 0.011774 -0.984532 -0.204420 -0.661843 -0.265555 0.289659 1.161611 0.686636 -0.147478 -0.380302 -0.628686 0.369295 -0.304481 -0.523252 0.878331 0.084187 -0.371025 0.420102 0.048548 -0.161565 -0.278832 0.331281 -0.795846 -0.349640 0.081498 -1.026456 0.476755
CHAPTER 0.234746 0.101664 -0.282615 0.433133 0.197860 0.147495 -0.496757 -0.563902 -0.047019 -0.514566 -0.121377 -0.494645 -0.371923 0.109134 -1.048878 0.173266 0.099213 -0.603667 -0.585553 -0.104222 0.136710 -0.233390 -0.406064 -0.397784 -0.157939 -0.554171 0.093768 0.450174 0.676794 -0.627878 0.059683 -0.212852 0.048753 -0.480121 0.158098 0.195529 -0.494032 0.573072 -0.359686 0.110407 -0.061621 0.310592 -0.598431 -0.353197 0.777402 -0.185907 -0.128709 -0.005396 -0.172433 -0.151763
ONE 0.453993 0.016151 -0.270810 -0.187788 -0.108394 0.602104 0.037349 -0.008386 0.550516 -0.192960 -0.193247 0.057271 0.074032 -0.491970 -0.051081 0.431978 0.018346 -0.335535 -0.417174 0.368947 0.426266 0.119253 -0.677165 -0.502238 -0.351167 0.380178 0.350043 0.040351 -0.025288 -0.476208 -0.339593 0.087310 -0.196427 -0.439366 -0.032175 -0.636199 -0.196237 0.524091 -0.042232 -0.046428 0.479447 0.529991 -0.447416 0.347890 -0.178697 -0.487110 0.043332 0.060608 -0.071566 -0.104525
THE 0.613670 0.004078 0.193397 0.501364 -0.374815 -0.459820 -0.098857 -0.360027 0.326406 -0.803843 0.257347 -0.069357 -0.376865 -0.772560 -0.444430 0.146201 0.243965 -0.529120 -0.799256 -0.225641 0.450289 0.020419 -0.409397 -1.178709 -0.409924 0.262552 -0.339919 0.138495 0.365847 0.449715 -0.137899 -0.067736 -0.384985 -0.262576 -0.416538 -0.655205 -0.396387 0.018160 0.107025 -0.366133 -0.888460 -0.130485 -0.461044 -0.150718 0.311393 -0.222867 0.445737 -0.243646 0.408911 -0.816135
BOY 0.012526 -0.385654 0.069175 -0.109242 -0.391557 0.096793 0.505718 -0.510963 0.050335 -0.184497 0.226701 0.172943 0.306621 0.124493 0.041666 0.460424 0.092793 -0.408019 0.148227 0.001820 -0.275601 -0.113236 -0.011544 -0.525706 -0.536377 -0.459062 0.005253 0.355539 0.060701 0.541481 -0.413170 -0.085831 -0.022336 -0.158064 0.211051 -0.502972 -0.155780 0.467323 -0.510901 0.276915 -0.612946 0.626707 0.221721 0.434211 0.240904 -0.262786 0.515697 0.000242 -0.649632 -0.195808
WHO 0.121350 -0.293463 0.019679 0.442494 0.111973 0.170215 0.425335 -0.211970 0.194192 -0.459718 -0.647467 -0.194849 -0.147513 -0.326765 -0.387740 0.541631 -0.504019 -0.349728 -0.005339 0.143756 0.157349 0.512977 -0.376395 -0.519858 -0.267502 0.005082 0.286180 0.439645 -0.287860 -0.173391 -0.024202 0.335342 0.124109 0.235695 0.284752 -0.789938 -0.145157 0.083501 -0.130412 0.223176 0.136198 0.558948 -0.430901 0.275515 0.628878 0.065315 0.686724 0.138496 -0.498337 0.348294
LIVED 0.249329 -0.330483 -0.171212 -0.305513 0.316698 0.465729 0.007529 -0.169333 -0.479383 -0.550222 0.235568 0.022167 -0.359849 -0.235011 -0.407896 -0.150529 0.240612 -0.030868 0.126254 -0.254342 -0.360354 0.158012 -0.293302 -0.604014 0.156642 -0.516964 -0.317043 0.505713 0.436812 -0.416467 0.230475 -0.511607 -0.373606 -0.437870 0.439806 -0.309475 0.380740 0.431717 -0.494591 -0.280068 -0.555082 -0.206306 0.265396 -0.097569 0.234521 -0.511280 0.015667 -0.064834 -0.376093 -0.575556
Mr -0.993411 -0.843249 -0.220154 0.439193 -0.281025 0.286260 0.892207 -0.400915 -0.048512 -0.004056 -0.253390 0.049083 -0.445833 -0.047680 -0.070296 -0.085384 -0.637284 -0.330906 0.207152 -1.565603 0.852897 -0.943527 -0.417248 -0.720191 -0.854161 0.662142 0.492348 0.130920 -0.214962 -0.323308 1.034194 0.729488 0.446529 -0.773443 0.204782 -0.736454 0.099263 0.247523 -0.548815 -0.784506 -0.225918 0.019629 -0.139524 0.969815 0.586804 -0.976359 0.300948 -0.766916 -0.292641 0.401497
Mrs 0.421361 0.115223 -0.249287 -0.147731 0.371629 -0.123754 0.513863 0.185883 0.465092 -0.135787 -0.149817 -0.738876 -0.807173 -0.558048 -0.730793 0.572293 -0.707669 0.290692 -0.207700 -0.395861 -0.006792 -0.326021 -1.731111 -0.949125 -0.946707 0.179418 0.196332 -0.230764 -0.044233 -0.409359 -0.130587 -0.367686 -0.187483 -0.573529 -0.267210 0.043110 -0.696788 0.420004 0.513585 -0.083333 -0.551684 -0.086009 -0.198773 0.794478 0.466146 -0.277104 1.158349 0.790161 -0.057470 -0.114595
Dursley -0.043638 0.082031 -0.187160 -0.193827 -0.668194 0.065118 0.724713 -0.552695 -0.368111 0.086648 0.422667 0.669541 -0.695414 -0.367011 -0.204844 1.286858 -1.041767 -0.983259 -0.590661 -0.518038 -0.204348 -0.434842 -1.009755 -0.575037 -0.208453 0.409016 0.558643 -0.039013 -0.375871 -0.646093 0.212379 0.196984 -0.033257 -1.124327 0.231094 0.279689 -0.787073 0.167912 0.551417 -0.299407 0.587176 0.175319 0.787575 0.351772 0.131339 -1.134554 0.812241 0.446175 -0.491877 0.284953
of 0.059137 -0.182578 -0.161004 0.508239 -0.099971 0.751555 -0.163589 0.430437 -0.623923 -0.529630 -1.175060 -0.139446 0.342855 -0.162422 -0.191339 -0.226714 -0.727724 0.142225 -0.458879 -0.487573 0.204707 -0.417870 0.388719 -0.620085 -1.179266 -0.334532 -1.033812 -0.191688 0.877170 0.529038 -0.378261 0.359717 0.039407 -0.690666 0.721358 -1.033294 -0.208571 0.613175 0.397536 0.510702 -0.188233 0.691900 0.076886 -0.855388 0.191336 -0.551402 -1.218563 0.432967 -0.248914 -0.645226
number -0.289147 -0.415708 0.282647 1.070940 0.148922 -0.097415 0.381525 0.074602 -0.692496 -0.455790 0.183345 -0.191198 -0.157349 0.610195 -0.767153 0.029643 0.369939 -0.253862 -0.624498 -0.013587 0.129765 0.456558 -0.323597 -0.411295 -0.542410 0.656565 -0.624804 -0.103411 0.820396 0.639951 0.092492 0.691498 -0.243925 -0.726268 0.661631 0.115855 -0.628295 -0.014895 -0.268202 -0.313132 -0.670841 0.688020 -0.512737 -0.690884 0.627438 -0.057431 0.821640 0.007947 -0.277486 0.552277
four 0.132915 -0.094062 0.140681 0.008616 -0.394500 0.099928 -0.049831 -0.841405 0.196939 -0.830711 -0.318357 -0.431928 0.144328 -0.485751 -0.551192 0.209165 0.211565 -0.455982 0.143092 -0.027216 -0.528805 0.309592 0.048425 -0.742551 -0.917463 -0.028107 -0.247929 -0.076582 0.529101 -0.540280 -0.467654 0.441858 -0.414570 -0.386230 0.082448 -0.058583 -0.423467 0.304451 0.287414 -0.341361 -0.282668 -0.491982 -0.414674 -0.285408 0.921621 -0.302595 0.151442 0.324768 -0.075163 0.100576
Privet -0.514889 -0.772522 -0.764272 0.253431 -0.571844 0.199060 0.055510 -0.269051 -0.135519 -0.310852 -0.599199 -0.051496 -0.204227 0.703300 -0.654967 -0.061142 -0.182608 -0.600606 -0.172392 -0.065242 0.034394 0.882534 -0.547770 -0.029611 -0.657103 -0.154443 -0.447732 0.159289 1.102857 0.122675 0.046497 -0.612512 -0.979094 -0.553978 -0.406359 -0.164956 -0.047081 0.097784 -0.223735 -0.521639 -0.523888 -0.018461 -0.585798 -0.026224 -0.356337 0.356797 0.374591 0.550475 -0.463353 0.534543
Drive -0.091116 -0.008434 -0.446784 0.142538 -0.433027 -0.116564 0.014971 -0.181092 0.409033 -0.377807 -0.089038 0.439182 0.767905 0.102952 -0.152906 0.597784 -0.725492 0.541021 -0.234901 -0.001639 -0.311510 -0.504723 -0.244533 -0.334799 -1.411941 -0.624727 -0.010641 0.025760 0.615624 -0.074187 0.537338 -0.612319 -0.273483 -0.347559 -0.209815 -0.286664 -0.642457 -0.179283 -0.917508 -0.367080 -0.700121 -0.340480 -0.339384 -0.446857 -0.392676 -1.081257 0.351616 -0.068407 -0.598522 0.528186
were -0.227941 0.134393 -0.036249 0.746944 0.488824 -0.637658 -0.506258 -0.346619 0.442617 -0.292127 -1.016856 0.494027 0.310070 0.249236 -0.365158 -0.645090 0.522557 -0.522777 -0.482322 0.018508 -0.367251 0.153216 -0.354621 -1.279111 -0.571314 0.092410 -0.218660 -0.520550 0.453055 -0.229750 0.154507 -0.062578 -1.236006 0.113226 -1.075503 -0.004577 -1.165509 0.649528 0.307082 0.041019 -0.276748 0.317603 0.731407 -0.046727 0.424155 0.325489 0.523741 0.245614 -0.612966 -0.045353
proud -0.074072 -0.170328 0.157943 -0.093977 -0.043288 0.620501 0.162525 -0.401473 0.400092 -0.624524 -0.305701 -0.063676 0.036063 -0.298329 -0.401278 0.592084 0.127801 -0.137214 -0.817624 -0.052205 0.458717 -0.207833 -0.659161 0.120552 -0.896311 -0.496431 0.391860 0.621378 -0.089149 -0.496534 0.414251 -0.130441 -0.694656 0.284110 -0.312923 0.084595 -0.451193 -0.451927 -0.219703 -0.049223 -0.300599 0.009895 -0.349286 0.082030 -0.062329 -0.124321 0.109647 0.494135 -0.257630 0.101805
to -0.200405 -0.838624 -0.084951 0.126218 0.471340 0.483412 -0.145034 -0.247461 0.491536 -1.087603 0.123137 -0.613168 -0.490347 -0.176145 -0.183049 0.513539 0.949089 -0.768551 -1.180912 -0.315656 0.791863 -0.767918 0.451664 -0.078129 -0.183423 -0.240777 0.633244 0.048209 0.102742 0.605290 0.186818 -0.119515 -1.571460 -0.689632 -0.289505 -0.438991 -0.169482 0.850267 -0.081541 -0.231237 -0.442579 -0.233910 0.162449 -0.989167 -0.145849 0.127285 0.196009 0.103704 -0.579171 0.211825
say 0.427162 -0.689895 -0.814382 0.476671 -0.132588 0.265414 -0.594866 -0.773414 1.132106 -0.696596 -0.774159 0.457621 -0.039847 -0.547532 -0.698767 -0.374942 0.538770 -0.419746 0.097801 0.183154 0.122064 -0.662350 -0.074991 -0.621862 -0.863556 -0.056222 0.533116 0.187010 -0.382313 -0.142402 0.015730 0.195738 -1.034648 -0.795470 0.156494 -0.077788 -0.131662 0.291435 -0.052651 -0.099793 -0.174908 0.408043 -0.030045 0.502133 0.170821 -0.688229 0.352521 0.587227 -1.042552 0.363044
that -0.206403 0.050049 0.331137 0.869528 -0.395505 -0.531734 0.772913 -0.038956 0.062065 -0.375884 -0.415321 0.252249 -0.068038 -0.336081 -0.424467 0.226474 0.236584 -0.386326 0.221931 -0.077018 -0.359250 -0.577297 -0.006717 -0.121881 -0.950339 0.270546 -0.016707 0.343038 0.180073 0.165304 0.091407 -0.191967 -0.804642 -0.732178 0.228035 -0.213534 0.557446 -0.250162 0.137981 -0.376167 0.224119 0.854919 0.022070 -1.125808 0.509112 -0.523304 0.954523 -0.047738 -1.319985 0.424348
they 0.350588 -0.874074 -0.058717 -0.335032 0.177213 -1.067180 -0.242779 -0.674012 0.020932 -0.127557 -1.684578 0.456187 -0.015290 0.512168 -0.639092 0.932100 -0.145917 -0.001974 -0.972191 -0.047912 0.003885 -0.329129 -0.107767 0.504311 -1.247863 0.009367 -0.268357 -0.047976 -0.470861 -0.333698 0.297227 -0.038590 -0.561971 -0.723710 -1.058591 -0.163669 0.108387 0.619355 -0.071243 0.197497 -0.750830 0.376721 -0.275368 0.870129 1.112175 -0.052661 0.139400 0.366350 -1.334419 0.674947
perfectly 0.707522 -0.721446 -0.646847 -0.331546 0.325852 -0.529642 0.484136 -0.474082 -0.065698 -0.525707 -0.155845 0.604432 0.216644 0.658005 -0.932051 0.260585 0.201639 -0.242199 -0.268806 0.006482 0.271291 0.039416 -0.678735 -0.491231 -0.788429 -0.260023 -0.434341 -0.263311 0.200777 -0.088091 -0.378751 0.190564 -0.346268 0.062771 -0.329970 0.169483 0.011782 0.211292 0.533338 -0.388487 -0.046979 0.274668 -0.070020 0.359230 0.440812 -0.035851 0.135775 0.163618 -0.091917 -0.085544
normal -0.721872 -0.893600 -0.046687 -0.113537 -0.535188 -0.637842 0.515125 0.202033 -0.187826 -0.169188 -0.418919 -0.448777 0.117984 0.246236 -0.481465 0.417364 -0.196031 -0.287551 -0.034050 -0.058958 -0.048274 -0.495806 -0.700474 0.348155 -0.616654 -0.630039 0.062816 -0.120904 0.397794 0.132628 -0.478124 0.098745 -0.845308 -0.562343 0.288232 -0.365321 -0.488719 0.625772 -0.234240 -0.382508 -0.025137 0.706639 -0.098856 -0.187587 0.330600 0.284454 0.147868 0.584829 -0.695122 0.483702
thank 0.020425 -0.999240 0.078927 0.147031 0.033488 0.086846 -0.154056 0.048624 -0.245919 0.123070 -0.142377 0.399402 0.168973 0.086090 -0.524824 0.299640 -0.339334 -0.127066 -0.268138 0.224195 0.556931 0.407783 -0.376686 -0.292366 -0.638726 -0.294564 -0.361958 0.038290 0.092740 0.130978 0.236804 0.755457 -0.238981 -0.555377 -0.170525 -0.325847 -0.471148 -0.153311 0.056926 -0.593657 0.281697 0.585503 -0.672826 -0.390844 0.430497 0.136881 -0.403034 -0.206285 -0.281717 -0.386979
you 0.080926 -1.210395 -0.454329 1.105268 0.258869 -0.454277 0.059872 0.004396 0.924399 0.238803 -0.657175 0.231393 0.602337 -0.019169 -0.423553 1.111380 -0.017980 -0.502002 -0.614801 -0.818532 -0.092666 -1.005354 -0.103734 -0.086835 -0.655575 -0.977757 -0.033835 0.141642 -0.122692 0.176341 1.147487 0.050207 -0.464190 -0.946845 0.187878 -0.363722 -0.094269 0.606716 0.240685 -1.469144 0.158385 0.894355 -0.363137 0.347964 -0.659809 0.399770 0.612444 0.148787 -0.177316 -0.096051
very -0.277977 -0.122352 0.593772 -0.232565 0.283026 -0.749874 0.770250 -0.521524 0.254911 -0.847258 -0.908431 0.818159 0.004145 0.011298 -0.582303 -0.039302 0.363473 0.209348 0.304873 -0.171129 -0.217046 1.159581 -1.532051 -0.327186 -0.522581 -1.188010 -0.066736 -0.479171 0.613460 -0.980150 -0.552516 0.150427 -0.601980 -0.008623 0.142966 -0.130782 0.198835 0.078501 -0.312465 -0.054255 -1.429785 0.176180 0.645057 -0.907775 0.374487 -0.001023 -0.568398 0.261406 -0.653337 0.231740
much -0.023942 -0.420133 0.203305 0.313265 0.244850 0.580134 0.091997 0.271918 0.567101 -1.152830 -0.679215 0.786764 -0.428878 0.429417 -0.390341 0.269500 -1.003724 -0.002428 -0.090002 0.056578 0.001310 -1.448502 0.003994 0.587613 -1.086295 -0.344114 0.083088 1.162326 0.393220 -0.146189 0.157814 0.615009 -1.104127 -0.034085 -0.498112 -0.181572 -0.789405 1.086073 -0.690126 0.089093 -0.471120 0.345035 0.528902 -0.427387 -0.234904 -0.424416 0.498685 0.388987 -1.178540 0.676778
They -0.233747 -0.590654 0.347511 0.196233 0.131587 -0.287829 -0.197936 -0.351662 -0.335428 -0.626233 -0.629487 -0.006576 -0.154061 0.491780 -0.917155 0.535610 0.120552 -0.215959 -0.738035 -0.072174 -0.011366 -0.512022 -0.149899 0.687192 -2.066561 0.509626 0.153292 -0.688257 -0.224264 -0.215739 0.050976 -0.498688 -0.743254 -0.565549 -0.946763 0.046663 -0.353060 0.649233 0.682911 -0.479680 -0.516310 -0.826240 -0.425724 -0.001927 0.613195 -0.223999 -0.590159 0.923889 -0.781690 0.357867
last -0.784118 -0.096938 0.566967 0.681632 0.030813 -0.579115 0.915658 -0.369558 0.194093 -1.098404 -0.674194 -0.147991 -0.612455 -0.391155 -0.565281 0.630007 0.023160 0.160757 -0.126356 0.135732 -0.236623 -0.142805 0.410544 -0.483511 -0.799004 -0.236443 -0.095783 0.036844 0.770429 -0.992073 -0.088278 0.532795 -0.213046 -1.234002 0.663412 -0.751089 0.064506 0.921413 -0.034781 -0.378379 -0.236419 0.212834 0.574721 -0.507326 0.367394 0.894301 0.803938 -0.181080 -0.421385 0.925360
people -0.394317 -0.461289 0.317626 0.340030 0.644666 -0.154700 0.624886 -0.104944 -0.428107 -0.190129 -0.394012 0.475775 0.702404 0.139789 -0.548942 0.237937 0.309493 -0.773884 -1.143826 0.016468 -0.162275 -0.691966 -0.456190 -0.421837 -1.605791 0.052786 -0.876494 0.168075 -0.231704 0.180299 0.704099 -0.013340 -0.115843 -0.181474 0.778857 -0.003323 -0.013699 0.007998 0.885738 -0.682446 -1.320048 0.181972 0.670232 0.038763 0.247423 0.757474 -0.349185 0.225373 -1.057633 0.382410
youd 0.096517 0.083109 -0.844928 -0.119378 0.051389 -0.396725 0.308167 -0.077151 0.477417 -0.708796 -0.498864 0.222113 0.306094 -0.539031 -0.396653 0.498088 -0.160529 -0.291368 -0.528424 -0.106436 0.363073 -0.302074 -0.475160 -0.192044 -0.266934 -0.652911 0.361814 0.689772 -0.213979 -0.572959 0.562259 -0.257400 -0.562925 -0.897637 -0.125052 -0.093148 0.112649 -0.052694 0.599782 -0.127645 0.169165 0.925207 0.032435 -1.016030 0.372382 -0.528172 0.467409 0.369096 -0.060168 0.067454
expect 0.457450 -0.478999 -0.527688 0.877503 0.078931 -0.196423 0.388642 -0.713803 0.622049 -0.777399 -0.286210 0.965841 0.749645 0.275175 -0.221111 0.196577 -0.115016 0.037906 -0.979869 -0.334013 0.667765 -0.306624 -0.558931 -0.140764 -0.249138 -0.557318 0.316450 0.511026 -0.161165 0.276310 0.892480 0.133870 -0.970851 -0.627946 0.211711 -0.232499 0.009995 -0.287544 0.401748 -0.715981 0.097716 0.483202 -0.433008 -0.678547 0.045148 0.284180 -0.291784 0.200915 -0.495689 -0.066604
be -1.168280 -0.567716 -0.637208 -0.334126 0.257974 -0.459608 0.465458 -0.164520 0.467599 -0.101946 -0.869106 0.537270 -0.426044 -0.581957 -0.423836 -0.744181 0.548061 -0.106261 -1.075910 -0.144165 -0.555581 -0.476411 -0.635762 -0.678331 -0.483905 -0.065773 0.988119 1.232713 0.541314 0.795652 -0.645566 0.933699 -1.220390 -0.540753 -0.415391 -0.544718 -0.247371 0.247129 0.772396 -0.540248 0.321781 0.915660 -0.105023 -0.612459 0.320394 0.186706 0.037305 -0.550491 -0.725242 0.327097
involved 0.038003 -0.211878 0.193491 0.133855 0.361601 0.092997 0.497193 -0.313127 -0.347557 -0.369308 0.056719 0.215447 -0.433621 0.281036 -0.276910 0.415401 -0.078796 -0.667927 -0.358326 0.163231 0.294778 -0.494840 -0.055783 -0.152521 -0.254514 -0.559992 -0.500155 0.447298 0.129104 -0.258801 0.466789 -0.022844 -0.159537 -0.587419 -0.458829 -0.113244 -0.476151 0.638521 0.585342 0.052804 0.184791 0.159025 -0.429981 -0.359688 0.712378 0.342411 0.243590 -0.541127 -0.304842 -0.247186
in -1.218952 -0.185080 -0.152259 0.082896 -0.530687 -0.421697 -0.052275 -0.871673 -0.511968 -1.173907 0.148143 -0.200926 0.376166 -0.208326 0.697576 0.360719 -0.481249 -0.659589 0.678289 -0.087790 0.181770 0.111403 -0.101178 -0.613861 -0.056986 -0.119707 -0.457690 0.438677 -0.156986 0.962797 0.676195 -0.292224 -0.493508 -0.943162 0.187630 -0.503188 -0.345135 0.275871 0.450837 -0.000816 -0.406204 0.139123 0.341459 -1.144340 0.744224 -0.180792 -0.381342 0.437964 -0.409376 0.206718
anything 0.027109 -0.271835 -0.854220 0.851573 0.089310 -0.103681 -0.295949 -0.710478 0.553972 -0.145889 0.139557 0.882137 -0.770821 0.084182 -0.669914 0.200175 -0.325927 -0.092674 -0.521294 0.313670 -0.495361 -1.236059 -0.473112 -0.474372 -0.278807 -0.397454 -0.213691 0.296407 0.245580 -0.509039 0.937182 0.318466 -0.690977 -0.746523 -0.536994 -0.588103 0.680381 0.837870 -0.007187 -0.539426 -0.220524 0.912280 0.595034 -0.302520 0.365897 -0.461358 0.241288 0.422851 -1.235263 0.776315
strange -0.299896 -0.302572 0.419363 0.583907 -0.007210 0.118813 0.554739 -0.124561 0.213547 -0.867969 -0.465479 -0.339480 0.074673 -0.237076 -0.528337 -0.262363 0.051041 -0.057109 -0.799796 -0.189994 0.142074 -0.540062 -0.537246 -0.458030 -0.209863 -0.586490 -0.171599 0.440601 -0.249178 0.036721 -0.408210 -0.376587 -0.534510 0.097794 -0.289064 0.051599 -0.355933 0.328209 -0.163177 -0.137886 -0.329670 0.411613 0.155176 0.112320 0.908737 -0.443473 -0.269312 0.037203 -0.079031 0.546929
or -0.306570 -0.649138 -0.124125 0.353182 -0.156093 0.298850 0.102798 -0.675821 -0.010792 -0.373173 0.063188 -0.277157 -0.064197 -0.078152 -0.482598 0.373859 0.720076 -0.135615 -0.139454 -0.756790 0.667854 -0.986274 -0.075380 -1.176897 -0.821462 -1.201932 -0.293519 0.084632 0.402713 0.132997 0.286329 0.391175 0.193790 -0.148758 0.399601 0.194657 -0.216315 0.056154 0.335520 0.388239 0.205092 0.350129 -0.435816 0.412559 0.110450 -0.058045 0.139139 0.242413 -0.348028 0.469905
mysterious -0.059178 0.387208 0.054019 -0.549565 0.250571 -0.341416 0.252943 -0.043381 0.224624 -0.449336 0.074576 0.271172 -0.035693 0.402487 -0.583612 -0.276010 0.231037 -0.063739 -1.138674 -0.685429 0.400944 -0.674346 0.035177 -0.038875 -0.876231 0.097186 -0.490621 0.476382 0.490451 -0.036264 0.336894 0.343796 -0.240540 -0.103176 -0.222697 0.039656 -0.064007 0.774077 0.538513 -0.924221 0.273217 0.421452 0.096101 -0.329599 -0.021795 -0.498727 0.116761 -0.053105 -0.315257 0.520821
because -0.358886 -0.206601 0.212904 0.571946 0.334065 0.132817 0.483762 -0.254959 -0.070244 -0.480408 0.038824 0.361809 0.042504 0.200285 0.041223 0.513945 -0.082943 0.994675 -0.270348 -0.259944 -0.141136 -0.508576 -0.788195 -0.503656 -0.903141 -0.476860 0.340920 -0.572048 0.124660 -0.464772 0.329417 0.612025 -1.297009 -0.396029 -0.148038 -0.304212 -0.079703 0.121762 -0.213961 -0.307415 -0.459821 0.046492 0.475788 -0.063585 1.109888 -0.331021 0.118909 0.538966 -0.465746 0.688468
just -0.089032 -0.249306 0.165575 0.530861 0.185609 -0.105312 0.041793 -1.308084 0.203537 -0.765787 -0.181866 0.817317 0.529365 -0.399184 -0.270216 0.629515 -0.755618 0.310923 0.240556 -0.151685 -0.057282 -0.835254 -0.146297 -0.370708 -0.760959 -0.565986 0.798716 0.331163 -0.663512 -0.000194 -0.095194 0.037674 -0.963666 -0.067970 -0.587916 -0.993359 -0.853446 -0.129477 0.120086 -0.363489 -0.499169 0.087104 0.735039 -0.277527 0.095413 -0.132345 0.326401 0.192005 -0.774687 0.812840
didnt 0.430505 -0.801361 0.246317 0.121009 0.031713 0.310004 0.417023 -0.289252 0.348178 -0.693695 -1.259744 -0.590957 -1.102351 1.058108 0.354191 1.213260 0.061331 -0.578810 0.067625 -0.399189 1.549410 -0.362751 -0.160880 -1.299122 -1.362801 -0.836297 -0.223978 -0.184146 -0.487245 -0.894796 0.987454 0.687310 -0.320106 -0.946156 0.585994 1.139894 0.066389 0.960147 1.063471 -0.676511 0.725648 1.176316 0.553612 0.277540 -0.506098 -0.077307 0.337905 0.293392 -1.268718 0.781508
hold 0.169255 -0.503735 -0.385709 -0.060965 0.057298 0.429501 -0.155162 -0.159163 0.394259 -0.955088 0.187109 -0.143644 0.478152 -0.388959 0.026197 0.329217 -0.123925 -0.548168 -0.815431 0.326775 -0.004141 -0.049235 -0.310226 -0.196095 -0.511762 -0.606105 -0.176084 0.682064 0.258652 0.696154 -0.471748 0.399014 -0.564666 -0.288965 0.520541 -0.592812 -0.818870 0.572560 0.305306 -0.491564 -0.059014 0.214413 0.051462 0.231749 -0.002160 -0.451653 0.051102 0.163477 -0.439236 -0.070337
with -0.739254 -0.619500 0.193850 0.077971 -0.383545 0.573804 -0.126615 -0.304753 -0.498872 -0.107808 0.032710 0.029399 -0.126861 0.922256 0.248497 0.458655 0.620009 0.004697 0.106988 -1.084626 0.140735 -0.672465 -0.003511 -0.608252 0.046712 -0.689938 -1.170320 0.153012 0.193547 0.212583 -0.175610 -0.101995 -0.831197 -0.287736 -0.214384 -0.335259 -0.426259 0.216618 -0.406204 0.127655 -0.235159 0.564275 -0.280967 -0.775892 0.521702 0.426060 -0.133955 -0.166432 -0.593768 0.071103
such 0.092974 0.081661 -0.067436 0.196674 0.047959 -0.066118 0.416843 -0.473518 0.053207 -0.562724 0.277995 0.704378 0.000328 -0.266430 -0.709408 0.767306 -0.030213 -0.254038 0.136553 0.087620 0.488113 -0.559963 -0.960207 -0.386901 -0.490327 -0.759992 -0.554863 0.283564 0.119821 -0.378565 0.011608 -0.101836 -0.638284 -0.021677 -0.458557 -0.215668 -0.432370 -0.077907 0.380082 -0.331861 0.000015 0.776509 0.067584 -0.437747 -0.017640 -0.143821 -0.293330 -0.094972 -0.082385 0.473025
nonsense -0.427944 -0.053083 -0.362782 -0.130298 0.219232 -0.524734 0.077876 -0.567166 -0.015781 -0.255790 -0.581781 0.296272 0.226402 0.016071 -0.209605 0.572407 0.127169 -0.370459 0.040958 0.020696 0.425769 -0.062669 0.086019 -0.141557 -0.475558 -0.590188 -0.433031 0.362763 0.672384 -0.213958 0.081650 0.011753 -0.119907 -0.643987 -0.455738 -0.741805 -0.039070 0.122530 0.138756 -0.161142 -0.183568 0.336592 -0.065172 -0.369341 0.687373 -0.114197 0.099448 -0.877494 -0.274986 0.448419
was 0.029668 -0.283683 0.710183 0.543420 -0.173842 0.371874 0.982937 -0.774468 0.353850 0.206761 -0.828266 -0.291948 0.034671 0.487581 -0.369565 -0.981103 0.277416 0.013222 -0.227005 -0.131486 0.449167 -0.363213 -1.130906 -0.578964 -0.269574 -0.175580 -0.683640 0.578321 -0.219935 0.049886 0.149729 0.569068 -0.981526 -0.814349 -0.450158 0.497840 -0.643052 0.671474 -0.190072 0.581999 -0.146267 0.563443 0.515984 -0.544211 0.157493 0.010265 -0.487778 -0.352705 -0.397661 0.255282
director -0.265379 -0.390985 0.457136 0.584931 -0.035434 -0.131683 0.410331 -0.347673 -0.315066 -0.222761 0.297703 -0.275875 -0.248325 0.130854 -0.741882 0.410987 0.211865 -0.116272 -0.311916 -0.497742 0.166860 -0.465831 0.004033 -0.403495 -0.132726 -0.070268 -0.388245 -0.230759 0.693714 0.449737 0.411380 -0.506775 0.052276 -0.438149 0.191059 -0.427189 0.035628 0.041841 -0.151744 0.333801 -0.412860 0.349028 -0.120901 -0.189917 0.161193 -0.944196 -0.142891 -0.082434 0.019705 -0.408420
a -0.709679 -0.535785 0.725172 -0.256863 -0.079215 -0.668103 -0.003181 -0.796797 0.286285 -0.395231 -0.067019 0.361993 -0.902795 -0.255302 0.388148 0.749263 0.059707 -0.617156 0.149088 -0.279928 0.477562 0.125347 -0.763581 0.142570 -0.383586 -1.044336 0.127595 0.725242 1.152533 -0.357608 -1.209164 0.220395 0.068359 -0.185838 0.042766 -0.619716 0.063722 0.094974 0.580570 0.055673 -0.508144 0.951064 -0.464880 -1.010720 -0.324748 -0.104961 -0.424343 0.261961 -0.520778 -0.204179
firm 0.003484 -0.618425 -0.254168 0.494544 -0.378840 0.461037 0.197215 0.171354 -0.059685 -0.728834 0.067113 0.275486 -0.030654 -0.517402 -0.337993 -0.428442 0.274284 0.388934 0.322659 0.012772 0.285474 0.330655 -0.572551 -0.046613 -0.407001 -0.061145 -0.459751 0.428427 0.175892 0.017598 -0.177216 -0.574420 -0.366721 -0.301457 0.075943 -0.091848 -0.657103 0.171981 0.478464 -0.412659 0.016637 0.885106 -0.479639 -0.080063 0.036388 -0.199560 0.290616 0.041688 -0.376243 -0.367405
called -0.463633 -0.796093 -0.266168 0.691900 0.249843 0.623354 0.171707 0.294557 0.061637 -0.865965 -0.347872 -0.205427 0.060950 0.364368 -0.858735 0.008009 -0.667562 0.325085 0.066379 -0.077728 -0.136735 -0.014917 -0.344431 -0.819481 -0.715808 -0.581196 0.047726 -0.353261 0.303918 -0.322210 -0.145359 0.222416 -0.203144 -0.962819 0.269403 0.101280 -0.520265 -0.348268 -0.305917 -0.057499 -0.720936 0.256233 0.117850 0.090026 0.097668 0.210539 0.094369 -0.273704 -0.661050 -0.688024
Grunnings 0.376350 -0.492216 0.184057 0.523734 -0.025965 -0.220038 0.539779 -0.290319 0.015156 -0.322369 0.087962 -0.108029 0.243810 0.354014 -0.887051 0.629603 -0.180753 -0.010670 -0.242248 0.078262 0.506600 -0.381878 -0.262708 -0.839353 -0.018746 0.112631 -0.801131 0.003078 0.600534 -0.186554 0.021756 0.500300 0.157736 -0.044286 0.351895 -0.762546 -0.059912 -0.207598 0.456314 -0.501398 -0.088842 -0.416256 -0.430361 -0.109741 0.082142 -0.630297 0.061721 0.277114 -0.270924 0.152082
which -0.062517 -0.314227 -0.476595 -0.027979 0.389731 -0.439336 0.111007 -0.252985 -0.166824 -0.497705 0.239062 -0.439809 0.192010 -0.176577 -0.171280 0.064422 -0.458957 -0.035854 -0.101692 -0.626821 -0.043733 -0.630489 -0.571925 -0.091662 -0.214934 0.200577 0.033549 -0.105465 0.455737 -0.459483 -0.068509 -0.413108 -0.406650 -0.669784 0.040457 -0.317641 -0.509829 0.723103 0.346754 -0.791873 -0.218370 0.191021 -0.486075 -1.405164 0.469721 -0.583860 -0.810074 0.498140 -0.244876 -0.051277
made -0.354601 -0.276811 0.376156 0.785221 0.238255 0.181880 0.192626 -1.077321 0.263849 -0.794898 -0.945069 0.295614 -0.623225 0.459827 -0.137065 0.482007 0.116554 0.417999 -0.391211 -0.739099 0.736790 0.915409 -0.082162 -0.944497 -1.127349 0.158206 0.419813 -0.118034 0.223121 0.414083 -0.319634 -0.249434 -1.005811 -0.433231 0.331569 0.346835 0.164965 -0.520664 0.328418 0.104028 -0.234946 0.225787 0.290000 -1.007117 0.267716 -0.394628 -0.420284 0.475495 -0.263416 0.375732
drills -0.183977 -0.720612 -0.107275 0.108938 0.087829 0.695184 0.438222 -0.845884 -0.028509 0.256454 -0.783634 0.183603 0.075532 0.088737 -0.723173 0.369118 -0.155813 -0.075673 -0.291360 -0.463765 0.181094 -0.264783 -0.574142 -0.130261 -0.855516 -0.100966 -0.412050 -0.291922 0.558430 -0.423181 -0.151977 -0.279650 -0.121363 -0.104420 0.079495 0.268754 -0.555833 0.357029 0.016634 -0.464768 -0.050423 -0.214343 0.172453 0.070618 0.516377 -0.692855 -0.284699 0.174977 -0.007228 -0.067104
He -0.153467 -0.305261 0.540446 0.075598 0.318936 -0.273461 0.098895 -0.524477 0.180864 -1.064422 0.289231 -0.533727 0.071447 0.934872 -0.203280 1.308408 -0.777142 -0.203771 -1.274799 -0.931672 -0.125888 0.157092 -0.375599 0.258834 -0.394903 0.077740 0.345616 -0.039697 -0.384044 -0.465366 0.250359 0.076585 -0.498362 -0.702410 -0.309430 -0.973143 0.066054 0.364399 0.515915 0.310727 -0.509351 -0.381164 0.488983 -0.266975 0.456245 -0.754199 -0.435878 -0.174759 -1.202230 0.728714
big -0.203766 -0.504235 -0.093993 0.709660 -0.294952 1.045359 0.220874 -0.300550 0.070297 -0.069985 -0.511002 -0.017199 -0.219077 0.343597 -0.469359 0.075227 0.130735 -0.369664 0.056666 0.064468 0.320899 -0.807897 -0.891353 0.150491 -0.968482 -0.092129 -1.114433 0.411644 0.727539 -0.885031 -0.086467 0.635724 -0.731395 0.413886 0.334494 -0.431529 -0.464907 -0.057898 -0.006355 -0.067428 -0.311682 0.445894 0.178468 -0.343214 0.024826 0.297621 -0.064484 0.142990 -0.058698 0.378185
beefy 0.163386 -0.429635 0.240358 0.501108 0.375645 -0.335939 0.079370 -0.299768 -0.049095 -0.566859 -0.158076 0.261077 0.215940 -0.337093 0.010099 -0.108754 0.179829 0.080627 -0.499116 -0.054749 -0.251140 -0.357254 -0.666290 -0.500295 -0.812820 0.163223 -0.486811 0.063399 0.055538 -0.086898 -0.718659 -0.381160 -0.359148 0.451800 -0.123691 -0.402611 0.053569 -0.337074 -0.142033 0.019074 0.103956 0.676579 -0.107598 -0.010191 0.250704 -0.120187 0.186780 0.105894 -0.244810 -0.098311
man -0.441581 0.227899 -0.015008 1.143273 0.288282 -0.555479 0.454063 -0.882179 0.072328 0.131499 0.077020 -0.021117 -0.833640 0.598795 -0.601440 0.166876 -0.114707 -0.575563 0.069422 0.022651 -0.119564 -0.430203 -0.982288 -0.037267 -1.045299 -1.054829 -0.923809 -0.137380 -0.123711 -0.239531 -0.501860 -0.315626 -0.471376 -0.834043 0.554941 0.688001 -0.307071 0.101038 -0.009602 0.265344 -0.706072 0.795126 0.041078 -0.517610 0.495976 -0.321028 0.040145 -0.431679 0.371475 0.053851
hardly -0.216818 -0.635071 -0.362417 0.553927 0.198352 -0.342914 0.317700 -0.363880 0.283178 -0.181256 -0.609160 0.017696 0.143510 0.310747 -0.148236 0.307144 -0.557251 0.510398 0.080506 -0.441237 0.325843 0.086711 0.017507 -0.301231 -0.787654 -0.599488 0.242867 0.245715 -0.527355 -0.191245 0.106883 -0.005262 -0.754039 -0.392242 -0.222643 -0.210805 -0.686293 -0.143769 0.214239 -0.660085 0.096813 0.272089 0.049631 0.456792 0.609027 -0.680237 0.814960 -0.148693 -0.535039 0.609759
any -0.111639 -0.800199 -0.462439 1.038757 0.254837 0.058469 -0.135149 0.540301 0.106753 -0.384456 -0.675857 0.577358 -0.819987 0.151699 -0.658597 0.851821 0.331981 -0.102878 -0.821444 -1.061698 -0.142794 0.065400 0.252670 -0.324124 -0.851787 -0.560679 0.871281 0.608833 0.515375 0.043989 -0.122391 0.635380 0.333521 -0.562499 -0.532711 -0.677845 0.395222 0.504244 0.628314 -0.016229 -0.277035 -0.291368 0.375890 -0.270204 0.506090 -0.257634 0.258688 0.582198 -0.445776 0.195639
neck -0.325554 -0.088190 -0.463834 0.064856 -0.128034 -0.056936 0.547321 0.476535 0.074928 -0.175626 -0.060831 -0.779752 -0.238747 0.331874 -0.707071 0.355017 0.158769 -0.266505 -0.437367 -0.949495 0.303681 0.405420 -0.780537 -0.195774 -0.435400 -0.007851 -0.381640 0.245304 0.258532 -0.036326 -0.404394 -0.508565 0.072761 -0.150498 0.201491 -0.051426 -0.422960 0.134731 -0.120187 -0.677242 -0.525034 0.222150 0.794038 0.056444 1.169227 -0.484288 -0.272350 0.053636 -0.532971 -0.260999
although 0.000297 0.074033 -0.218854 0.462027 0.323938 -0.274437 0.501365 -0.754269 -0.212462 -0.792798 -0.173993 -0.456384 -0.286237 -0.130336 -0.152909 -0.413598 0.275419 -0.205338 -0.246023 -0.032225 0.234065 -0.598554 -0.374151 -0.554996 -0.614520 0.232570 0.190701 -0.271958 -0.400943 0.079999 -0.160434 -0.258750 -1.103327 -0.511499 0.459603 -0.336300 0.111901 -0.173259 0.390743 -0.625938 -0.380695 0.982769 -0.409993 0.185995 0.213399 -0.114906 0.711639 -0.444601 -0.078610 -0.500721
he -0.149026 -0.545264 -0.107637 0.414615 -0.448697 -0.240731 0.874825 0.064274 0.516341 -0.684258 -0.116545 0.741481 -0.317114 -0.213703 -0.176739 0.108398 -0.719052 -0.281628 0.158370 -0.002799 0.058735 -0.106341 -0.304284 0.355212 -0.787065 0.125621 -0.263417 0.948791 -0.322036 -0.639901 0.474091 -0.336016 -1.118453 -0.717361 -0.621636 -0.370986 0.427441 0.624587 -0.251838 -0.008810 0.269250 0.161612 0.445714 0.228329 0.498047 -0.648199 -0.294594 -0.249535 -1.319922 0.448688
did 0.833286 -0.939622 -0.760891 0.491651 -0.243747 0.041608 1.045973 0.040006 0.805422 -0.915190 -1.703407 -0.440992 0.523098 0.741189 0.720032 0.207089 0.032603 -0.490926 0.771089 0.450350 0.752844 -0.208499 -0.401467 -0.928489 -0.795330 -0.036667 0.312579 -0.177611 -0.402248 0.627735 0.281339 -0.118102 -0.132453 -0.213080 0.359459 -0.239280 -0.172618 0.545887 0.476990 -0.218657 -0.349263 0.874616 0.065044 -0.566032 0.070283 -0.193700 0.775462 -0.768435 -1.626956 0.732543
have -0.892354 0.348650 -0.929572 0.366988 0.661549 -0.066930 0.032266 -1.121586 1.330042 -0.767889 -0.788631 1.026676 -0.517688 0.426321 -0.400702 0.399624 0.052693 0.228451 -0.484225 0.369603 -0.485910 -0.401291 -0.110044 -0.883100 -0.810459 -0.915333 0.566102 -0.036327 -0.148620 0.430670 0.015806 -0.497595 -1.041550 -0.098007 -0.102059 -0.703196 -0.049590 -0.652598 -0.341665 -0.310841 0.073942 1.105104 -0.791476 -0.010626 0.519475 -0.440732 -0.210813 0.900744 -0.687215 0.611048
large -0.675707 -0.237626 0.642626 -0.189368 -0.478208 0.327490 0.259052 -0.162675 0.097117 -0.588622 0.215981 -0.243576 -0.167498 -0.097389 -0.179464 0.338174 -0.608481 -0.184555 -0.038463 0.007060 -0.485440 1.279852 -1.116906 -0.509189 -0.432627 -0.418165 -0.872776 0.177875 0.891537 0.094462 -0.745360 -1.124424 -0.169325 0.184678 -0.190170 -0.559633 -0.716834 0.672447 0.372653 0.010064 -0.761834 0.999605 -0.445260 -0.739359 -0.121993 -0.407682 -0.350692 0.706861 0.001822 0.271699
mustache -0.262663 -0.278819 0.175509 0.270545 0.090145 0.654224 -0.244763 -0.978486 -0.442425 -0.925597 0.671216 -0.412357 -0.322960 -0.466123 -0.059231 0.018926 -0.221681 -0.196190 -0.496710 -0.854550 -0.157939 -0.543848 -0.522191 -0.645526 -0.539115 -0.019517 -0.359119 -0.087402 0.416091 -0.006621 0.329393 -0.545212 -0.063216 -0.043067 -0.118499 0.120021 0.099065 0.539331 0.300456 -0.047742 -0.615792 -0.056624 0.214968 -0.232300 0.392527 -0.423127 0.063606 0.217857 0.210908 0.343542
thin -0.279854 0.061307 0.519478 0.159741 0.008916 -0.030782 0.229005 0.298363 -0.576125 0.099026 -0.043126 -0.087970 -0.858650 -0.189030 -0.523562 0.317622 -0.136692 -0.342633 -0.384401 -0.457346 0.327289 0.346283 -1.224157 -0.259880 -0.538416 -0.075340 -0.608795 0.214394 0.309910 -0.489483 0.159688 -0.444471 -0.211735 0.145471 -0.312524 -0.561111 -0.793263 -0.049264 -0.069079 0.057589 0.089102 0.955154 0.373248 -0.948202 0.142369 -0.436470 0.645983 -0.084651 0.085876 0.860606
blonde -0.618483 -0.547297 -0.233232 0.254559 -0.443073 -0.009434 0.410362 -0.357442 -0.465995 -0.210595 -0.029668 -0.032110 -0.541785 0.077524 -0.095563 0.263965 -0.295903 -0.151430 -0.595023 -0.575190 -0.010899 -0.369078 0.016856 0.129341 -0.281844 -0.462325 -0.601714 -0.167944 0.388086 -0.678316 0.041243 -0.701237 -0.205119 0.217397 0.009303 -0.436131 -0.703097 0.630088 -0.119528 -0.367482 0.037310 0.201846 -0.566252 -0.013546 -0.065161 -0.307316 0.467703 0.156833 0.159256 0.105632
had -0.668784 -0.148006 0.216041 0.058426 0.208650 0.498268 0.530315 -1.736875 0.027211 -0.558265 -0.590197 -0.082378 0.336691 1.086649 0.093441 0.375885 -0.702523 -0.196656 -0.399978 -0.265544 0.561129 -0.148915 0.473190 -0.628534 -0.873168 -0.363480 0.382684 -0.396914 -0.288408 -0.177008 -0.130208 0.211724 -0.254207 0.302457 -1.118308 -0.533131 0.111943 0.219732 -0.035810 0.144922 -0.583036 1.221902 0.147921 -0.294698 0.187906 0.045714 0.617060 0.827192 -1.000285 1.349343
nearly 0.283957 -0.656281 0.090289 0.375318 0.284260 -0.122464 0.004335 -0.900003 0.305127 -0.262868 -0.269834 -0.245232 -0.014436 0.253320 0.099642 0.652871 -0.317543 0.702254 -0.229174 -0.259230 0.372430 -0.288555 -0.580480 -0.112942 -0.436587 -0.098894 -0.378719 -0.360043 -0.156243 0.366309 0.521082 0.157922 -0.358879 0.064075 -0.819717 -0.429834 -0.716936 -0.204746 0.627552 -0.307195 -0.325983 0.234146 0.137084 -0.403041 0.989728 -0.017533 0.273140 0.704038 -0.605360 0.271515
twice 0.222706 -0.293286 -0.203738 0.204754 -0.093024 -0.042257 0.842504 0.373925 0.201224 -0.597897 -0.091637 -0.269244 -0.297159 0.344998 -0.797004 -0.257078 0.483941 0.350581 -0.242237 -0.985859 0.405233 -0.559801 -0.407777 -0.281282 -0.494915 0.512432 -0.270773 -0.082461 0.636952 -0.372241 0.389511 -0.175270 -0.342496 -0.159784 -0.541221 -0.465674 0.078342 0.368735 0.121486 0.007274 0.520552 0.497347 0.600187 0.181752 0.144226 -0.463058 -0.195951 0.294075 -1.032310 -0.028842
usual -0.117385 -0.588505 -0.671647 0.223608 -0.322046 -0.409836 0.464727 0.011862 0.106758 -0.761310 -0.053906 -0.057174 -0.616149 0.086979 -0.476285 -0.262441 -0.414540 0.757835 -0.888677 -0.458702 0.267995 -0.308584 0.035137 -0.762245 -0.886825 -0.289019 -0.513134 0.881235 -0.181741 -0.395192 0.048755 0.198273 0.306752 0.372661 -0.391225 -0.163518 -0.933428 0.646186 0.069271 0.202504 -0.116417 -0.255712 0.652914 0.094384 0.814686 -0.423572 -0.111469 0.346931 -0.348697 -0.174749
amount -0.318955 0.055877 -0.303402 0.264028 0.216004 -0.314044 0.087191 -0.633131 0.448741 0.014973 -0.503761 -0.089195 -0.367958 0.281221 -0.146624 0.429989 -0.065831 -0.356148 0.054207 -0.559551 0.509903 0.186362 -0.285694 -0.692509 0.029005 0.289471 0.164064 0.072617 0.625020 -0.233910 0.248043 -0.363578 -0.316022 -0.247613 0.038554 -0.745134 -0.098238 0.476000 0.271884 -0.417280 -0.428213 -0.301509 -0.241143 0.197131 0.379113 -0.461343 -0.218538 0.074478 -0.058833 0.245595
came -0.953214 -0.309213 -0.339184 0.563804 0.032893 -0.201929 -0.044170 -0.572501 -1.003479 -0.128900 -0.088798 0.577258 -0.472578 -0.385038 -0.466894 -0.253002 -0.120041 -0.316152 -0.984547 -0.972790 0.617531 0.165387 -0.080355 -0.099296 -0.306091 0.121496 -0.698568 -0.203302 0.138825 0.161589 -0.274530 0.209371 -0.161709 0.232091 0.152741 0.044904 -0.188375 0.828875 -0.029534 0.054868 -0.030525 1.041215 0.358579 -0.298298 -0.289911 0.349606 0.957180 -0.418807 -1.134469 -0.030284
useful 0.062919 -0.408547 -0.691034 0.312194 0.143776 -0.315879 0.254140 -0.203753 0.197608 -0.184239 -0.714810 -0.112462 -0.130659 0.333272 0.247920 0.810531 -0.550037 0.501363 0.136524 -0.016045 0.358978 -0.500630 -0.520843 -0.754409 -0.621374 -0.556242 -0.287512 0.585498 0.323096 -0.163427 0.072809 0.328045 -0.521193 0.154647 -0.602018 -0.280404 0.011401 -0.103707 -0.281920 -0.496214 -0.373844 0.369178 -0.202257 0.128696 -0.187466 -0.460696 0.716331 -0.141735 -0.303548 -0.220649
as 0.212889 0.391888 0.107195 -0.501279 -0.713515 -0.468400 0.072944 0.826988 -0.087614 -0.116673 -0.752616 -0.004788 -0.236218 1.138688 0.090587 -0.144521 -0.378183 0.964650 -0.690044 -0.986903 0.441768 0.208358 -0.955691 0.055875 -1.239801 -0.494194 -0.119261 0.301797 -0.745620 -0.475843 0.469424 0.028311 -0.750660 0.258755 -0.309318 -0.565729 -0.578943 0.230406 -0.177382 0.137697 -1.080357 -0.131588 -0.321245 -0.194414 1.040147 0.064517 0.290123 -0.530768 -1.149232 1.259624
she -0.180879 -0.651631 0.300586 -0.341101 0.149399 -0.284439 0.178345 0.246018 0.369794 -0.133894 0.416779 0.455582 -0.188235 0.200011 -0.801159 0.000784 -0.804521 -0.323118 -0.561714 -0.237573 0.027248 -0.125735 -0.199955 -0.175521 -1.070048 -0.403127 0.056198 -0.002805 0.414719 -0.565895 0.138764 -0.119374 -1.093702 -0.874126 -0.680333 -0.381849 0.529335 0.835271 -0.093409 -0.232191 -0.204547 -0.499088 0.366509 0.581111 0.064454 -0.880582 0.153741 -0.312399 -1.050836 0.010459
spent 0.285142 -0.320863 -0.108634 0.021919 -0.477673 -0.297001 -0.049927 -0.377668 -0.113561 -0.016398 -0.073485 0.188713 -0.713835 -0.497347 -0.452658 0.143516 0.243922 0.440853 -0.966960 -0.074294 0.240993 0.617003 -0.337370 -1.131262 -0.753173 -0.143810 -0.070094 -0.322073 0.076053 -0.023675 0.449354 0.210255 -0.499059 0.113623 0.478149 0.154902 -0.398017 0.142376 -0.446890 -0.290385 -0.228128 1.045316 0.209882 0.273828 0.502471 0.175980 0.709048 0.368979 -0.120934 0.601601
so -0.732315 -0.046463 -0.610424 -0.369862 0.335678 0.412602 0.297613 -0.724634 0.205210 -0.841567 -1.043861 0.078935 -0.305289 0.580965 -0.420680 -0.181913 0.545451 -0.376767 -0.293385 0.240201 0.199899 -0.542650 -1.130149 0.002387 -1.271906 -0.378576 0.210612 0.056793 0.160604 -1.005139 0.857160 -0.583558 -0.940899 -0.412579 0.036296 0.006161 -0.134321 -0.951084 0.081131 0.227245 0.266886 0.277788 -0.163907 -0.371129 0.384667 0.950216 0.212584 0.139164 -1.586550 1.451456
her -1.010204 -0.204771 -0.209045 -0.172458 1.012791 -0.433236 -0.275785 -0.524783 1.103818 0.611499 0.175014 -0.012686 -0.247980 0.606917 0.018452 0.038208 -0.253847 0.232788 -0.460587 -0.695585 0.105907 0.707323 -0.130194 -0.182452 -1.053294 0.370807 -0.314255 0.888499 0.336562 -0.978079 0.924962 0.008484 -0.496185 -1.068221 -0.033303 -0.415599 -1.336050 0.461312 0.665375 -0.200591 -0.633452 0.000773 -0.137433 -1.372666 0.014473 -0.166786 0.466911 0.294085 -0.089117 0.686564
time -0.450136 -0.702684 -0.483236 -0.080416 0.362411 -0.289786 0.116071 0.032385 0.504651 -0.488234 -0.329736 -0.021479 0.450198 -0.654636 0.086846 -0.020686 -0.417392 -0.355971 -0.118320 -0.877880 -0.143761 0.548004 0.187717 -0.651187 -1.246295 -1.074625 0.245142 -0.188541 -0.268105 -0.204639 -0.198653 0.578849 -1.239098 -0.227269 0.311266 -0.836996 0.009058 -0.251460 0.001569 -0.789541 -0.423394 -0.017907 0.500015 -0.906305 0.393952 -0.052561 0.333687 0.001488 -0.242469 1.071456
craning 0.034843 -0.506330 0.209347 0.012705 -0.063709 -0.002184 0.376431 -0.423651 -0.205945 -0.374375 -0.094151 0.375302 -0.018887 0.162113 -0.402591 0.437804 0.127996 -0.070476 -0.181558 0.199404 -0.539666 0.351211 -0.308468 -0.467435 0.003827 0.037837 -0.131449 0.184293 -0.128304 0.330142 0.397569 -0.510157 -0.470555 0.156644 -0.012769 -0.159643 -0.498386 -0.063451 -0.026780 -0.167814 -0.768164 0.443213 -0.398808 0.026356 0.657319 -0.068081 0.154431 -0.422381 -0.271787 -0.458322
over -0.415996 0.167571 -0.259116 -0.130025 0.203780 0.620958 -0.474415 -0.109688 -0.651471 -0.799745 -0.301899 0.008562 0.162130 -0.059459 -0.049003 0.727382 -0.056712 0.862923 -0.168935 -1.271245 0.263516 0.215402 -0.685611 0.351528 -0.270814 0.834651 -0.688152 -0.408331 0.233605 -0.233271 0.478552 0.257379 -0.780911 -1.233911 -0.498397 -0.633218 -0.547274 0.609342 0.278624 0.106750 -0.154457 -0.558977 -0.296336 -0.790427 1.285134 -0.189458 0.226789 -0.428522 -1.426767 0.253923
garden -0.090148 -0.468916 0.074167 0.578025 0.018204 -0.318338 0.657975 -0.195876 -0.287573 -0.223756 -0.048103 -0.084500 0.070286 -0.250783 -0.088891 0.498853 -0.255167 -0.436798 -0.133028 -0.209647 -0.180563 0.153626 -0.718694 -0.127705 -0.693735 0.313762 0.058738 -0.228986 0.452212 0.082217 0.150478 -0.501804 0.486799 -0.676260 0.856410 0.008381 -0.354998 0.881025 -0.118355 -0.531697 0.391529 0.260132 -0.142567 -0.736133 0.260434 -0.364597 0.539636 -0.128167 -0.176812 -0.046111
fences 0.106319 0.238351 -0.521178 -0.241254 -0.206381 0.247066 0.017082 -0.326310 0.092779 0.277200 -0.318088 -0.580936 -0.281948 -0.135448 -0.695487 0.022248 0.273385 -0.711475 -0.561562 0.343573 0.167014 -0.254978 -0.339688 -0.127164 -0.519810 0.537949 0.204374 0.141211 0.214520 0.291139 0.454779 -0.745125 0.316399 -0.203382 0.057061 -0.384428 0.052641 0.191529 -0.246275 -0.123762 -0.127459 -0.204976 0.117506 -0.137945 0.013051 -0.429520 0.526307 -0.648415 -0.391946 -0.503380
spying -0.570199 -0.430255 -0.522623 0.080869 0.059098 -0.101562 0.406601 -0.021535 0.249611 -0.290421 -0.373228 -0.166940 -0.158148 0.332707 0.004235 -0.401637 -0.320365 -0.310632 -0.457383 -0.262444 -0.182112 -0.420948 -0.558253 -0.582822 -0.261118 -0.253894 -0.298922 -0.038876 0.475729 0.064814 0.445595 -0.534378 -0.458395 -0.345271 -0.222921 -0.615590 0.055559 0.012738 0.102264 0.023955 -0.404399 0.232287 0.017482 -0.117730 0.365432 -0.586727 -0.257797 0.039479 0.202622 0.306398
on 0.329776 -0.122896 0.136951 0.066665 0.468938 0.168001 0.491402 -0.009382 0.236797 -0.689894 0.204447 -0.290309 -0.115737 0.694781 -0.516784 0.839511 0.565541 -0.416521 0.656617 -0.321202 0.195125 -0.048869 0.042317 -0.109389 -1.020284 0.092491 -0.078123 -1.176535 -0.021186 -0.074704 -0.599917 -0.242086 -1.109866 -0.553147 -0.185400 -0.977812 -1.360989 0.388272 0.003528 -0.481901 -0.158916 0.074563 0.428202 -0.989322 0.642767 -0.269154 -0.507233 0.674673 -0.776442 -0.969053
neighbors -0.175399 -0.400611 -0.058985 0.571227 -0.008518 -0.100602 0.000468 0.021158 0.543592 -0.786096 -0.308732 -0.293000 -0.428374 -0.661100 -0.047470 0.299380 -0.244406 -0.628948 -0.023518 -0.037084 0.132178 -0.169249 -0.251446 -0.538085 -0.590741 0.350001 -0.341752 0.092556 -0.051399 0.134895 -0.015836 -0.270991 -0.027774 -0.370106 0.271668 0.247951 -0.764116 0.027306 -0.545111 -0.057307 -0.431597 -0.074249 0.255928 -0.414841 0.372129 -0.260662 -0.039552 -0.331130 -0.160830 -0.051993
The -0.744029 0.292352 0.906706 0.145907 -0.930887 -0.306571 0.501435 -0.475094 0.089717 -0.604028 -0.729913 -0.479947 0.256249 0.059188 -0.275606 -0.037165 0.336478 -0.410235 0.098880 -0.917599 -0.125737 -0.833792 -0.920764 -0.246087 -0.682651 0.483690 0.414737 -0.468440 0.825244 -0.471049 0.041361 -0.159050 1.025110 -1.583460 -0.741412 -0.639240 0.044216 0.205343 -0.404744 -0.460720 -0.701949 0.131069 -0.580586 -0.908676 -0.327419 -0.359913 -0.274048 0.304236 -0.179006 0.198712
Dursleys 0.520905 -0.179052 -0.731793 0.520646 0.125568 0.383889 0.728382 -0.253068 0.254775 -0.004624 -0.681381 -0.643101 0.335385 0.715298 -0.463943 0.508295 0.305544 -0.545324 -0.988950 0.221107 -0.497245 -0.359030 -0.074100 0.391049 -0.708408 0.611616 0.100511 -0.237867 -0.200320 -0.636000 -0.192406 -0.513253 -0.881926 -0.590026 -0.744104 -0.348053 0.005565 1.383012 0.949148 -0.403957 -0.074904 0.367039 0.567572 -0.581661 0.266512 -0.949678 0.723299 0.012438 0.060636 0.814384
small -0.634725 -0.334907 0.215919 -0.704247 0.023969 -0.706502 1.084271 -0.517520 -0.664390 -0.429236 -0.232370 -0.344298 -0.239396 -0.216128 -0.723068 0.239992 0.221432 0.268202 -0.333100 -0.668294 0.322690 0.073051 -0.632275 0.139159 -0.804414 -0.417920 -0.805847 0.309398 0.449875 0.355511 -0.564546 0.269795 -0.652822 0.357715 0.300954 -0.585997 -0.598214 0.076492 0.690025 -0.124418 -0.957477 0.610487 0.131225 -0.249982 -0.310917 -0.393901 -0.501971 -0.455827 0.290841 0.588710
son -0.011676 -0.237171 0.018712 -0.224220 -0.186713 0.027783 -0.029615 -0.376461 -0.215539 -0.245558 0.093643 0.250326 0.028215 -0.854878 -0.678204 0.488086 -0.125568 0.052766 0.175874 -0.219675 0.482999 0.336517 -0.391068 -0.384369 -0.205895 -0.145688 -0.037221 -0.152944 -0.078507 -0.156456 -0.237823 0.380035 -0.384405 -0.584907 -0.436693 -0.308408 -0.642745 0.656918 0.578607 -0.252175 -0.165242 0.393976 -0.470652 -0.064200 0.453329 -0.886001 0.274121 -0.573265 -0.291546 0.611154
Dudley -0.801092 -0.523983 0.296131 -0.130056 -0.633648 0.361240 0.147665 -0.437029 -0.201792 0.079648 -1.299784 -0.706829 -0.412630 0.115687 0.223296 0.794889 -0.593141 -0.907831 -0.518284 -0.316984 0.069703 -0.093101 -0.534704 -0.182701 -0.623434 0.328566 0.179794 0.447969 -0.528747 -0.849426 -0.392754 0.386009 0.170960 -0.649247 -0.851134 -0.180513 0.307193 0.199029 0.159834 -0.686794 -0.437383 -0.165223 0.933301 -0.072218 0.127142 -1.056658 0.359382 -0.444812 -0.917193 0.674024
their 0.020348 -0.876494 -0.039953 -0.087503 0.806596 -0.874276 -0.108624 0.044767 -0.133655 -0.347856 -0.810904 0.801563 -0.027792 0.471798 -0.678460 -0.235098 0.363424 -0.742069 -0.140579 0.072498 0.525280 0.806940 0.813871 -0.135813 -0.266510 0.268644 -0.268288 0.255532 0.973687 -0.065709 0.068907 -1.443267 -0.525176 0.001685 -0.100719 -0.754621 -0.442594 0.567325 -0.176670 -0.039850 -1.201008 -0.441583 -0.807757 -0.678136 0.874339 -0.597371 0.517472 0.591777 -1.109779 0.010218
opinion -0.016362 0.527124 0.341040 -0.123735 -0.445562 0.347425 0.786496 -0.435246 0.408359 -0.664517 -0.160172 0.136157 0.637583 -0.442409 -0.820284 0.415649 -0.123785 -0.111237 0.170957 -0.015981 0.482493 0.055227 -0.045218 -0.231989 -0.324881 -0.260793 -0.875323 0.077588 -0.108750 0.285628 0.242392 -0.523396 -0.458670 -0.504209 -0.169954 0.275581 0.096707 0.092931 -0.120448 -0.479798 -0.468286 0.630855 0.256255 0.127105 0.620411 -0.445655 0.746300 0.189239 -0.627952 0.325662
there 0.004008 -0.612752 0.419449 0.362044 -0.078914 -0.807314 0.124018 -1.461816 -0.318300 -0.903472 -0.869614 0.172936 0.250929 -0.280215 0.043271 -0.233149 -0.086490 -0.334642 -0.312093 -0.087194 0.374417 -0.624421 -0.246457 0.043895 -1.258247 -0.059274 -0.817190 0.096553 0.357593 -0.205489 0.217576 -0.026724 -1.516098 -0.069984 -0.292295 -0.108216 0.704930 -0.264863 0.307332 -0.161938 0.297581 0.017491 0.790816 -0.260558 -0.034071 -0.251335 0.244079 0.226689 -0.771260 0.336055
no 0.224111 -0.603383 -0.454005 0.946042 -0.898834 0.728049 0.696382 -0.916974 0.481360 -0.113565 -0.073023 0.459157 0.023888 -0.043522 0.082419 -0.601507 -0.084744 -0.486242 -0.305171 -0.441607 0.161202 -0.459275 -1.098820 -0.200608 -1.932268 -0.221889 -0.136951 -0.337864 1.271531 -1.581503 0.285095 0.976845 -1.185955 0.002709 -0.358762 -0.272096 0.242188 0.381565 0.156283 0.072037 -0.037467 -0.214793 0.047863 -0.198067 -1.143992 -0.088957 -0.925049 -0.005972 -0.938593 0.005961
finer -0.269472 0.159864 -0.599028 0.403204 -0.675339 0.362054 -0.072725 -0.612102 0.355080 -0.438298 0.000026 -0.526802 -0.120040 0.229092 -0.157354 -0.226401 -0.199308 -0.344506 -0.324217 0.196029 -0.396712 -0.254211 -0.732008 -0.170055 -0.782450 -0.121196 0.113679 0.157543 0.535751 -0.212624 -0.261929 0.419292 -0.151808 0.339038 -0.411194 -0.593950 0.142845 0.170396 -0.161132 -0.505749 0.145446 0.274929 -0.180389 0.183533 0.072729 -0.785935 0.794041 -0.232761 0.262539 0.433573
boy -0.743313 -0.010269 -1.158746 0.879018 -0.080359 0.648036 0.567316 -0.704866 -0.211344 -0.686903 0.014816 -0.307598 0.418242 0.037864 -0.412317 0.334426 -0.921917 -0.425253 -0.470881 -0.406748 -0.244772 -0.570354 -0.038221 -0.216782 -0.081733 -0.425515 -0.511706 -0.155579 -0.314581 -0.851978 0.777467 0.036362 -0.469033 -0.503503 0.656422 0.131248 -0.647101 0.729770 0.104929 -0.080021 -0.029583 -0.159148 -0.048891 -0.402117 0.210680 -0.532087 -0.087224 -0.293326 0.055252 0.281381
anywhere 0.185286 -0.489910 0.231438 0.268397 -0.008558 0.082989 -0.186743 -0.466266 -0.072016 -0.777612 0.341347 -0.185604 -0.078148 -0.312563 -0.076841 -0.094180 0.169749 0.081231 -0.318079 -0.159016 -0.083980 -0.115436 -0.365433 -0.499184 0.015727 -0.169072 0.023189 0.647575 -0.165216 -0.627888 0.237225 -0.263639 -0.616729 0.023123 -0.511574 -0.186936 -0.187609 0.582929 0.246434 0.236586 0.143180 -0.202174 0.423804 -0.610427 0.703353 -0.307527 0.533998 -0.582877 -0.298643 -0.097632
everything 0.134417 -0.800895 0.159260 0.371278 -0.304414 -0.129117 0.433806 -0.345589 0.285443 -0.861276 -0.800404 0.028762 -0.544786 -0.328972 -0.113367 0.284452 0.274940 -0.464018 -0.991069 0.104318 -0.524611 -0.320858 0.023329 0.184784 -0.754027 0.387736 0.234814 0.613491 0.135839 -0.058819 0.293624 0.408663 -0.269840 -0.402181 -0.058080 -0.232106 -0.103172 0.764497 -0.049932 0.068499 -0.038655 0.299549 0.474383 0.129198 0.203512 -0.465728 -0.105361 0.507449 -1.099802 0.130970
wanted 0.041489 -0.595321 -0.554419 0.885687 -0.074523 0.822913 0.063555 -0.413617 0.640553 -0.889937 -0.490936 0.249305 -0.873166 -0.289830 0.781917 -0.376921 -0.367113 -0.469109 -0.201189 -0.549454 1.124630 -0.630661 -0.393421 -0.581746 -0.120045 -0.412875 0.065579 0.113357 -0.227230 -0.541611 0.383051 0.391320 -0.721833 -0.158222 -0.160820 -0.653305 -0.198745 0.843726 0.879980 -0.454253 -0.340959 0.730741 0.102973 -0.531391 -0.345842 0.057571 0.005266 -0.290804 -1.309837 0.379415
but 0.368887 -0.105208 -0.266137 0.048718 0.445288 -0.338242 -0.168849 -0.320561 -0.091204 -0.704706 -0.228664 0.111160 -0.180592 0.562876 0.288339 0.225218 0.173473 -0.176443 0.227555 -0.086656 -0.098083 -0.075336 -1.056363 -0.207761 -1.237053 0.194184 0.004441 0.432636 0.331005 -0.148251 -0.079209 0.601723 -1.046309 -0.955476 0.092542 0.786132 -0.157344 -0.101880 0.390913 -0.115451 0.115265 0.174651 -0.077053 0.012192 0.749097 -0.669941 0.179265 -0.017363 -0.954974 0.436953
also -0.792917 -0.372915 -0.294088 0.256119 -0.555481 -0.082351 0.780096 -0.643074 -0.014650 -0.895975 0.293580 0.045773 0.179409 0.212791 -0.055966 0.040873 -0.677508 -0.315726 -0.135930 0.355801 0.167511 0.139963 0.040939 -0.917073 -0.266308 -0.483934 -0.281761 -0.236370 -0.287099 -0.318333 -0.351117 0.000330 -0.152806 0.011237 -0.674765 -0.188242 -0.295896 0.422826 0.599098 -0.095192 -0.581898 0.904107 0.675583 -0.344216 0.679235 -0.030832 0.180037 0.495377 -0.233822 0.287644
secret 0.250247 -0.311253 0.022980 -0.599809 -0.135408 0.156128 0.197014 -0.785401 0.071704 -0.747865 -0.311601 0.086152 -0.230880 -0.641854 -0.145216 0.110824 -0.515437 0.238201 -0.554498 0.430547 -0.058779 -0.236755 -0.277048 -0.987334 -0.251593 -0.286512 -0.184217 0.611303 0.558241 -0.235090 -0.317103 -0.816690 -0.572476 -0.774203 0.007553 -0.106196 -0.177234 0.778552 -0.366598 -0.430172 0.022429 0.819331 0.356443 0.376095 -0.197490 0.165010 -0.549739 -0.033127 -0.222508 -0.191371
greatest 0.403022 -0.518907 0.025395 0.178477 -0.532855 -0.296631 0.314276 -0.094803 -0.370062 -0.478339 -0.229965 -0.573313 0.519351 -0.542622 -0.638527 0.133152 0.451253 -0.315323 -0.187248 0.179559 -0.321547 -0.094288 -0.410293 -0.651385 -0.978580 -0.195207 0.053231 0.510621 0.237357 -0.114520 -0.026871 0.245324 -0.578978 -0.405776 -0.186804 -0.550749 0.060078 0.003363 0.478873 -0.335571 -0.583480 -0.177171 0.428919 0.051822 0.761941 -0.103948 0.495019 -0.335075 0.461071 -0.276337
fear -0.230070 -0.545194 -0.496437 0.670224 -0.129901 0.086200 -0.148945 -0.425016 -0.476454 -0.044335 -0.030499 -0.008727 0.060752 -0.526594 -0.385496 -0.052068 -0.456267 -0.616106 -0.555687 -0.335679 0.416879 0.280815 0.097996 -0.162345 -0.349957 0.177383 -0.324828 0.459929 0.623345 -0.099157 -0.182027 -0.085571 -0.401362 -0.692220 -0.009371 -0.521612 0.329549 1.078047 -0.210834 -0.675093 -0.026758 0.530667 0.340578 -0.146774 -0.133075 -0.461815 0.071319 0.146328 -0.317225 -0.114942
somebody 0.088998 -0.581634 -0.017208 -0.314139 0.264299 0.082069 0.125323 -0.868520 0.101547 0.174580 -0.142630 -0.061243 -0.035692 0.015416 -0.460905 -0.029897 -0.293372 -0.352262 -0.912368 -0.606664 0.372544 0.240560 -0.462133 -0.789854 -0.458247 0.055984 0.360538 0.381225 0.625484 -0.357806 0.440189 -0.224262 -0.710988 -0.096157 0.208557 0.322029 0.038861 0.447766 0.182391 -0.529547 -0.389863 -0.252335 -0.186840 -0.438829 -0.006632 0.016720 -0.180699 -0.126177 0.076605 -0.390030
would -0.121141 -1.323031 0.028448 0.283719 -0.253356 0.454712 -0.133589 -0.705645 -0.037428 -0.876329 -0.743836 0.201046 -0.444988 0.820105 0.100359 0.620475 -0.179113 0.195157 -0.140870 -0.282317 0.556889 -0.268941 0.080460 -0.500286 0.018108 -0.718455 0.696704 -0.197640 -0.330834 0.061942 1.419042 -0.217273 -0.413694 -0.373487 0.275343 -0.622310 0.134127 0.382994 -0.035325 0.101603 -0.330281 0.893147 -0.426673 -0.661363 0.835622 -0.540671 0.616309 0.312692 -0.799474 -0.008111
discover 0.294279 -0.293617 0.343890 0.150657 -0.041388 -0.403799 0.197782 0.188711 -0.343109 -0.211844 -0.104994 -0.218141 -0.091666 0.316373 0.196502 0.457493 -0.200607 -0.343558 0.091779 -0.457532 0.092007 -0.034459 -0.567142 -0.464333 -0.783543 -0.384350 -0.155003 0.388522 -0.269985 0.414324 -0.159040 -0.023121 -0.217712 -0.291157 -0.506074 -0.390817 0.228588 0.489207 -0.461121 -0.457775 0.056998 0.701826 -0.239758 -0.055540 0.659555 0.148144 0.003992 0.180902 -0.225215 -0.375354
it 0.649074 -0.903034 -0.659769 0.121854 0.196270 -0.341628 0.800059 0.061113 0.501965 -0.313356 -0.251565 0.424396 0.067985 0.021298 -0.257428 0.496046 -0.208891 -0.432643 -0.423210 -0.552751 -0.014571 0.227497 -0.278747 0.045155 -0.386827 -0.415273 -0.104896 0.298350 0.121595 -0.129497 0.242397 -0.095933 -1.054229 -0.152878 -0.357966 -0.419133 -0.030051 -0.094612 0.502982 -0.131158 -0.297897 0.281076 0.346702 -0.200169 -0.086898 -0.858991 0.241984 -0.447309 -0.849412 0.925565
think 1.048805 -0.759746 -0.989393 0.424301 0.366649 -0.789160 0.127774 -0.603401 0.865385 -0.594800 0.024502 0.904785 0.204680 -0.127215 0.237292 0.474233 0.276563 0.979775 -0.704335 0.320627 0.400227 -1.670827 -0.955141 -0.940819 -0.542842 -0.280744 0.218528 0.603077 -0.367373 0.009896 0.353660 -0.325747 -1.626854 -1.194733 0.797377 -0.945647 -0.556704 0.448181 0.029718 -0.616124 0.224021 0.711759 0.206854 -0.388232 0.352775 -0.482044 0.250244 -0.173414 -0.459567 0.322752
could 0.448640 -1.053723 0.207858 0.454490 -0.513154 0.904002 -0.459746 -0.315102 -0.152053 -0.335617 -1.412929 0.066425 -0.008535 0.784382 0.715122 0.525459 -0.360360 -0.211528 -0.770469 0.004089 0.778953 -0.530463 0.125758 -0.202372 -1.242328 -0.602714 -0.162231 0.279022 -0.304716 0.789873 0.629880 -0.170547 -1.162317 -0.112589 -0.081634 0.062587 -0.045569 1.187292 -0.091707 0.442524 -0.163030 0.267270 -0.507194 -0.054914 0.445127 -0.691666 1.148920 0.970846 -0.930866 0.073993
bear -0.207469 -0.618699 -0.263549 -0.101033 -0.053634 0.083006 0.201071 -1.019975 0.044530 -0.243349 -0.351189 0.194930 -0.140647 0.335338 -0.213168 0.351208 -0.633334 0.319300 -1.014998 -0.832814 0.423727 0.173981 -0.284971 -0.272111 -0.515197 -0.398758 -0.014028 0.680631 -0.661655 0.111509 0.174476 0.220011 0.009034 -0.484343 0.165357 -0.071218 0.098727 -0.188246 0.284440 -0.291444 -0.277382 0.485875 0.238759 -0.085371 0.597608 0.338745 -0.159083 0.461000 -1.171927 0.170669
if 0.515238 -1.413708 -0.765725 0.763184 0.402131 -0.309355 -0.069952 0.312466 0.404321 -0.862895 -0.426138 0.646607 0.155424 -0.854154 -0.108991 -0.918581 -0.511909 0.490701 -0.580213 -0.697038 0.955252 -0.490796 -0.524954 0.311988 -0.975390 -0.294642 0.146849 0.716893 0.155518 0.415426 1.254010 0.221701 -0.523683 -0.774540 -0.596134 -0.694751 -0.233406 -0.059377 -0.055250 0.235373 0.126373 1.180306 -0.352369 -0.658317 0.266148 0.498378 0.507128 0.155130 -1.108843 0.864632
anyone 0.186884 -0.284677 -0.578142 -0.031772 -0.217882 -0.314372 0.142692 0.130224 -0.011077 -0.566993 -0.176522 1.185135 -0.095143 0.006479 -0.046457 -0.042697 -1.039374 -0.639574 -0.549475 -0.102921 -0.073739 -0.692332 -0.477748 0.116899 -0.551458 -0.828511 0.536024 0.396369 -0.027736 -0.468629 0.557208 -0.072779 -0.779204 -0.690576 -0.507555 -0.638350 0.282897 0.823501 0.328115 -0.070463 -0.399065 0.801860 0.170288 -0.251756 -0.354434 -0.285480 0.082585 0.174326 -1.451529 0.873465
found -0.976732 -1.651744 0.504754 0.612546 -0.064927 -0.026281 0.184279 -0.721127 -0.038380 -1.386317 -0.955090 0.468737 -0.273673 -0.336317 0.324366 -0.548979 -0.415317 0.991287 -0.117636 -0.752445 0.123853 0.228312 0.080369 -0.328711 -1.021671 0.755871 0.307664 -0.290110 -0.000841 0.650563 -0.220518 0.348724 -0.745436 -0.546860 0.373100 0.436349 -0.142930 0.580505 0.332972 -0.618498 -0.179366 1.666463 0.143581 -0.108041 -0.206236 -0.005838 -0.230932 -0.075221 -1.121602 0.144487
out -0.273012 -1.233208 -0.441016 -0.234995 1.237376 0.077185 -0.054467 0.046783 -0.562714 -0.880937 -0.253149 0.420371 -0.186858 0.306290 1.249560 1.099341 0.073207 -0.243083 -0.689826 -0.270442 0.106034 0.230410 -0.029188 0.535322 -1.530943 0.461051 -0.466361 -0.080040 0.676008 -0.077021 -0.382559 0.204906 -0.163129 -0.291095 0.606728 -0.282309 -0.340743 0.131707 -0.015628 -0.166843 -0.412341 1.222022 0.405762 -0.914053 0.758869 -0.649264 -0.585042 -0.187122 -0.129070 0.215480
about -0.489162 -0.819623 0.346660 0.217248 -0.236757 -0.196282 -0.115458 -0.381176 0.807817 -0.590006 -0.653057 -0.519417 -0.190376 -0.274627 -0.884842 0.208915 0.443374 1.034895 0.092602 -0.481690 0.242792 -0.514773 0.259762 -0.725336 -0.566603 -0.613647 -0.385170 -0.256021 -0.399652 -0.095818 0.057330 -0.115098 -0.762653 -1.126821 -0.498773 -0.429337 0.508566 0.519609 -0.274337 -0.730966 -0.137238 0.518068 0.008327 -0.342186 0.527573 -0.223829 0.356002 0.365577 -0.538625 0.323540
Potters 0.255025 -0.142563 -0.028690 0.392013 0.045495 -0.740461 0.424781 -0.700762 0.134291 0.062947 -0.343433 -0.573098 -0.451846 -0.005012 -0.224007 0.530601 0.113660 -0.486771 -0.848360 0.131533 -0.414440 -0.118918 -0.644039 -0.809046 -0.198999 -0.647791 0.511556 -0.480057 -0.379807 0.062379 0.094357 0.266600 -0.846056 -0.574232 0.293807 -0.939219 -0.393401 0.664282 0.032449 0.178806 -0.164261 0.781623 0.585327 -0.004074 0.718703 0.878838 0.345982 0.030488 -0.288029 0.107619
sister 0.218847 -0.461527 -0.093539 -0.025603 1.043869 -0.299796 -0.389728 -0.366944 -0.403264 -1.214673 -0.890060 0.485538 -0.085189 0.033755 -0.314259 0.697983 -0.348611 -0.876568 -0.070067 -0.361998 0.135584 -0.176696 -0.469719 -0.564961 -0.571962 0.285530 -0.693244 0.573315 0.567403 0.056390 0.262980 0.606938 -0.301119 -0.214418 -0.319808 0.167143 0.151050 0.273032 -0.425925 -0.966357 -0.270909 0.819245 0.408106 -0.294274 -0.233612 -0.267667 -0.186589 0.330987 -0.535193 -0.273219
hadnt -0.211853 -0.700725 0.309828 -0.198156 0.848711 0.692402 0.354691 -0.627432 -0.344603 -0.576868 -1.455366 0.219799 0.196914 0.765098 0.098288 0.275431 -1.084873 0.686496 -0.955111 -0.109529 -0.035327 -0.011545 0.038489 -0.671867 -0.365950 -0.141803 0.595760 -0.127848 0.049877 -0.487199 0.623706 -0.258797 -1.535148 -0.184075 -0.506479 0.571928 -0.475634 0.159112 0.257912 0.230968 -0.135857 0.881468 0.199216 -0.270086 1.020241 -0.460878 0.159144 0.360937 -1.007655 1.038535
met 0.008095 -0.470295 0.076604 0.926838 0.008637 -0.018230 0.070402 -0.673627 0.571246 -0.608088 0.018912 -0.411222 0.265659 -0.380638 0.213813 -0.133242 -0.154195 0.289267 -0.038757 -0.078887 0.609636 0.197394 -0.267071 0.061994 -1.156212 -0.182921 -0.033162 -0.171411 -0.596853 0.166536 -0.357699 -0.444961 -0.589850 -0.633627 -0.455839 -0.358286 -0.462163 0.619727 0.434125 0.258996 -0.050656 0.885406 -0.155686 0.200860 0.441602 -0.317985 0.443712 -0.343321 -0.708566 0.164006
for -0.642525 -0.701192 -0.400757 0.543689 0.624442 -0.314881 -0.007889 -0.707336 0.415910 -0.098056 -0.790642 -0.661896 0.184828 0.052649 -0.814026 0.707500 0.451690 -0.059927 0.017309 -0.181690 0.563285 0.351704 -0.031435 0.115673 -0.271148 -1.008680 -0.185626 -0.091758 0.386583 0.118626 0.084168 0.605733 -1.121520 -0.217750 -0.160572 -1.064140 0.189733 -0.093057 -0.107409 -0.138590 -0.129391 0.129396 -0.420955 -0.349978 0.913148 0.038332 0.084802 -0.076282 -0.317031 0.157974
several -0.597086 0.336211 0.214336 -0.047082 -0.681169 0.705246 0.532450 -0.163210 -0.360242 -0.569928 -0.490652 0.108397 0.145551 -0.110149 -0.249469 -0.038896 -0.232807 -0.361948 -0.787798 -0.087677 -0.508564 0.510995 -0.126345 -0.033846 -0.800915 -0.066358 -0.085425 0.285411 0.377151 -0.484226 0.270666 -0.514085 -0.441475 -0.239279 -0.419697 -0.105608 -0.459581 -0.030707 0.675753 -0.489535 -0.604125 0.668235 0.482978 -0.343194 0.441245 -0.527459 0.279466 0.034647 0.442541 -0.229262
years -0.586052 -0.374965 0.321504 0.287685 0.483269 -0.569760 0.161961 -0.722889 0.182250 -0.156308 -0.159089 -0.153069 -0.136813 0.138169 0.229181 0.543932 -0.387584 -0.847554 0.155431 0.278784 -0.782495 0.301368 0.427042 -1.392761 -1.187416 -0.116510 0.144808 0.207533 0.392112 0.750569 1.198882 0.489854 -1.146631 -0.363750 -0.368031 -0.547970 0.034188 -0.575024 0.311161 -0.979789 -0.339983 0.141053 -0.195989 0.006319 0.943618 -0.188302 0.298927 0.169548 -0.626214 0.441803
fact 0.418194 -0.202884 0.096657 -0.110254 -0.230097 0.300391 0.758182 -0.834126 0.435029 -0.046560 -0.089359 0.357425 0.124518 -0.492216 -0.417611 -0.085772 -0.072617 0.640030 -0.622916 -0.261056 0.192817 0.358755 0.471896 -0.483054 -1.169101 -0.399848 -0.129497 0.189186 -0.163809 0.447442 0.152108 -0.418306 0.091203 -0.564083 -0.682559 0.138361 0.262798 0.071839 0.153321 -0.269423 -0.085249 0.474402 0.082804 -0.473395 0.546973 -0.407994 0.758503 0.129692 -0.704003 0.258080
pretended 0.102058 0.045362 0.259583 -0.731590 0.481669 0.038315 -0.196265 0.014689 0.234187 -0.281374 -0.248836 0.300754 -0.757735 0.561572 -0.238959 0.186314 -0.320293 -0.288455 -0.688088 -0.891082 0.476615 -0.280798 -0.762610 -0.703172 -0.456173 0.162827 -0.258316 0.141844 0.470521 0.020930 -0.097960 -0.609747 -0.201242 -0.036954 -0.195555 -0.077030 -0.594526 -0.420428 -0.097206 -0.403466 0.112445 0.295301 -0.519157 -0.229666 0.440879 0.013422 -0.076182 0.268656 -0.672602 -0.140791
goodfornothing -0.308290 -0.451355 0.348028 -0.079927 0.175566 0.299079 0.488016 0.200608 -0.443392 -0.195285 -0.298452 -0.741015 0.229898 -0.001077 -0.653012 0.073088 0.183408 0.483320 0.137372 -0.259925 0.480417 0.001586 -0.473893 -0.352484 -0.647351 -0.208144 -0.275316 0.004849 0.182318 0.395725 0.395700 -0.193008 -0.713695 0.402054 -0.420269 -0.329841 -0.645234 -0.179306 -0.006542 -0.472835 -0.370143 0.474840 0.184485 0.073190 0.614207 0.078771 0.648703 0.199322 -0.470196 0.480438
husband -0.414158 -0.819350 0.246105 -0.026717 0.115101 0.439144 0.486568 0.174370 -0.635658 -0.877597 0.024476 -0.087998 -0.166252 -0.267268 -0.281242 -0.338444 -0.423812 0.254292 0.164395 -0.312329 -0.003702 -0.209882 -0.046577 -0.119194 -0.392341 0.061702 -0.361523 -0.001803 0.352628 -0.037275 -0.168921 0.378918 -0.671474 -0.319577 0.037441 -0.151390 0.013939 -0.402255 -0.580341 -0.412011 0.102561 0.319134 0.111197 -0.402675 0.426714 -0.003785 0.789092 -0.300963 -0.166310 -0.029073
unDursleyish 0.301900 0.116864 -0.160575 0.119049 0.413646 0.063272 0.016097 0.158539 -0.237768 -0.786820 0.046356 -0.262299 -0.234701 0.266062 0.347505 0.313307 -0.395817 -0.133344 -0.684011 -0.031332 0.324041 0.290516 -0.037527 -0.487758 -0.532474 0.106036 -0.480945 -0.186841 0.380191 0.217011 -0.139357 0.520149 -0.484732 0.296800 -0.431566 -0.172780 -0.501481 -0.021756 -0.013627 -0.275750 -0.280596 0.167768 -0.480987 0.236490 0.381064 0.227061 0.371437 0.219942 -0.752012 -0.159192
possible -0.057346 -0.204430 -0.580816 0.062017 -0.785285 -0.256852 0.309205 0.486589 0.041118 0.179073 -0.445534 -0.007695 -0.157997 -0.069979 -0.881774 -0.013819 -0.428704 0.342176 -0.645194 -0.120416 0.141999 0.149445 0.015095 0.112618 -1.031288 0.196477 -0.230486 0.708436 -0.111578 0.226650 -0.104281 0.474429 -0.697368 -0.226734 -0.082834 -0.431097 -0.257628 0.765825 0.291494 -0.268658 0.238954 -0.230275 0.591281 -0.338472 0.651160 -0.630136 0.221394 -0.095540 -1.225500 0.521176
shuddered -0.490505 -0.531733 0.390261 -0.437709 -0.286642 0.194157 -0.046056 -0.583266 0.622919 -0.028839 -0.637703 -0.357952 -0.370278 -0.421275 -0.127280 0.038276 0.029881 -0.206060 -0.516741 -0.366379 0.289715 -0.015172 -0.164159 -0.681903 -0.833799 -0.134338 -0.430388 0.063734 0.028391 0.056502 0.127572 0.114562 0.174526 -0.611021 -0.289956 -0.568370 -0.377007 0.302818 -0.127705 -0.282751 -0.055955 0.037290 -0.298821 0.215385 -0.342137 0.215951 0.038075 -0.333700 -0.428880 -0.211693
what 0.629008 -0.273055 0.123127 0.148235 0.127834 -0.363723 -0.005796 -0.367971 0.448668 -1.124465 -0.302411 0.385484 0.780990 -0.761240 0.070494 0.169761 -0.660137 -0.510832 -0.440021 -0.377816 0.140500 -1.004079 -0.549356 -0.046352 -0.729022 0.267089 0.164494 0.437647 0.389255 -0.070061 0.374074 -0.702989 -1.171787 -1.286924 -0.013467 0.505959 0.703610 -0.104533 0.391910 -0.140372 -0.618880 1.498363 0.448552 -0.149119 0.059054 -0.512723 0.914989 -0.593360 -1.147287 0.542009
arrived -0.046333 -0.051105 -0.104221 0.790767 0.263079 -0.211574 0.743411 -0.539600 0.069913 0.179654 -0.313567 0.024013 0.107924 -0.983084 -0.265311 0.555114 -0.803067 0.279573 -0.259808 0.280795 0.431785 -0.305793 0.296788 -0.592726 -1.201381 -0.165439 -0.128486 0.460181 -0.122818 0.039224 0.398751 -0.174474 0.026786 -0.459636 -0.404716 -0.296442 -0.739460 0.043845 -0.369432 -0.645756 -0.296627 -0.181910 -0.372941 -0.110222 0.737788 -0.228183 0.516746 -0.356907 -0.702653 0.955517
street -0.316946 0.231337 0.150571 0.550805 -0.087787 0.427255 -0.444138 -0.477797 0.298598 -0.564723 -0.605582 -0.125379 0.032793 -0.190050 0.148957 0.152424 0.124527 -0.454961 -0.686573 -0.168402 -0.272015 -0.525137 0.458635 -0.180519 -1.078248 0.327785 -0.941416 -0.562602 0.653727 -0.033850 -0.228963 0.312253 -0.226165 -0.197493 0.006295 -0.907895 -0.193266 1.176847 -0.002017 -0.197375 -1.030306 0.666676 -0.471406 -0.057664 0.156555 -0.098123 0.287832 -0.871548 -0.823992 0.914338
knew 0.492766 -0.858342 0.629909 0.643022 -0.045665 0.516587 0.456771 -0.635599 0.348403 -0.782088 -0.696979 0.479332 -0.322485 -0.231070 -0.300523 -0.736437 -0.565380 0.447965 -0.389179 -0.404585 0.475137 -0.566739 -0.675545 -0.662566 -1.251252 -0.607279 0.207074 -0.945456 -0.695430 -0.198701 0.280022 0.299115 -0.678376 -0.557126 -0.252888 -0.515068 0.465161 0.080773 -0.026727 -0.306014 0.372606 0.553919 0.564756 -0.099729 0.396307 -0.299735 0.880434 -0.014792 -1.349974 0.697643
too -0.431579 0.029795 -0.644896 -0.476270 0.298733 -0.129147 0.607003 -0.482477 0.250230 -0.742099 -0.332940 0.658642 -0.431564 -0.211387 0.307578 -0.439323 0.705440 0.547440 -0.422239 -0.644979 0.031558 -0.121579 -1.647888 -0.112679 -0.549166 -1.600722 0.219604 0.098673 0.811841 -0.182608 0.428071 0.426002 -0.913051 -0.477278 -0.656307 -0.278768 -0.455640 -0.751328 0.690106 -0.191960 0.117668 -0.172521 0.737456 -0.709697 0.713272 0.330941 0.777514 0.207269 -0.259342 -0.211409
never -0.110318 -0.930629 -0.032738 0.811934 -0.007242 0.088618 1.096014 -0.257730 0.722949 -1.062997 -0.809039 -0.138154 0.724304 0.165411 0.144285 0.714157 -0.181945 0.288408 -1.044071 0.738896 -0.111193 -1.244780 -0.227146 -0.893719 -0.406441 -0.689073 0.803943 0.818233 0.389246 0.041702 0.617592 0.187983 0.050461 -0.771423 -0.460105 -0.370703 -0.271653 -0.281077 0.941319 -0.373577 0.827687 0.630169 0.336754 0.212572 -0.555486 -0.704421 0.062153 0.977263 -1.228302 1.723432
even -0.021170 -0.528648 0.508444 1.178181 0.031697 0.008434 -0.064387 0.152350 0.475417 -1.238371 0.005532 0.515787 -0.388088 0.156324 -0.116984 -0.010001 0.374686 -0.512289 -0.061613 -0.247658 0.129886 -0.088372 -0.461861 -0.557693 -0.935887 -0.936751 0.208253 0.030115 0.294695 -0.127581 0.878128 0.038074 -0.089579 -0.581657 -0.529367 -0.305342 0.000263 0.399639 0.719724 -0.040355 0.056618 1.571546 0.570911 0.065057 0.067684 -0.230395 0.027877 0.167991 -0.462692 0.723479
seen -0.351217 -0.760953 -0.416148 1.260002 1.454090 -0.161890 0.031388 -1.083247 0.245881 -1.299888 0.295317 -0.255826 0.342928 0.848816 -0.369025 0.126269 -1.190936 0.474480 -0.122075 -0.276011 0.449919 -1.192177 -0.180082 -0.026733 -1.097906 -0.092852 0.590739 0.362478 0.273763 0.470183 0.342543 0.007662 -0.241020 -0.574900 -0.614488 0.359214 -0.552161 -0.054121 0.300097 -0.250405 -0.023945 0.736434 0.450230 -0.767266 -0.200568 -0.341797 0.158308 0.180405 -0.482856 0.894639
him -0.594575 -0.169633 0.275018 0.633325 -0.048139 0.504141 -0.103646 -0.312804 0.516463 -0.218863 -0.340823 0.434021 0.024967 -0.102055 -0.316714 1.366595 0.703837 -0.116232 -0.852355 -0.173224 0.695853 0.159868 -0.800816 0.136846 -0.382387 0.562348 -0.336684 1.165612 0.052742 -0.625427 -0.069926 -1.021041 -0.293150 -0.598267 -0.193793 -0.123326 -0.462443 0.590392 0.076135 -0.343503 -0.308153 0.239284 0.317712 -0.098371 -0.162201 0.053698 0.785626 0.624147 -0.558984 1.538198
This -0.058245 -0.607164 0.386163 -0.098994 -0.105403 0.928046 -0.022019 -0.774896 -0.211897 -0.275258 0.199608 0.372614 0.853522 -0.110072 0.066833 -0.008108 -0.651290 0.377840 -0.170698 0.584242 0.055850 -0.234514 -0.396494 -0.639127 -0.832947 -0.035313 -0.556401 0.418086 0.431996 -0.926214 -0.053927 0.123494 -1.018205 -0.340510 -0.470319 -0.149877 0.386259 0.307546 -0.265707 -0.840856 -0.356043 -0.440371 0.029845 -0.712911 0.484036 -0.561214 -0.236451 0.073246 -1.074070 0.435446
another -0.645766 0.037698 0.294208 0.351654 -0.417254 0.143072 -0.171072 -0.890308 0.594932 -0.403618 -0.377952 0.250578 -0.160880 0.204112 0.174033 0.376165 0.214033 -0.302407 -0.767194 -0.768369 0.452592 -0.216511 -0.359670 0.212149 -0.395650 0.044865 0.187672 0.706161 1.115022 -0.706318 -0.243418 0.223638 0.032807 -0.432941 -0.778843 -0.480686 -0.610503 0.461666 0.450775 -0.463377 0.395751 -0.436128 -0.422335 -0.764425 -0.135811 0.321247 0.126062 0.458948 -0.740258 0.280758
good 0.070775 -0.453158 0.281301 -0.249849 -0.545341 0.138182 0.752842 -0.546035 0.002041 -0.733816 -0.677224 0.120804 -0.461080 -0.537332 -0.326734 0.238588 -0.506516 0.093107 -0.417735 0.091883 0.598148 -0.187321 -0.243395 -0.642517 -0.430573 -0.847917 0.193489 0.348037 0.728334 -0.749657 -0.271511 0.734101 -1.310911 0.404992 0.269736 0.011650 -0.015663 0.333006 -0.011765 -0.580412 -0.737192 1.400995 0.393548 -0.793938 -0.719975 0.396075 0.167100 0.046609 -0.058600 0.395476
reason -0.028017 -0.171386 0.309188 0.856368 0.185105 0.793114 0.264534 -0.329814 0.188869 -0.729383 -0.646254 0.163079 -0.280579 -0.441678 -0.112444 0.177663 0.243218 0.397841 -0.243796 -0.746813 0.141626 -0.160957 -0.548266 0.022974 -0.700979 -0.999334 0.236988 -0.354013 0.791947 -0.595255 0.212919 0.186704 -1.980832 -0.126661 -0.226728 -0.479086 0.401022 0.401210 1.236319 -0.450419 -0.475092 0.105361 0.006129 -0.587114 0.232753 -0.748321 0.238750 0.089269 0.131722 0.714796
keeping -0.178337 -0.091809 0.302164 0.634458 -0.373982 0.026236 -0.086306 -0.660620 0.198529 -0.392353 -0.039021 -0.166725 0.212616 -0.496182 -0.040507 0.092953 0.238338 -0.191524 -0.366957 0.091896 0.369539 -0.450226 0.236987 -0.652260 -0.455914 0.525303 -0.536618 0.458847 -0.141608 0.002208 0.536451 0.174241 -0.583480 0.068383 -0.329147 -0.312588 -0.817628 -0.098464 -0.141525 -0.028653 -0.755202 0.440791 -0.272112 -0.854912 0.249232 0.039299 0.127241 0.546450 -0.290598 -0.201569
away -0.320511 -0.672980 0.047858 0.612849 0.245823 -0.409920 -0.024370 -0.259893 0.082592 -0.068001 -0.401909 -0.440516 0.109165 0.287569 0.123742 1.118107 0.394163 0.254526 -0.935477 -0.852388 0.406833 -0.593850 -0.624630 0.157992 -0.280672 0.050650 -0.389317 -0.459191 0.515385 -0.119908 -0.251160 0.291069 -0.262867 -0.262188 -0.011481 -0.363667 -0.592567 -0.071727 -0.243279 -0.609950 0.376161 0.353210 -0.622060 0.231071 0.870016 -0.300805 -0.366910 0.464087 -0.968580 0.366286
want 0.459491 -0.188455 -1.145499 0.828734 0.030603 0.624266 -0.329503 -0.332404 0.640853 -0.779084 -0.013056 1.576200 0.670530 0.128158 0.198727 0.771516 0.370263 0.136693 -0.559752 -0.124393 -0.045800 -0.709986 0.007412 -0.644452 -0.319432 -0.741116 0.783423 0.223222 -0.195566 -0.191221 0.002956 0.667238 -1.833621 -1.230875 -0.124918 -0.431863 -0.737927 1.044637 -0.052978 -0.730128 -0.541216 0.845318 -0.188953 -0.464020 0.129677 -0.735576 1.058944 -0.126624 -0.409626 0.117612
mixing -0.029625 -0.079615 -0.521952 0.251999 -0.850138 -0.305056 -0.543636 -0.465432 -0.040618 -0.249917 -0.410466 0.132087 -0.028255 0.274266 0.006066 0.056728 -0.226538 -0.567188 -0.472678 -0.476449 -0.098198 0.220542 0.118368 -0.668078 -0.288234 -0.368803 -0.218055 0.136086 -0.052670 -0.001819 0.290774 0.029396 -1.011221 0.337525 -0.010044 -0.391739 -0.087057 0.125508 0.411792 -0.202793 -0.388398 0.578501 -0.332439 -0.029844 0.281048 0.185144 0.306650 -0.240950 -0.510594 0.242359
child -0.072157 -0.021308 0.034097 -0.190475 0.116104 -0.115865 0.283341 0.197434 0.250679 -0.364268 -0.174564 0.319833 -0.004654 0.087452 -0.567563 0.447557 0.225238 -0.267814 -0.228890 -0.776193 -0.158311 0.174908 0.076790 -0.834538 -0.823640 -0.185616 0.065789 -0.132375 0.534355 0.397354 -0.549922 -0.214908 0.135325 -0.439283 0.445200 -0.475931 -0.215416 0.480096 -0.220512 -0.604821 0.245347 0.232117 -0.004352 0.132548 1.072393 -0.060929 -0.139628 -0.114017 -0.039149 0.161141
like 0.262883 -0.269118 -0.849683 0.519188 0.373067 -0.342406 -0.489292 0.160634 0.448793 -0.191868 -0.270701 -0.101191 0.347982 0.334781 -1.218271 0.416765 -0.993903 0.096455 0.484980 -0.542854 0.335471 -0.417714 -0.948907 -0.620408 -0.521052 -0.727390 -0.406377 0.322718 -0.679610 -0.694731 -0.956561 -0.442161 -0.242287 -1.007150 -0.597129 0.349313 -0.130094 0.665879 0.121532 -0.145435 -0.281880 0.556339 -0.182354 -1.350701 0.206458 0.932980 -0.397189 -0.178869 -0.184672 0.646080
When 0.222387 -0.136008 -0.719634 0.208339 0.167684 -0.200282 0.740313 -0.373923 0.585346 -0.080834 -0.511754 -0.369402 0.216407 -0.067690 -0.062355 0.370720 0.152903 0.189365 0.099348 -0.286754 0.833739 0.039180 -0.669981 -0.431028 -1.109475 0.076173 0.335814 -0.392781 -0.159946 0.387613 -0.271528 -0.293905 -0.317591 -0.395931 -0.544923 0.188927 -0.286538 0.607671 0.135523 -0.022722 -0.440577 0.055208 -0.120968 -0.077120 0.272651 -0.632276 0.607477 -0.180607 -1.145572 0.686848
woke 0.002330 -0.033410 -0.048896 -0.025421 0.398247 -0.327379 -0.188312 -0.143856 0.035121 -0.834731 -0.389235 -0.522837 -0.508833 -0.074911 0.119348 -0.023342 -0.072618 0.156786 -0.458622 -0.383432 0.379072 0.445269 -0.036264 -0.166952 -0.161915 -0.361277 -0.653253 0.020406 0.167046 -0.633765 0.378687 0.254972 -0.437288 -0.830294 -0.287554 -0.216578 -0.305363 1.243798 0.031967 -0.492755 0.044940 0.730025 0.120969 -0.193820 0.324144 0.119889 1.152721 -0.236399 -0.452274 -0.029491
up -0.035000 -0.418778 -0.913267 -0.166688 0.228377 -0.476463 0.171958 -0.171660 -0.053032 -0.776014 -0.626124 -0.432136 0.025643 -0.147781 -0.324789 0.689347 0.894084 0.101191 -0.493053 -1.161563 0.928814 -0.170283 -0.086567 0.120399 -0.825155 0.076253 -0.827787 -0.048039 -0.263633 0.079313 -0.751108 -0.440692 -0.279125 -0.962300 -0.413596 -0.316745 -0.540442 0.189289 -0.216253 0.076409 0.187090 -0.285483 0.230815 -0.521543 -0.396580 -0.037925 0.313825 -0.178327 -0.752923 0.085675
dull -0.417310 0.146540 -0.095392 0.385850 -0.514844 0.194238 0.268279 0.072722 -0.372728 -0.206420 -0.076787 0.204543 0.161000 0.006953 -0.467832 0.267694 0.199671 -0.465000 -0.543124 -0.140223 -0.034682 0.597303 -0.412246 -0.703455 -0.402931 -0.142663 -0.150611 -0.312119 -0.078771 -0.403474 0.422283 -0.193220 -0.103065 -0.669605 -0.230139 -0.331316 -0.589491 0.533969 0.195099 0.440837 -0.186892 0.587123 0.369223 -0.317979 -0.000894 -0.485037 -0.126613 -0.475960 -0.000681 0.425937
gray -0.088207 0.134415 0.498465 0.303233 0.164833 -0.213752 0.050118 -0.252821 0.125566 -0.755586 0.371138 0.000275 -0.403625 -0.344563 -0.015685 0.098935 -0.015136 0.104254 -0.186124 -0.875486 -0.191199 -0.108160 -0.165426 -0.920144 -1.099026 -0.074256 0.091833 -0.479266 0.376532 0.548400 0.950752 0.079126 -0.081016 0.397281 -0.206228 0.156061 -0.650037 -0.064383 -0.107610 0.374923 0.130896 0.521109 -0.156403 -0.316701 0.257490 -0.621849 0.278242 -0.375325 -0.612218 -0.284010
Tuesday -0.364063 -0.275040 -0.411909 0.467295 0.224198 -0.259252 -0.067476 -0.263534 0.317572 -0.228399 0.133801 -0.401828 0.093682 -0.231001 -0.659859 0.273743 -0.353203 -0.081701 -0.382329 0.283941 -0.024907 0.354608 -0.632119 -0.699324 -0.556033 -0.632982 0.291337 0.017954 -0.004679 -0.561142 0.314180 0.346110 -0.931519 -0.365350 0.027375 -0.533370 -0.286728 -0.344399 -0.418725 -0.024626 0.190614 -0.213007 0.097712 -0.481470 0.405431 -0.211849 -0.102021 -0.432963 -0.244561 -0.796184
our 0.043465 -1.268093 -0.241037 0.276742 0.360032 -0.238288 0.222093 -1.108466 0.347707 0.184554 -0.747579 0.403657 0.459843 -0.388689 -0.269493 0.193432 0.503811 -0.345560 -0.695086 -0.373946 -0.621696 0.323612 -0.034661 -0.572436 -0.366827 -0.425523 -0.325349 0.526709 0.433925 0.271476 -0.285594 -0.722659 -0.580649 -0.422672 -0.217504 -0.577745 0.064603 0.466071 0.285302 -0.520085 -0.409013 -0.202868 0.177004 -1.015524 -0.240552 0.248139 0.168010 -0.157784 -0.278591 -0.730604
story -0.131926 -0.381148 -0.045838 -0.390811 -0.421936 0.266104 0.061424 0.171548 -0.491639 -0.143517 0.140978 -0.306162 -0.001340 -0.092411 -0.132109 0.315242 0.107478 0.126241 -0.600844 -0.161167 0.026306 -0.046919 -0.395243 -0.260048 -0.699852 -0.172083 -0.498842 0.345336 -0.027799 -0.243856 0.026592 -0.128472 -0.331342 0.220148 -0.744281 -0.486301 -0.222750 0.946568 -0.424268 -0.195583 -0.355157 0.223315 0.009944 -0.191651 0.510662 0.159663 0.255689 -0.384358 -0.471542 0.169200
starts 0.066516 0.006101 -0.436488 -0.184662 0.027566 -0.290146 0.121332 0.091997 0.024115 0.025934 0.365874 -0.720163 -0.436011 0.273522 -0.546420 0.218959 0.472582 -0.023085 0.053065 -0.308484 0.258839 -0.623199 -0.724292 -0.766686 -0.337700 -0.293917 0.123829 -0.103254 0.318620 -0.105838 0.033358 -0.311031 -0.412042 -0.487291 -0.088210 -0.748747 -0.475357 0.416066 0.427048 -0.738420 0.095384 -0.267275 -0.058206 -0.178680 0.361424 -0.290152 0.780854 0.151700 0.042369 -0.139016
nothing 0.013532 -0.309819 0.108479 0.345216 -0.004727 -0.046503 0.068423 -0.374128 0.336897 0.466289 -0.180610 0.798086 0.371000 0.276785 -0.370183 0.427312 -0.164043 0.094115 -0.819139 -0.299521 0.068448 -0.074503 -0.244677 -0.248895 -0.681136 -0.634682 0.001961 -0.771696 0.909023 -0.606113 0.819629 0.450702 -1.103161 -0.566179 -0.018282 -0.291272 0.285072 0.018880 0.386137 -0.113850 -0.396841 0.507293 0.167015 -0.499519 0.053940 -0.208375 0.100565 0.260239 -0.774090 0.697092
cloudy 0.286150 -0.226771 0.367028 0.351433 -0.249109 -0.161875 -0.262576 -0.848872 0.168646 -0.674956 0.033397 0.364274 -0.075320 0.402877 -0.769967 0.630254 -0.269359 0.303568 -0.384812 -0.328809 -0.277758 0.115817 -0.710594 -0.262614 -0.404288 -0.087993 -0.219705 -0.297649 0.508784 0.244197 0.404471 0.322276 0.443787 -0.607995 0.029545 0.062237 -0.295026 0.604269 -0.201506 0.342147 -0.424485 0.127061 0.131993 0.051857 0.267048 -0.390007 -0.392240 0.262846 -0.246027 0.044646
sky 0.564649 -0.279949 -0.338175 0.042889 0.182746 -0.250609 0.651868 0.041234 -0.229128 -0.633569 0.058493 0.064687 -0.835650 0.355660 -0.226620 0.518339 -0.367680 0.239071 -0.539249 0.069872 -0.748300 0.026761 -0.576350 -0.631513 -0.817603 0.353313 -0.517080 -0.745459 0.030725 0.094061 0.114903 -0.011348 -0.378368 -0.073606 -0.386049 -0.800580 -0.166279 1.260276 0.063569 -0.186209 -0.507619 0.486375 0.674788 -0.634279 0.000011 0.344266 0.364471 -0.428431 -0.439497 -0.271525
outside -0.655364 0.546701 0.177435 0.317842 0.152729 0.076348 0.220864 -0.445363 -0.596596 -0.705191 -0.130768 -0.501198 0.079625 0.364395 -0.823530 0.257487 -0.010607 -0.580977 -0.338724 0.281606 0.176320 -0.741826 0.024603 0.187760 -0.731323 -0.194277 -0.925958 -0.275971 0.525908 0.857133 0.219869 0.637133 -0.824336 -0.229360 0.321201 0.275337 -0.520923 0.546663 -0.075692 -0.089242 -0.708297 0.230303 -0.284423 -1.106886 0.084895 -0.030526 0.559685 -0.257169 -0.729382 -0.110376
suggest -0.284170 -0.499415 0.016330 0.313799 -0.255280 -0.188610 0.161461 -0.287038 0.394644 -0.239281 -0.385787 0.627968 0.196697 -0.033387 -0.704658 0.311725 0.434435 0.031099 -0.636252 0.276881 0.617247 0.134543 -0.319296 -0.686553 -0.131009 -0.504121 0.178089 0.571884 0.189680 0.015625 0.342845 -0.214236 0.143685 -0.427103 0.047221 -0.349930 0.267760 0.147650 -0.051847 -0.262243 0.056604 -0.205504 -0.473061 -0.316369 0.463892 -0.150357 0.349160 -0.527986 -0.860967 0.119844
things 0.065640 -0.386120 0.732097 0.396297 -0.263336 0.344637 -0.378485 0.601399 0.615779 -0.409163 -0.726978 0.373226 0.389167 -0.486940 -0.378992 0.044629 -0.189893 -0.552725 -1.105404 0.010276 -0.175512 -0.937353 -0.164327 -0.279820 -0.646445 -0.082043 -0.520598 0.604641 0.238877 0.160616 0.022268 -0.103576 -0.712457 -0.793816 0.277149 -1.002862 -0.004022 -0.392369 0.676983 -1.036212 -0.040371 0.484619 0.136152 0.257868 0.355871 0.040997 0.518869 -0.764296 -0.548382 -0.004297
soon -0.178300 -0.664366 -0.160584 -0.044753 -0.679287 -0.244205 0.170879 0.280774 0.017590 -0.210947 -0.213194 0.528026 -0.499420 0.177707 -0.110184 0.051616 -0.740350 -0.190623 -1.114052 0.016856 0.179929 0.390910 -0.125049 -0.411951 -0.336854 -0.123995 0.590182 0.090051 0.159005 0.247001 0.636136 -0.084312 -0.624853 0.237151 -0.647644 0.228862 -0.089456 0.584982 0.329440 -0.168966 0.059826 1.318050 -0.437190 0.058986 0.117529 -0.368484 0.340231 -0.340724 -0.798251 0.718352
happening 0.146383 -0.505242 0.113869 -0.279250 0.015591 -0.223102 0.245069 -0.380151 0.223095 -0.534655 -0.127204 0.082466 -0.216290 -0.472762 -0.245211 0.026658 0.417638 -0.485363 -0.480219 -0.510493 -0.050077 0.140375 -0.190961 -0.752507 -0.059692 -0.509643 -0.301250 -0.138220 0.187125 0.029634 -0.269666 -0.070912 -0.294077 0.053641 -0.528260 0.094190 -0.079127 -0.437817 -0.327711 -0.515588 -0.322304 0.547961 -0.249591 -0.929198 0.556559 0.013507 0.468588 0.276907 -0.722532 -0.146632
all 0.660819 -0.224136 -0.366658 0.519544 1.092248 -0.216734 -0.041395 -0.294536 -0.015079 -0.610985 -0.592100 -0.497426 0.936823 -0.010468 -0.214030 0.071844 -0.111555 -0.306136 -1.087812 -0.616202 -0.669163 0.140221 0.350422 -0.423462 -0.461596 -0.084404 -0.316129 0.567255 0.612930 -0.801353 0.386042 -0.256826 -1.479023 -0.386839 0.447366 -0.805713 -0.321405 0.042159 1.047743 -0.972631 0.506421 0.255276 0.043600 -0.915300 0.055502 0.916873 0.362729 0.404625 -0.353516 0.303087
country -0.178335 0.293580 -0.080795 0.343914 -0.128963 -0.336352 -0.134874 -0.578222 -0.250424 -0.234918 -0.169516 -0.452435 0.318887 0.089423 -0.500046 0.669086 -0.416648 -0.289389 -0.606316 -0.067105 -0.315011 -0.442049 -0.094241 -0.796901 -0.204471 0.042192 -0.518839 0.018016 -0.361144 0.062488 -0.290648 -0.108923 -0.714489 -0.867295 -0.352762 -0.099124 -0.678927 -0.046412 -0.271194 -0.818085 -0.050873 0.096112 -0.052718 -0.253289 0.423730 0.032741 0.626717 0.327669 0.026303 0.187955
hummed -0.063433 -0.354788 -0.576743 -0.239851 -0.422177 -0.323938 0.217523 -0.570175 0.095014 -0.294569 -0.214506 -0.383174 -0.022266 0.428061 -0.671399 -0.271277 -0.339888 -0.120461 -0.429198 0.016600 0.630262 -0.277514 -0.640479 -0.342109 -0.161111 -0.570538 -0.129815 0.350002 -0.017264 -0.382990 -0.191480 -0.183105 0.170537 0.037844 0.047945 -0.153367 -0.533379 0.079876 0.130421 -0.155314 -0.264438 0.520017 0.021397 -0.500742 -0.017090 -0.562144 0.459743 -0.591853 -0.101022 0.031571
picked -0.174308 -0.794535 -0.400221 0.212302 -0.564356 -0.811676 0.366718 -0.566697 -0.777791 -0.025108 0.585377 -0.880382 -0.850984 -0.278874 -0.153604 0.046476 -0.244360 0.630861 -1.000261 -0.650356 0.365194 -0.048882 0.192795 -0.381139 -0.886421 0.071670 -0.693286 0.110824 0.232672 0.683541 -0.269393 -0.160958 -0.056746 -0.244863 -0.079608 -0.131206 -1.011573 0.187430 0.317516 -0.291175 0.084809 0.079395 0.758825 0.611768 -0.040553 -0.108769 0.233910 -0.565643 -1.111919 0.103642
his -0.478489 -0.987245 0.196491 -0.526724 -0.023069 0.761757 0.314480 -0.644483 0.590996 0.581799 0.201918 0.532891 -0.231660 -0.424408 0.024815 0.525419 -0.245559 0.048344 -0.307554 -1.334275 -0.793690 0.390977 -0.392740 -0.007686 -0.280895 0.195365 -0.528227 0.669479 0.316028 -1.134391 -0.472399 -0.667759 -0.628569 -0.433562 -0.473310 -0.315553 -1.106636 0.457736 0.622657 0.391264 -0.498141 -0.329245 0.314968 -1.068248 0.791121 -0.187955 -0.409815 0.690703 -1.238862 -0.088010
most 0.246554 -0.074271 0.322629 0.801189 -0.787887 0.302039 0.574887 0.138058 -0.091618 -0.510522 0.047258 -0.769467 0.012014 0.213278 -0.784178 0.016771 0.371859 0.370301 -1.171826 0.145627 0.000680 0.075410 0.048009 -0.516039 -0.184961 0.008840 -0.362490 0.071798 0.352267 -0.244550 0.568669 -0.467200 0.247629 -0.083481 0.377310 -0.274924 -0.330417 0.008363 0.008233 -0.387105 -0.041135 0.434578 -0.079601 -0.672712 -0.011264 -0.000586 -0.024606 -0.379771 -0.961119 -0.188781
boring -0.450165 0.186614 -0.164741 -0.275153 0.126700 0.458796 0.126644 0.094044 -0.342533 -0.666008 0.147245 -0.657759 -0.538816 -0.172158 -0.440336 -0.294778 -0.035671 0.177746 -0.812226 -0.243898 0.060059 0.231533 -0.338070 -0.576889 -0.774291 0.045462 0.064200 0.192543 0.700332 -0.140359 0.233998 -0.490208 -0.029894 0.128424 -0.184501 -0.565121 0.037711 0.672296 0.433780 0.121192 -0.204898 0.315107 0.206145 0.381386 0.584969 0.065784 0.483981 -0.476191 0.087709 0.159856
tie 0.353961 -0.662346 0.442905 0.386367 -0.004249 0.150237 0.425923 0.235022 -0.008389 0.424399 -0.268855 0.354340 -0.203235 -0.202803 -0.082114 -0.091322 0.594820 -0.399315 -0.268186 -0.063310 0.543722 0.261393 0.268492 -0.232103 -1.010284 0.360081 0.209041 0.702459 -0.047939 0.565469 0.249318 -0.382991 -0.027862 -0.398562 -0.261276 -0.610228 -0.602427 0.324738 -0.067467 -0.267896 0.225728 0.570112 -0.088772 -0.181588 0.011267 -0.471084 0.622723 0.241852 -0.177246 -0.228621
work 0.249442 0.192931 -0.088641 -0.479945 0.347622 -0.342435 -0.086124 -0.315829 0.417782 0.304383 -0.071774 0.622059 -0.463902 0.242823 -0.381932 0.085627 -0.100927 -0.327167 -0.637500 -0.533283 0.435403 -0.027753 -0.418775 -0.406773 -0.893594 -0.420441 -0.317931 0.398966 0.078886 0.120309 -0.102469 -0.124219 -0.271707 -0.782272 0.705532 -0.207096 -0.059033 0.245663 -0.316642 -0.898652 -0.132882 0.232849 -0.403078 -0.244503 1.118307 -0.395938 0.910644 0.463246 -0.153932 0.454441
gossiped 0.593966 -0.296126 0.035326 -0.369364 0.211372 -0.228464 0.565685 0.026108 -0.286817 -0.624913 -0.191068 -0.415399 0.227022 0.193050 -0.026777 0.392446 -0.371543 -0.444007 -0.011788 -0.458775 0.186449 0.417504 0.088073 -0.273183 -0.078546 -0.432101 -0.633830 0.520576 0.363238 0.246907 0.340021 0.009428 0.389280 -0.115674 0.056303 -0.133194 -0.084673 0.599523 0.360055 -0.168694 0.020664 0.241871 0.148393 0.154496 -0.340479 -0.155410 0.672069 -0.433368 -0.546456 0.508726
happily -0.209985 -0.593810 0.457996 0.126586 -0.236816 0.373542 0.136199 0.283478 -0.147696 0.055203 -0.105527 0.089221 -0.231266 -0.169358 -0.393072 -0.061335 -1.063917 0.600516 -0.760176 -0.379138 0.071402 -0.030851 -0.679704 -0.715329 -0.457101 0.450602 -0.504836 -0.266783 0.035669 -0.602599 0.240674 0.151104 -0.605498 -0.250133 0.410559 -0.103170 -0.191670 0.090273 -0.074067 0.227920 -0.369095 0.634492 -0.175609 -0.332698 0.395050 -0.378995 0.458318 -0.313427 -0.874296 -0.165070
wrestled 0.088378 -0.159786 -0.195767 0.658965 -0.247158 -0.307186 0.492251 -0.607578 0.712905 0.117325 -0.414736 -0.116850 -0.389966 -0.097781 -0.821671 0.088247 -0.193689 0.313761 -0.236106 -0.401538 0.172303 0.264160 -0.570010 0.099819 -0.211746 -0.070529 -0.461189 0.541605 -0.080177 -0.247941 -0.058766 0.246510 -0.089949 0.175985 0.030887 -0.444187 -0.586182 0.444978 0.499174 -0.027176 0.001845 0.278804 -0.042610 0.411830 -0.146058 -0.513808 -0.251204 0.024915 -0.099753 -0.599098
screaming -0.456911 -0.489953 -0.346910 -0.199057 -0.169443 0.487928 0.279169 -0.622377 0.307009 -0.262104 -0.395780 -0.060981 -0.286840 -0.483734 -0.034913 0.424046 0.275643 -0.127369 -0.736626 -0.495722 0.262588 0.302361 -0.436539 -0.170494 -0.940710 -0.431981 -0.556678 -0.656655 0.349788 -0.021089 0.350390 0.385965 -0.283414 0.334231 0.333242 0.150899 0.010246 0.056177 0.036650 0.033193 -0.261267 0.181205 0.415683 -0.393407 0.411411 0.380575 -0.037070 -0.601888 -0.723968 -0.111341
into -0.584306 -0.706527 -0.742715 -0.099431 -0.341089 -0.312885 -0.829375 -1.050829 -1.030609 -0.943455 -0.401077 -0.752602 -0.017130 0.523264 0.186913 -0.069403 -0.557729 -0.116089 -0.623268 -0.852447 0.172330 -0.254251 -1.249301 0.307170 -0.314263 0.413672 -0.261631 -1.326909 0.155768 0.275838 -0.589896 -0.946179 -0.278821 -0.213836 0.629036 -0.962231 -0.534807 1.402971 0.293646 0.762904 0.713452 0.968090 -0.390036 -0.839383 0.277929 0.233645 -0.590036 0.910313 -0.520283 0.278945
high -0.333481 -0.552307 -0.284338 -0.295738 0.287522 -0.245530 0.703964 -0.264720 -0.234958 -0.498938 -0.397967 -0.080385 -0.206634 0.348011 -0.052367 0.598894 -0.178090 -0.489073 0.437104 -0.253533 -0.260873 -0.278472 -0.129569 0.303650 -0.540204 0.034936 -0.914117 0.387287 0.417592 -0.579038 -0.421436 -0.100474 0.172578 0.338289 0.143608 -0.194351 -1.606493 0.794487 -0.248060 -0.185015 0.010746 0.432393 -0.401147 -0.849009 -0.074657 -0.291272 0.247295 -0.039628 -0.544739 0.325075
chair -0.357267 0.007208 0.144704 0.140680 0.251150 0.193008 -0.037347 -0.877309 -0.247079 0.086360 0.264452 -0.266042 -0.728579 0.311307 -0.329431 0.541072 0.322560 -0.034176 -0.960274 -0.123192 0.027740 -0.301572 -0.097431 -0.407770 -0.550044 -0.212832 -0.125927 -0.010341 0.429696 0.158693 0.191735 -0.104359 -0.440133 -0.028184 0.728963 0.316440 -0.450973 0.909740 -0.472329 -0.602231 -0.496715 0.878086 -0.183784 -0.239211 0.378277 -0.256819 0.119757 -0.178521 0.047883 0.052221
None 0.150259 -0.430329 -0.016713 0.152147 0.049931 0.344812 0.030560 0.324956 -0.221262 -0.034558 0.018247 -0.520729 0.128343 0.058414 0.022028 0.505683 0.364001 -0.024030 -0.296025 -0.012747 0.035277 -0.427267 -0.548439 -0.600250 -0.080833 -0.095635 -0.723510 0.556763 -0.013629 0.197473 0.454455 -0.171895 -0.564318 0.375251 0.044333 -0.388297 -0.179684 -0.236959 -0.605900 0.009279 -0.195422 0.363144 0.226175 -0.199367 0.116032 -0.324974 0.529311 0.277109 -0.636724 -0.602727
them 0.257234 -0.714168 -0.425921 1.183167 -0.162274 -0.335835 -1.001582 -0.399842 -0.148474 0.360172 -0.407590 -0.013168 0.318667 0.300325 -0.076458 0.920443 0.496812 -0.194257 -0.750100 -0.633063 0.898063 0.598602 0.246050 -0.468047 -0.925380 0.431571 -0.483855 0.657453 0.641665 -0.343518 0.162698 0.079726 -0.230434 -0.852540 0.220605 -0.122221 -0.079124 0.117242 0.249615 -0.458793 -0.386293 -0.028166 0.077660 0.041184 -0.972339 -0.367815 -0.407910 -0.145552 -1.360413 0.902903
noticed -0.708232 -0.344685 -0.397100 -0.014894 0.557238 0.430636 0.349748 -0.531100 -0.305558 -0.993822 -0.337414 -0.095350 -0.436284 -0.097482 -0.637843 0.169486 0.073933 0.049688 -0.008480 -0.323562 0.292774 -0.429660 -0.273261 -0.778757 -1.181103 -1.139588 0.308383 -0.716898 -0.176948 -0.252371 -0.252728 -0.389722 -0.709342 -0.461941 -0.228049 0.293203 -0.081952 0.667965 -0.541820 -0.000043 0.533425 0.597260 0.502188 0.361856 0.264253 -0.307783 0.077562 0.581867 -1.205181 0.504083
tawny -0.230177 0.196072 -0.612731 0.455770 -0.124563 0.562516 -0.346125 -0.489130 -0.122353 -0.320113 0.056237 0.116943 -0.148752 -0.192785 -0.478170 0.337742 -0.049114 -0.106311 -0.083425 -0.065451 0.051209 -0.194793 -0.616906 -0.035023 0.018925 -0.001798 0.103507 0.136310 0.498058 0.481043 0.337825 -0.424099 -0.551393 -0.327798 -0.628185 -0.557347 -0.530495 -0.366959 -0.185154 -0.577980 0.132665 0.192739 -0.160314 -0.254000 0.551678 -0.317002 -0.348163 0.062856 -0.081064 -0.029138
owl -0.936848 -0.719068 -0.288760 1.037849 0.153280 0.310891 0.618086 0.302513 0.036418 -0.039825 0.412146 -0.489196 -0.128802 -0.064660 -0.220263 -0.007170 0.000627 -0.275109 -1.228822 -0.280657 0.455396 0.430953 -0.420388 0.107532 -1.040837 -0.366875 -1.382374 -0.095246 -0.253357 -0.062239 -0.152504 -0.182421 -1.242664 -0.349826 0.144039 -0.313127 -0.512707 0.082025 1.367153 0.178157 0.168486 0.747946 -0.814603 0.113515 0.483873 -0.084759 -0.425617 -0.118476 0.245168 0.177031
flutter 0.237170 -0.711340 -0.587453 0.803167 0.163984 0.318682 0.167116 0.182920 -0.015298 -0.587794 0.282621 -0.249719 0.225325 0.032831 0.237259 0.433832 -0.419249 -0.313578 -0.368326 -0.453429 -0.256250 0.301689 -0.070289 -0.752393 -0.412662 0.264470 -0.062851 0.392796 0.520928 0.072693 0.056725 -0.564421 -0.056246 0.298488 -0.286726 -0.489164 0.338475 0.434314 0.282117 -0.029664 -0.528205 0.673812 0.003291 -0.307182 0.089504 -0.369933 -0.097992 -0.230033 0.229524 -0.196083
past -0.346586 0.422153 -0.752302 0.542570 -0.198776 0.136080 0.260276 -0.048828 -0.172241 -0.706906 0.156503 -0.908828 -0.500175 0.138555 0.021232 0.041365 0.532942 -0.973771 -0.819995 -0.200221 1.113492 -0.405959 -0.549502 0.147786 -0.847504 -0.187836 0.091405 -0.214473 0.075028 -0.166365 -0.162628 -0.868097 -0.016614 -0.519423 -0.721303 -0.432730 0.252575 0.178589 0.387901 0.443111 0.117759 0.427589 -0.517515 -0.326866 0.493119 -0.152703 0.368683 0.084028 -1.257008 0.173140
window -0.525267 0.470786 0.382118 0.586771 -0.486975 0.725263 0.112993 -0.105512 -0.011930 -0.594165 -0.831124 -0.093768 -0.063392 0.123190 -0.111223 0.829846 0.235327 -0.013178 -0.486037 -0.477640 -0.038344 -0.415003 -0.363236 -0.164597 -0.670520 0.386242 -0.627769 0.077913 0.425212 -0.270568 0.474332 0.024221 -0.425779 -0.028216 0.597254 -0.350200 -0.238031 0.758871 0.216930 -0.600295 -0.575976 -0.089335 0.567108 -0.032140 -0.102777 -0.566920 0.581121 -0.185808 -0.655219 1.149223
At -0.314930 -0.193854 0.636043 0.223720 0.317262 -0.208577 1.037722 -0.230919 0.279664 -1.210931 -1.034999 -1.289291 0.029930 -0.648023 -0.483331 -0.168522 0.639833 0.103585 -0.391067 -0.243978 0.122663 0.277774 0.025590 -0.490661 -0.895635 -0.295950 -0.208778 -0.435846 0.325110 -0.606407 0.287501 0.080643 -0.394605 -0.544447 0.413049 -0.374861 -0.033101 0.487288 -0.494152 -0.690613 0.776948 0.003535 0.168829 -0.295120 0.617598 -0.607053 -0.008743 -0.509470 -0.899005 0.508000
half 0.306975 -0.294233 0.399748 0.036204 -0.009883 0.977131 0.342527 0.120732 0.282792 -0.282119 0.357596 -0.403325 -0.204095 -0.208261 -0.366881 0.626998 -0.761799 -0.462379 -0.861570 0.547380 0.437859 0.179218 -0.008261 -0.226690 -0.847439 -0.463653 -0.506008 -0.210927 0.119987 -0.489880 0.365503 -0.074510 -0.331080 -0.501552 -0.855895 0.217589 -0.134146 0.480016 -0.057491 0.411168 -0.119534 0.653932 -0.530342 -0.364480 0.311924 0.723765 0.196944 -0.028413 -0.775887 -0.102930
eight -0.398192 -0.271418 -0.166930 0.443643 -0.456895 -0.191869 0.046385 -0.650927 0.108421 -0.278995 0.448196 -0.312723 -0.454687 -0.286543 0.009951 -0.011205 -0.452482 -0.080886 -0.215766 -0.546587 0.353751 -0.282202 -0.054748 -0.422141 -0.532658 -0.161127 -0.098390 0.762638 0.427221 -0.017356 0.275206 0.153583 -0.000831 -0.030708 -0.580701 -0.024470 -0.635974 -0.012952 -0.089804 0.032142 0.159187 0.015162 -0.462163 0.356700 -0.288912 -0.300164 0.646227 -0.335331 -0.221258 -0.244500
briefcase 0.254892 0.156814 -0.675190 0.384200 0.229667 0.142857 -0.300270 -0.371040 -0.138208 -0.079858 -0.127031 0.173670 0.294543 -0.460558 0.056873 0.543207 -0.305572 -0.201807 0.164564 -0.546604 -0.511906 0.091204 -0.357448 -0.812556 0.075656 -0.502067 0.385141 0.161228 -0.270161 -0.225544 -0.029630 -0.249606 -0.384607 -0.112007 -0.368656 -0.618037 -0.322337 0.290724 -0.337995 -0.435457 -0.280775 0.703742 0.123308 -0.291151 0.272534 -0.445196 0.421476 -0.467835 -0.379871 -0.497563
pecked -0.478644 -0.011824 -0.575693 0.203234 0.150813 -0.374222 -0.048971 -0.149661 -0.467915 0.180178 0.242264 -0.688288 0.620388 0.046788 -0.187513 0.622207 0.103286 -0.617274 0.005686 -0.032534 0.227600 -0.029186 -0.675023 -0.204921 -0.372950 -0.038792 -0.679990 -0.343790 0.421099 -0.401536 0.475181 -0.473234 -0.502015 -0.210292 -0.181224 -0.209837 -0.904452 0.103997 0.255190 -0.558062 0.265627 -0.090329 0.385692 -0.346581 0.060873 0.372310 0.718958 0.255069 -0.227183 0.429534
cheek 0.085367 0.081913 -0.621141 0.108166 -0.309663 0.397513 0.293235 0.160432 -0.363859 0.278774 -0.369567 0.251346 -0.076429 -0.148523 -0.506907 -0.308254 -0.263578 -0.133910 -0.287923 -0.386390 0.458229 -0.301716 0.134625 -0.120638 -0.728692 0.112056 0.075755 0.254730 0.412311 -0.421013 0.417883 -0.245734 0.206294 0.017987 -0.455973 -0.332136 -0.526660 0.656413 0.286436 -0.403731 -0.558780 0.196811 0.172413 -0.516120 0.448332 -0.134453 0.593518 0.067605 -0.860887 -0.057029
