6913 50
Harry 0.972680 -0.297152 0.042615 0.968753 0.763911 -0.070685 0.382590 0.629805 -0.083871 0.764730 0.621849 0.027337 -0.102394 0.252680 0.236103 0.408716 -0.318271 -0.207575 0.916968 -0.216344 0.953672 -0.773498 0.474604 0.813756 0.044718 -0.294824 0.721208 0.301127 0.168892 0.108981 -0.536724 -0.696834 0.698744 -0.374330 -0.168703 0.310755 -0.156301 0.022153 -0.434988 -0.212491 -0.334070 -0.080067 -0.179343 0.003383 0.444369 -0.371066 0.189359 0.582289 0.105281 0.577607
Potter 0.727195 -0.296799 -0.134460 0.265380 0.201405 0.107307 -0.009358 1.709481 -0.450575 1.254691 0.329904 0.270087 -0.213819 1.424372 0.117928 0.048194 -0.571342 -0.202470 1.395188 0.455183 0.040991 -0.312723 0.099554 1.160882 -0.418978 -0.200535 -0.345865 0.673470 0.102761 1.021850 -0.148328 0.095619 0.150218 -0.920734 0.788164 0.622256 0.600765 -0.343931 0.898050 -0.505953 0.558962 0.245461 -0.059611 -0.666222 -0.060117 -0.157434 -0.887909 0.867449 -0.695593 0.324306
and 0.087216 -0.019604 -0.130769 0.517147 0.373192 0.286764 0.238941 0.188144 -0.490260 0.293244 -0.059404 0.132626 -0.367920 0.042053 0.166378 -0.266969 -0.118826 0.520806 0.510547 0.438925 0.355983 -0.291180 0.302832 0.729301 -1.172045 0.126264 0.787056 -0.259832 -0.223569 0.270660 -0.253200 -0.043407 0.752348 -0.442812 -0.023785 0.012666 -0.374364 0.368003 -0.131929 -0.011419 0.126107 -0.529297 -0.404833 -0.091523 0.804697 0.174558 -0.156199 0.096204 -0.669795 0.502172
the 1.037148 0.272588 -0.171159 0.817628 0.351866 -0.131927 -0.272361 0.163982 -0.154412 0.602032 0.063544 -0.256021 -0.242259 0.271019 -0.568412 0.452790 1.206138 -0.147884 0.530950 0.237973 0.553865 -0.507978 0.714082 0.456153 -0.078231 -0.141886 0.063604 0.419059 -0.088108 -0.268890 -0.185011 0.470044 0.842556 -0.423402 0.430637 0.572947 0.282614 -0.077505 -0.648322 -0.021877 -1.084080 -0.103098 0.645433 -0.385644 0.624099 -0.224357 0.017343 -0.031191 -0.439375 0.242313
Sorcerers 0.365163 -0.547922 0.215375 1.343373 -0.319361 -0.063957 0.332570 0.370072 0.143132 0.046129 -0.369766 -0.169578 -0.576996 0.060267 -0.737235 -0.968220 0.048873 0.432026 0.126092 -0.353787 0.000641 -0.492671 0.278398 1.162155 0.310707 -0.243824 0.454167 0.521871 -0.370220 -0.528202 -0.084236 0.451031 0.058678 0.099362 0.400508 0.122227 -0.032731 -0.170930 0.431576 -0.639774 -1.092135 -0.092377 0.087733 -0.810919 -0.223891 -0.848117 -0.145289 0.018122 0.120269 -0.208827
Stone 0.251357 -0.702417 -0.210532 1.134379 -0.310984 -0.443625 0.918181 0.581916 -0.151914 -0.296469 -0.425565 -0.266735 -0.467251 0.633571 -0.009823 -0.257337 -0.069906 -0.717318 0.419564 0.412524 0.722640 -0.682271 0.575372 0.473336 -0.017486 -0.076216 0.378415 0.784018 0.105607 0.369871 -0.334182 0.674182 0.704364 -0.472050 -0.193812 0.756254 0.278798 -0.165383 -0.034218 -0.104263 -0.913756 -0.038482 0.029999 -0.181386 0.158898 -0.191572 -0.433665 -0.434501 -0.898869 -0.396601
CHAPTER -0.041807 0.107338 -0.060407 1.169122 -0.282928 0.309134 0.035918 -0.103889 0.048584 0.124161 0.513976 0.266014 0.100551 -0.070909 -0.047484 -0.253782 -0.125601 0.043585 0.498480 0.424535 0.867130 0.079871 -0.109563 0.804603 -0.186959 0.197534 0.391782 0.410263 -0.499457 -0.205780 0.540626 0.093925 0.150345 0.059728 0.011163 -0.113539 0.265508 0.334818 -0.160895 -0.227767 0.291829 0.069578 0.433946 -0.896011 0.218491 -0.213524 -0.766723 -0.342575 -0.808968 -0.062030
ONE 0.598403 -0.383435 -0.160663 0.840504 -0.528087 -0.310111 -0.422711 0.295924 0.033158 0.317270 0.211955 0.660982 -0.350107 0.607779 -0.166309 -0.624318 0.108394 0.076055 0.243011 -0.341061 0.608176 0.000376 -0.007335 0.062262 0.123843 0.409371 0.081115 -0.000804 -0.383100 0.147355 0.568762 -0.532088 -0.357533 0.175600 0.122776 0.000884 -0.182004 -0.222059 0.255506 -0.255823 0.080987 -0.121659 -0.440124 -0.118167 0.039797 0.040080 -0.429872 -0.136962 -0.413159 -0.136388
THE -0.507239 -0.479507 -0.492621 0.466663 0.288220 -0.163878 -0.773645 0.639582 -0.162194 0.061747 0.524811 0.554988 -0.593181 -0.108704 -0.216708 -0.704473 -0.537482 0.054646 0.271293 -0.041051 0.499903 -0.144791 0.357504 0.258038 -0.136518 -0.644404 0.294097 0.598635 -0.920812 -0.581800 0.496663 -0.004686 -0.536935 -0.039746 0.564766 -0.126710 0.363272 0.627344 -0.271166 -0.802220 0.103457 -0.254946 0.019409 -0.630778 -0.096930 0.172087 -0.610004 -0.674962 -0.524505 -0.012910
BOY -0.035375 -0.128893 -0.294481 0.452533 -0.437895 0.461868 -0.098626 0.074544 -0.428311 0.269764 0.500916 0.149954 0.081006 -0.400290 -0.258555 -0.512069 0.286350 -0.141373 0.574670 -0.077397 0.490613 -0.264118 0.501250 0.547320 0.126461 -0.545613 -0.036413 0.503418 -0.384831 -0.452480 0.216905 0.367729 0.291032 -0.223749 -0.162354 0.183494 -0.399307 -0.111039 -0.081785 0.399743 0.404510 0.217820 0.648920 -0.558229 -0.408098 0.380421 0.156231 -0.428087 -0.242538 0.088989
WHO 0.142400 -0.497349 -0.024964 0.454230 0.322218 -0.093013 0.617586 0.355455 -0.539508 0.409426 -0.109544 -0.393926 0.345579 0.030120 0.356848 -0.617018 0.139729 -0.097096 0.232857 -0.068044 0.154995 -0.445605 -0.443318 0.443814 -0.144608 0.010400 -0.022815 0.229585 -0.323933 0.063280 0.190468 -0.116996 0.123130 -0.331252 0.248146 -0.245937 -0.158779 0.049658 -0.026544 -0.566071 0.244768 -0.169513 0.419238 -0.714735 0.215719 -0.486097 -0.105328 -0.052549 0.071265 0.363311
LIVED 0.006189 0.544377 0.353194 0.345868 0.356101 -0.422691 -0.054699 0.417795 -0.155440 -0.224256 -0.014131 -0.482148 0.322946 -0.287573 -0.353716 -0.646529 -0.293680 -0.337843 0.240330 -0.165433 0.629740 -0.414951 0.544374 0.008904 -0.462606 0.081494 0.522168 0.634960 -0.035957 -0.620473 0.192014 -0.422229 0.480762 -0.610181 0.350933 0.120341 -0.324049 0.068516 0.229694 0.213135 -0.224059 0.448973 0.033228 -0.311473 0.394507 0.121477 -0.168852 -0.030499 0.230325 -0.168524
Mr 0.380198 0.142113 -0.352755 0.449432 0.130074 0.420082 -0.450561 -0.501295 -0.627523 1.557137 0.613019 0.173885 -0.345354 1.605867 -0.761138 -0.682180 0.511737 0.077225 0.039095 0.107107 0.368760 0.071810 -0.161390 1.709117 -0.117984 0.150211 0.890113 0.232210 0.911229 0.799512 -0.167870 -0.310955 0.329262 -0.094696 -0.989534 -0.260457 -0.082895 -0.185243 0.299729 -0.853410 0.567560 -0.233450 -0.520976 -0.528342 0.545114 0.019649 -0.055866 0.546301 -0.222499 0.000042
Mrs -0.602540 -0.324391 -0.708572 -0.311011 0.792406 0.111223 0.283260 0.403125 -0.149963 1.298328 1.404868 0.589919 -0.047823 0.259742 -0.814307 -0.908837 0.284467 -0.346522 1.108562 -0.099076 0.376811 -0.234528 -0.043454 0.570342 -0.489997 0.073137 0.349943 0.958184 -0.382640 -0.261249 -0.716876 -0.120216 0.002865 -0.149731 0.143021 -0.180593 0.012915 0.379898 0.594507 -0.988067 -0.011247 0.053638 -0.705941 -0.638943 0.217492 0.242009 -0.407529 0.373356 0.182672 0.519934
Dursley 0.542314 -0.076847 -0.477093 0.831653 0.154075 0.049494 -0.444580 0.771947 -0.337902 1.138798 0.277811 -0.441316 0.598010 0.984121 0.195627 -1.399197 -0.058017 0.530799 -0.311534 -0.473062 0.669923 -0.743634 0.882990 1.499384 0.899944 -0.054829 0.573703 -0.330760 0.417997 0.374842 0.493496 -0.091473 -0.182635 -0.652504 -0.307309 -0.570907 0.205032 0.116153 0.249191 -0.719621 0.056593 -0.310451 -0.275760 -0.356084 0.310611 -0.067829 -0.520683 0.183357 0.312534 1.498542
of -0.880893 0.463804 -0.249555 0.580246 -0.709661 -0.741976 0.406730 1.050577 -0.442795 0.668736 -0.518661 -0.505210 -0.094487 1.099125 -0.169846 0.088872 1.137892 -0.592374 0.347354 0.484141 -0.063667 0.451950 0.766202 0.733263 -0.525384 0.449324 0.601667 0.095156 0.023396 -0.364440 0.531448 0.402568 0.492892 -0.605486 0.270869 0.428871 -0.355700 0.525519 -1.302989 -0.776623 -0.208890 0.849694 -0.232744 -0.929061 0.598559 -0.225868 0.283594 -1.305392 -0.224353 -0.353820
number -0.589508 -0.124827 0.127672 0.979875 0.584600 -0.642759 0.040409 -0.360333 -0.455464 -0.313341 -0.695185 0.158075 -0.210658 0.323169 -0.552994 -0.548914 -0.327272 -0.062178 0.432971 -0.625037 -0.005298 -0.524658 0.777500 1.039902 -0.765317 -0.228539 0.189799 0.812213 0.050230 0.200910 -0.350342 -0.674140 0.551558 0.056632 0.384413 -0.373312 0.159881 0.364507 -1.037427 0.070715 -0.764419 0.185203 0.305385 -0.145373 0.267493 -0.450230 0.426559 0.155868 -0.956489 0.326299
four 0.068337 -0.543291 0.134567 0.394362 -0.271564 -0.592067 -0.318342 -1.096441 -0.356934 0.411099 -0.448670 0.128956 -0.640554 -0.201793 -0.177887 -0.473943 0.357980 0.349192 0.718501 -0.111991 0.887014 -0.868332 0.047453 1.090571 -0.796816 0.560934 0.191028 -0.627164 -0.151356 0.204549 -0.113148 -0.623369 1.112192 -0.609315 0.239870 0.173390 0.054462 0.412573 -0.593310 -0.491924 -0.748683 -0.277074 0.506589 -0.117697 0.243179 -0.831622 -0.019128 0.290138 -0.009290 0.937260
Privet 0.212319 -0.808526 -0.377628 0.586255 -0.495527 -0.955258 -0.062239 -0.137542 -0.186438 0.811774 0.385376 0.615078 0.193966 -0.388431 0.195651 -0.263674 0.645079 -0.705747 0.430134 -0.066110 0.068011 -0.338080 0.675911 1.678562 -0.449803 0.074909 -0.201767 0.360730 -0.829091 -0.636546 0.222176 0.009565 1.140274 -0.278205 0.286600 -0.470212 -0.290424 0.068421 -0.162938 -0.182681 -0.652803 0.763868 -0.565651 -0.565482 0.137794 -0.073025 -0.058847 -0.762476 -0.650801 0.377915
Drive -0.343193 0.369331 0.021752 0.470139 -0.345788 0.219023 -0.106639 0.250620 -0.825943 0.661440 0.215819 -0.597359 -0.177925 -0.524796 0.037059 -0.287131 0.110038 0.006423 1.606924 -0.635105 -0.084886 0.018735 0.608767 0.718851 -0.428171 -0.240356 0.182238 -0.198356 0.816761 0.021548 -0.323438 -0.545778 0.849449 -0.377908 0.239752 -0.246997 -0.676395 0.777447 -0.059818 -0.711658 -0.138230 -0.000054 -0.069319 -0.427944 0.262948 -0.266599 -0.253727 0.248420 -0.750326 -0.515702
were 0.771800 -0.878371 -0.358642 0.523290 0.459160 0.193226 -0.255902 0.635546 -0.808664 -0.079803 1.004793 0.725285 0.081425 0.523592 -0.581288 -0.205994 0.478887 0.474557 1.463628 0.515148 -0.304866 0.032669 0.063128 0.344781 -0.555688 0.352827 0.369552 -0.827062 0.193024 -1.057693 -0.080117 -0.670947 -0.669464 -1.223864 0.174258 -0.256079 -0.279717 -0.920389 -0.521209 -1.095806 -0.698789 -1.067898 -0.499567 0.121999 0.174185 -0.778661 0.216658 0.175152 -0.586817 0.051570
proud 0.684391 0.197989 -0.216612 0.516084 -0.032472 0.269665 0.219964 0.229261 -0.297751 0.733092 0.678824 0.408039 -0.307780 -0.494738 -0.303991 0.016274 0.278648 -0.569700 0.074400 -0.414879 -0.260526 -0.358986 0.090939 1.285337 -0.254811 0.581585 0.475168 0.797219 -0.242808 -0.073226 -0.472700 0.007282 0.292855 -0.214786 -0.208456 -0.217819 0.245190 -0.343440 0.098072 -1.040915 0.074094 -0.441609 0.169554 -0.158695 0.287630 -0.119829 0.064226 -0.616959 -0.495317 -0.226318
to 0.559682 0.337250 -0.890597 0.243759 -0.278930 -0.431274 -0.201584 0.672011 -1.118489 1.134017 -0.355752 -0.374984 0.589368 0.367576 0.091025 -0.018703 -0.013850 -0.701099 0.975950 0.062116 0.402004 -0.508766 0.838724 -0.080574 -0.726016 -0.236581 0.470173 0.410938 -0.530901 -0.126829 -0.418406 -0.591869 0.157459 -0.336031 -0.306582 0.507656 0.671016 -0.637921 -0.070154 0.268787 -0.061416 -0.909985 0.028074 0.149216 0.074628 0.638526 0.106777 -0.041617 -0.802757 -0.270429
say 0.492826 -0.309319 -0.012897 1.289079 -0.185152 -0.757683 0.315525 0.839405 -0.916857 0.846564 0.269769 0.254978 -0.135454 -0.550818 -0.162778 -0.813026 -0.586860 -0.460045 0.862602 0.086971 0.315090 0.173919 0.171386 0.596381 -0.119233 0.362306 0.513172 -0.080224 0.298254 0.303228 -0.231394 -0.494004 0.631348 -0.430334 -0.065283 0.032454 0.829702 -0.385079 -0.279743 -0.551394 -0.243154 -0.029665 0.079764 0.147329 1.075263 0.432729 -0.748682 0.411427 -0.321021 -0.858876
that 0.484407 0.446847 -0.197867 0.285427 -0.261574 0.097086 0.999503 0.964477 -0.241490 0.543170 -0.081345 -0.190994 -0.009064 0.118962 -0.170662 -0.533666 0.300614 0.131948 0.281528 0.166714 -0.368436 -1.282251 0.159346 0.399920 0.310063 0.185872 0.482065 -0.417121 0.296410 0.025046 -0.286242 -0.852122 0.612062 -0.473162 0.845747 1.133823 0.247157 0.454272 -0.909922 0.172522 -1.167505 -0.295614 -0.092547 -0.210858 0.361186 0.040042 -0.524630 0.121088 -0.498308 0.383375
they -0.094243 -1.225848 -0.238415 0.402336 1.027962 -0.124134 -0.291986 0.808624 0.683653 1.011100 0.358579 0.682945 1.579106 -0.049410 -0.153284 -0.991094 -0.180751 -0.611264 0.815593 -0.118016 0.485316 -0.269042 0.819890 0.822425 1.210064 1.006901 1.151951 0.244813 0.382235 -0.416244 -0.011740 -0.081750 0.507790 -0.960985 -0.695230 0.120071 -0.371889 0.357850 -0.615532 -0.729684 -0.206220 -1.016330 -0.243149 0.151716 1.077151 -0.823859 -0.095563 0.707580 -0.344858 -0.200875
perfectly 0.250151 -0.102546 0.444783 0.421617 0.143118 -0.722628 0.063644 0.092297 -0.611542 0.629128 0.009709 -0.032727 0.079757 -0.372034 -0.518143 -0.173868 0.329883 -0.549740 1.018653 -0.030182 0.373149 -0.839697 0.240199 0.392510 -0.293051 0.284127 0.497516 -0.387547 0.008235 -0.359357 -0.147586 -0.833192 -0.159861 -0.817474 0.057589 -0.262156 -0.270882 0.407042 0.170463 -0.911618 -0.150088 0.154622 -0.103126 -0.277760 1.008503 -0.216359 0.464891 -0.435027 0.151321 0.265246
normal 0.143392 -0.405837 -0.205749 -0.144703 -0.307678 -0.427193 -0.420880 0.024503 -0.579783 0.439091 0.349359 0.312717 -0.312157 -0.358697 0.462263 -0.612765 0.001861 -0.336704 1.080422 -0.217166 0.704746 0.226516 0.505950 1.186065 0.222674 -0.477595 0.301567 0.216665 0.313999 0.096161 -0.248034 0.455793 0.410419 -0.050618 0.182630 -0.082989 -0.277547 0.173867 -0.158877 -0.695233 -0.827929 0.182720 0.229102 -0.517732 0.069159 0.096615 -0.213233 -0.049567 0.010614 -0.165612
thank 0.090088 0.280144 -0.121003 0.257044 0.157157 0.166040 -0.107743 -0.357972 -0.065005 0.195509 0.068613 0.349395 0.398521 0.308717 0.014219 -0.426465 -0.129555 -0.212940 1.051583 0.038097 -0.142026 0.007374 0.210895 1.045430 0.223245 -0.400764 0.618908 0.026766 0.005557 -0.487492 0.094547 -0.541070 -0.126874 -0.665603 0.517568 0.276790 0.414382 0.277225 0.409656 -0.590965 -0.167084 -0.279402 0.014404 -0.419940 0.445546 -0.179093 -0.304310 0.192087 -0.921357 -0.408083
you 0.797263 -0.701454 -0.642008 0.031392 -0.260677 -0.799455 0.189087 1.358265 -0.100725 0.736758 -0.140653 0.204734 -0.115167 -0.963667 -0.306827 0.056510 -0.238078 -0.073085 0.436255 0.713479 -0.081421 -1.031321 0.199601 0.665756 -0.227946 0.411236 1.417271 0.352995 0.845867 0.412084 -0.234883 -0.909306 0.047528 -0.959777 0.282301 0.509334 0.465949 -0.491458 -0.675933 -0.634335 -0.017334 0.019314 0.216136 -0.278586 0.481217 -0.491166 -0.670342 0.692889 -1.382618 -0.252320
very 0.355828 0.318466 -0.155311 -0.060766 -0.657884 0.026679 1.207411 0.401224 -0.120225 1.063723 1.391535 1.244446 1.088376 0.695115 -0.488326 -0.349390 -0.016185 0.353747 1.415674 0.581534 0.285088 -0.427394 0.825009 -0.029757 0.346632 -0.974263 0.639185 0.353245 0.114457 -0.319990 0.870251 -0.654911 0.102348 -0.637893 -0.156043 0.230379 -0.008298 0.635328 -0.280138 -0.187425 -1.287464 0.680523 -0.762320 0.449001 -0.142276 -0.495437 -0.145481 -0.303359 -0.600735 -0.026498
much -0.085445 -0.521219 -0.208425 0.918803 -0.422328 0.192989 0.406212 0.480603 -1.030448 1.090057 0.417499 0.189702 0.580818 0.196900 0.254889 -0.874262 0.679825 -0.672324 0.967910 -0.260055 0.399006 -0.469371 0.973370 0.243754 0.917524 0.167514 0.891468 -0.504253 0.540513 -1.424723 -0.132064 -0.586678 0.230832 -0.317674 0.769510 -0.002353 0.841180 -0.299811 -0.134964 -0.153657 -0.214214 -0.170114 -0.645883 -0.103496 -0.718430 -0.035222 -0.577515 1.092576 -1.426040 -0.120760
They 0.484795 -0.736879 -0.317922 0.609111 0.568143 -0.316553 -0.640353 0.894633 -0.177881 0.629293 1.202288 -0.690462 0.670430 -0.033325 -0.103963 -0.675247 0.117100 -0.448220 0.795612 -1.093489 0.185255 -0.875520 -0.165263 0.824323 -0.282945 -0.224408 0.364852 -0.054851 1.060733 -0.657316 -0.625737 -0.803616 1.569921 -0.283677 -0.814329 -0.223787 0.574253 0.300208 -0.595025 -0.883567 -0.539875 -0.338867 0.299309 0.242378 0.301784 0.096150 0.186773 -0.549112 0.009204 0.096039
last 0.613426 0.126192 -0.295101 -0.457976 -0.458257 -0.438414 0.502595 -0.215360 -0.617443 1.435676 0.380244 0.224332 -0.004863 0.189650 -0.773935 -0.667612 -0.364222 0.710718 0.722683 -0.208914 0.542871 -0.439613 0.041386 0.508029 -0.678876 -0.193138 0.946686 0.277971 0.875427 -1.033377 0.504174 -0.666353 0.797260 0.281807 0.804239 0.638133 -0.480606 -0.259005 -0.500520 0.161195 -0.960140 0.367260 0.632914 -0.966555 0.097800 -0.031166 0.361068 0.164826 -0.371172 0.253659
people -0.463892 0.190056 -0.154721 -0.124877 0.513248 0.299312 -0.057314 0.669277 -0.484850 0.411325 -0.278519 0.258163 0.119807 0.512373 0.004046 -0.439030 0.458975 -0.220792 0.476505 0.276594 0.199171 -0.755368 0.050397 0.522022 0.088624 0.570099 0.890922 0.541049 0.901256 -0.509269 0.146262 0.410420 0.346758 -1.215261 0.414378 -0.641611 -0.148467 -0.513628 -0.675279 -1.250721 -1.181580 -0.327002 0.118308 -0.281629 0.284245 -0.366367 -0.152952 0.045430 -1.048653 -0.125246
youd 0.241709 -0.052110 0.125364 0.688978 -0.357312 -0.642163 0.545875 0.759685 -0.545152 0.749704 -0.160716 0.748550 -0.161272 -0.433400 -0.326648 -0.478465 -0.598758 -0.221773 1.045550 -0.032246 0.089763 -0.973703 0.617872 0.376735 -0.393725 -0.441193 0.977982 -0.502694 0.497725 -0.117757 0.090758 -0.299235 0.808546 -0.331101 0.345933 0.213930 0.416853 -0.636173 -0.044805 -1.004077 0.119250 -0.138542 -0.211046 0.247669 -0.242333 0.219978 -0.517535 -0.458405 -0.362250 -0.185333
expect 0.052856 -0.533443 -0.415304 0.690248 -0.563402 -0.435698 -0.140616 0.347051 -0.949573 0.781700 0.389231 0.588213 0.236257 -0.344456 -0.660307 0.016206 0.597422 -0.422478 0.293352 0.290527 -0.175379 -0.542982 0.940292 0.780563 0.056911 0.360162 0.680937 0.248469 0.914650 0.298594 -0.445550 -0.709263 0.925752 -0.783826 0.113296 -0.380172 -0.192982 -0.458441 0.071183 -0.978666 0.326130 -0.217857 -0.359337 -0.474246 0.861307 -0.407774 -0.577521 0.342270 -0.411401 -1.052975
be 0.518973 -0.172473 -0.158229 1.200917 0.169300 -1.030363 0.180798 0.772039 -1.094786 0.645693 -0.050696 -0.671896 0.392798 -0.088457 -1.737772 -0.065935 0.327098 -0.422610 1.228616 -0.198210 -0.390840 -0.782717 -0.098579 0.295699 -0.360426 0.104509 1.070285 -0.670746 0.199122 0.270131 -0.062221 0.269217 -0.658933 -1.011679 0.527211 0.414247 -0.188527 -0.795886 0.146702 -0.835727 -0.527332 -0.197439 -1.378407 -0.062867 -0.056484 -0.402301 -0.749818 0.744207 -0.561318 0.386176
involved 0.123779 0.075034 -0.045808 0.009020 0.148340 0.037916 0.707825 0.799946 -0.571401 0.473476 -0.395103 0.646322 -0.167607 -0.008260 -0.529155 -0.897027 -0.263540 -0.306568 0.667864 -0.218977 0.061481 -0.629800 0.169840 0.617888 -0.603071 0.143926 0.763892 0.597760 0.037003 -0.402210 0.027991 0.245866 0.278276 -0.242303 -0.018977 0.124236 0.065117 -0.414028 -0.272956 -0.285943 0.191620 -0.705678 -0.540515 -0.606382 -0.106408 0.348519 0.083464 0.114247 -0.307836 0.223343
in -0.047874 1.092915 -0.445594 -0.034513 0.461121 -1.091808 -0.099090 0.578773 0.506581 0.574827 0.224535 0.059841 -0.158796 0.583336 0.018233 -0.506767 0.232159 -0.690588 0.952507 -0.106761 -0.195200 -0.358611 0.211522 0.331902 -0.240316 0.128430 0.588359 0.448995 -0.370647 -0.003923 0.019214 -0.448206 0.545030 -0.711283 0.126319 -0.237449 -0.232023 -0.245323 -0.970805 -0.182453 -0.826932 -0.515491 -0.624564 -0.241230 0.385644 0.073945 0.384050 -0.529142 -0.730968 0.512515
anything 0.782985 0.001940 -0.088122 0.609289 -0.542658 -0.461067 0.853848 0.458019 0.052074 0.166564 0.565592 -0.492213 0.530351 -0.983904 0.093128 -0.252776 -0.156725 -0.682992 0.627106 -0.283882 0.541440 -0.539009 0.310104 1.059750 0.238297 -0.489882 1.321705 0.070672 1.362273 0.058880 -0.754712 -0.199407 0.907794 -0.406086 0.266617 0.026202 0.419168 -0.856004 -0.395866 -0.326094 -0.463511 -0.013081 0.054454 -0.644674 0.307092 -0.362529 -0.658358 0.460307 -0.981876 -0.285672
strange -0.409501 0.160618 -0.302178 0.491271 -0.343595 -0.393774 0.480826 -0.023885 -0.264392 0.732972 0.312419 -0.045302 -0.382743 -0.280497 0.329462 -0.680279 -0.082517 0.018952 0.924682 0.521643 0.111155 0.294256 0.444736 0.706212 0.012908 0.368064 0.634918 -0.151865 0.054297 -0.824711 -0.326646 0.412654 0.135287 0.212201 -0.065051 0.012660 -0.171652 0.532917 0.301820 -0.360841 -0.615576 -0.043746 0.400214 -0.578299 0.456103 0.150397 -0.316404 0.098720 -0.666595 0.042051
or 0.392031 -0.096444 0.199164 0.313468 -0.097128 -0.178285 0.288710 0.293441 -0.061926 0.695646 0.417068 0.400771 0.003568 0.237063 -0.777192 -1.023253 -0.097527 -0.607421 0.060299 0.081345 -0.183487 -0.309907 0.358251 0.722794 -0.520009 -0.031669 1.088064 -0.187195 0.416253 -0.371688 0.362298 0.314092 0.649274 -0.201849 0.618583 -0.176755 0.930102 -0.818054 -0.064059 -1.225635 -0.081041 -0.112702 -0.121197 -0.462305 0.219451 0.301175 -0.026362 -0.108844 -0.551740 0.054927
mysterious -0.101012 -0.364845 0.267044 0.279991 0.213293 0.261125 0.237973 -0.167121 -0.322759 0.774303 0.061330 -0.367949 -0.183697 -0.140381 0.105715 -0.189015 -0.393801 -0.223305 0.344914 -0.371845 0.576030 -0.279458 -0.407166 0.723620 0.195765 0.210664 0.596129 0.284300 0.347882 -0.309205 0.115881 -0.076401 0.757416 -0.685887 0.685531 0.326225 0.057159 -0.139728 0.016783 -0.920060 -0.685452 0.324225 0.060483 -0.123479 -0.148740 -1.087272 -0.363738 0.111945 -0.811422 -0.138309
because 0.049128 0.354345 -0.070675 -0.000302 0.032902 -0.126992 0.166655 -0.034467 -1.539965 0.904844 0.567238 0.665233 0.211755 0.264709 -0.582446 -0.348022 -0.835650 -0.567767 0.701353 -0.059756 -0.172170 -0.544138 0.327400 1.521508 0.941572 -0.032416 0.068097 -0.560152 0.077689 0.259037 -0.345397 -0.609031 0.524051 -0.355391 0.093441 0.362199 -0.230908 0.434517 -0.110989 -0.583632 -0.416767 0.057597 -0.716733 -0.097200 0.498864 -0.225569 -0.209263 -0.155566 -0.515166 0.017536
just 0.252236 -0.006666 -0.605991 0.789724 -0.369953 -0.926727 0.071040 0.659949 -0.406565 0.905182 -0.195316 0.018492 0.119666 0.751614 0.111593 -0.516924 0.252699 -0.061099 1.486428 -0.208691 0.060480 -0.145838 -0.193572 1.313268 0.326498 -0.519070 0.336430 -0.156993 0.424784 -0.049305 -0.840201 -0.389498 0.235453 -1.004856 -0.013434 0.388460 0.187663 0.093421 -0.016969 0.280467 -0.496378 -0.698078 0.270233 -0.198081 -1.109835 0.472047 -0.524878 -0.013419 -0.399483 0.682116
didnt 0.569988 0.004457 0.113722 0.007708 0.274864 -0.548123 0.389824 0.203313 0.148322 1.185677 1.066220 0.598200 1.016323 0.737288 0.176558 0.074703 -0.824242 -1.109249 0.045768 0.933516 0.541229 0.060902 1.830280 1.038818 -0.228736 0.413747 0.325333 -0.377361 0.599024 -1.032020 -1.298347 -0.680542 0.886324 -0.785296 1.701682 0.011450 0.868539 -0.047188 -0.314592 -0.087962 -0.031167 0.236755 -0.350774 -0.268807 0.360457 0.741023 -1.368103 0.165367 -0.063785 -0.498870
hold -0.326911 0.543081 -0.682504 0.872855 -0.138417 -0.549497 0.141449 0.803449 -0.800192 0.385938 0.555592 -0.244751 -0.105454 -0.273711 -0.329498 -0.784736 0.495088 -0.043520 0.441615 0.506146 -0.025260 -0.683963 0.315896 0.426675 -0.148749 -0.286408 0.180465 0.336940 -0.066572 -0.080223 -0.617564 -0.002941 0.316943 -0.305400 -0.011472 0.256791 0.337775 -0.039302 0.085208 -0.272164 0.000412 -0.330997 0.353186 0.036878 0.543781 -0.327557 -0.048339 0.440279 -0.580600 -0.346163
with 0.090749 1.107458 0.321275 -0.313472 0.407603 -1.049858 0.092717 0.656663 -0.758064 0.419675 0.337755 -0.082762 0.275805 0.085601 0.124646 -0.392693 0.165524 0.264925 0.562721 0.606118 -0.181746 0.093647 0.299613 0.165771 -0.138294 -0.488008 0.409746 -0.514012 -0.455113 -0.640276 0.225170 -0.273260 0.500794 -0.596475 0.019071 0.002515 0.250973 0.151538 0.068499 -0.385451 -0.576404 -0.333975 0.014513 -0.486400 0.711318 -0.063841 -0.128489 -0.649435 -1.265488 0.783813
such -0.447176 -0.107143 -0.032138 -0.080604 -0.905026 -0.481751 0.513580 0.694276 -0.240790 0.592988 0.928093 -0.040073 0.157515 -0.556357 -0.633661 -0.646346 -0.094884 -0.075497 1.597905 -0.313790 0.793479 -0.209625 0.622819 0.320936 -0.141565 -0.037323 0.792998 -0.308376 -0.186587 -0.315038 -0.378941 -0.670410 0.251460 -0.249899 0.255394 -0.046279 0.665499 0.439825 -0.326319 -0.300328 0.215376 0.213169 -0.819929 -0.311612 -0.387158 -0.299951 -0.401504 0.232110 -0.754866 -0.635703
nonsense -0.046350 0.114544 0.139887 0.352914 -0.444828 -0.336242 0.422647 0.442445 -0.270327 0.414739 0.222596 -0.383599 -0.414658 -0.267920 -0.102032 0.201072 0.388727 -0.071446 0.716658 -0.134227 0.459676 -0.461825 0.374736 1.034094 0.106932 -0.012891 0.219318 0.157691 0.457851 0.080329 -0.375051 -0.611633 0.223180 -0.026474 0.220231 0.224596 0.946128 0.129620 0.000728 -0.313646 -0.097368 -0.058914 0.193316 -0.184125 -0.340469 0.187938 -0.361126 0.143798 -0.957269 -0.177435
was 0.721048 0.142034 0.616470 0.976929 -0.742840 -0.019301 0.696399 0.300883 -0.742853 0.807874 0.176464 0.657398 0.180039 -0.325552 -1.160331 -0.915385 -0.481319 -0.154096 0.838591 1.006931 -0.098431 0.608008 -0.273004 0.218006 0.120838 -1.248343 0.705462 -0.019820 -0.260993 -0.491038 -0.450186 -0.359923 0.166577 -1.020187 0.508333 0.356371 -0.079325 -0.192771 -0.848300 0.142713 -0.738756 0.825411 -0.308645 0.524945 0.640125 0.091268 0.322703 -0.377453 -0.472616 0.658601
director 0.471048 0.036288 0.434621 0.606924 -0.220330 -0.254953 -0.456176 -0.218649 -0.621117 -0.049460 0.240915 0.370203 0.028656 0.088265 0.059685 0.426180 0.249122 -0.058520 0.097782 0.214529 0.563921 -0.460943 0.030078 1.013761 -0.696140 0.222066 0.687450 0.630731 -0.269071 0.021389 -0.127242 0.113175 0.226399 -0.481456 -0.188534 0.454912 0.294591 0.409687 -0.484251 -0.095680 -0.511254 -0.004041 -0.011844 -0.031383 -0.147860 0.351672 0.026955 -0.170085 -0.724235 -0.357002
a -0.227845 0.139323 0.006945 0.534158 -0.232822 -0.705605 0.158848 0.752978 -0.014439 0.722952 0.724737 0.389217 -0.229227 -0.402538 -0.592049 -0.152784 0.505090 0.417916 0.311359 -0.983181 -0.014185 0.429144 0.698783 0.871154 -0.462997 -0.377290 0.532010 0.597129 -0.834232 -0.157417 0.263517 -0.762108 0.289531 -0.193543 0.373660 0.214266 0.310728 -0.138123 -0.200263 0.023304 -0.513057 0.219430 -0.168492 -0.013620 0.095316 -0.196217 -0.484393 0.229404 -0.628751 0.244028
firm 0.288106 0.354109 -0.174303 0.388354 -0.231503 0.013930 0.159095 -0.079076 -0.512933 -0.279142 0.473964 -0.352633 -0.320963 -0.352110 -0.367877 0.060642 -0.273725 -0.765882 0.814434 -0.183780 -0.295410 0.051412 0.225003 0.797222 -0.730690 0.317959 0.257221 0.327949 0.058519 -0.418127 -0.006125 0.119682 0.191926 -0.465718 0.059395 -0.058184 0.494199 -0.046156 -0.515080 -0.740416 -0.342527 0.153211 -0.299342 -0.454723 -0.418491 -0.091602 0.313852 -0.355243 -0.459570 0.306304
called 0.226415 -0.012746 -0.018889 0.234380 -0.265356 0.054572 0.050609 0.782115 -0.242703 1.437415 -0.432828 0.081770 -0.359827 0.148669 0.297137 -0.188888 -0.307876 0.326656 0.719469 0.219277 0.185669 -0.149337 -0.120760 1.587711 -0.143697 0.218905 0.751686 -0.048882 0.355766 0.373153 -0.166230 -1.000764 0.423264 -0.264468 0.725040 -0.210839 0.263670 0.615136 -0.762254 -0.038184 -0.408165 -0.230448 -0.169762 0.083929 0.133709 -0.143617 -0.100126 -0.535916 -0.215842 -0.337326
Grunnings -0.223713 0.381701 0.165510 0.166226 0.083397 0.244971 0.461963 0.257567 0.029141 0.089128 0.066139 0.127611 0.164060 0.332810 -0.347531 -0.209161 -0.402925 0.241050 0.686277 0.177365 0.129030 -0.366091 0.115025 0.964845 -0.451902 0.366351 0.291789 0.246291 -0.690247 -0.402222 -0.021290 0.589387 0.357917 -0.249488 -0.473649 0.537554 0.129935 -0.392667 -0.341230 -0.923100 -0.408958 0.161351 0.251617 -0.850053 0.444780 -0.018915 -0.208988 0.223728 -0.425497 -0.337998
which 0.011420 0.427889 0.255617 0.452834 -0.252451 -0.178283 -0.299147 0.606055 -0.525437 0.461757 0.292038 -0.205266 -0.059891 -0.413568 -0.689340 -0.504880 0.646657 -0.372785 1.146508 0.046087 0.040983 -0.259697 0.018026 0.878344 0.548215 -0.534359 -0.377230 -0.042194 -0.195555 0.514650 -0.135024 -0.497821 0.605876 -0.200320 0.038340 0.227847 0.166694 0.509916 -0.275966 -0.300962 -0.954564 -0.056358 0.050967 0.280550 0.736840 0.380387 0.095544 -0.774397 -0.615390 0.252998
made -0.202594 0.401421 -0.053214 0.065999 0.386562 0.179796 0.299196 0.478441 -0.777520 0.875623 0.091291 -0.425897 -0.073754 -0.449076 -0.753910 -0.178080 -0.218727 -0.800035 1.159472 0.353554 -0.260102 0.066894 -0.367181 1.068586 0.134393 0.019976 0.868418 -0.933979 -0.416419 -0.511500 -0.596089 -0.626636 0.660015 -0.572449 0.606752 -0.206197 0.393506 0.670632 -0.635738 -0.441421 -0.274986 0.307230 -0.141733 -0.191669 0.159183 0.138971 0.298809 -0.258751 -0.330565 -0.134061
drills 0.309628 0.083948 -0.635482 0.837952 -0.070944 -0.393639 -0.041492 0.316558 -0.440453 0.903182 0.386676 -0.252527 0.081370 0.472406 0.520389 -0.846009 0.290395 -0.047830 0.534240 -0.222165 0.241657 -0.173791 0.790549 1.055500 -0.545110 0.158762 -0.126640 0.313775 0.178478 -0.261507 0.306070 0.011462 0.396408 -0.458112 -0.102110 0.545061 -0.326950 -0.054413 -0.115296 -0.306131 -0.864238 0.377758 0.242734 -0.010190 0.429603 0.153532 0.509501 -0.602677 -0.523510 0.365512
He 0.487874 0.107145 0.505106 0.687774 0.200453 0.470975 -0.372271 0.705066 -0.090264 0.335894 1.220812 -1.044871 -0.066245 0.113052 -0.152623 -0.310029 0.025665 -0.421006 1.148702 -0.353780 0.542967 -0.274078 -0.331899 0.525255 -0.165621 0.264837 1.262158 0.099837 0.481277 -0.349885 -0.529108 -1.041023 1.286226 -0.372858 -0.216088 0.157084 -0.107238 0.175228 -0.328804 -0.334633 -0.860510 0.544702 -0.562616 0.320354 -0.225359 0.859221 0.530538 0.213038 -0.359888 0.466573
big -0.280544 0.407355 0.153562 0.493539 -0.277727 -1.025283 0.113915 -0.043181 -0.663491 1.111745 -0.219996 0.080294 0.159995 -0.037053 0.106999 -0.214734 -0.604732 -0.069447 1.278330 -0.224563 -0.468976 0.308729 0.875971 0.440201 -0.193356 -0.343764 0.591513 -0.294135 0.310979 -0.657685 0.004402 0.021214 0.117372 0.040938 -0.510354 -0.454413 -0.737665 0.601683 0.223718 -0.865092 -0.742336 -0.034271 -0.376229 -0.246833 0.438397 0.043018 -0.716611 -0.268283 -0.730032 0.747309
beefy 0.051444 0.365727 -0.029395 0.373654 -0.426241 -0.354547 -0.280526 0.283639 -0.410195 -0.065503 -0.116356 0.074831 -0.666263 0.226404 -0.298380 -0.442819 -0.307605 -0.156326 0.470108 -0.309368 -0.291790 -0.031444 0.556250 0.624036 0.031905 -0.162563 -0.196596 -0.092070 -0.235356 0.293952 -0.473608 -0.353546 0.062405 -0.759518 0.267249 -0.466920 -0.685166 -0.054951 -0.410387 -0.694933 0.226146 0.092465 0.417521 -0.080815 -0.175639 -0.048675 0.195788 0.003358 -0.487645 -0.089903
man -0.675683 0.223774 0.088515 0.013467 -0.742395 1.048947 0.166684 0.635748 -0.816926 0.980494 -0.123714 0.545942 0.254144 0.410453 -0.178160 -0.099878 -0.313142 0.224928 1.030304 0.318798 0.026969 -1.178073 0.461732 0.575827 0.174801 -0.241450 0.875513 0.247103 -0.094493 -0.676331 -0.407466 0.035116 0.194332 -0.280951 -0.057511 -1.133670 -0.660145 0.317515 0.056822 -0.645470 -0.435593 -0.113785 1.198952 -1.063004 -0.335497 -0.263042 0.225489 0.363201 -1.251627 0.370056
hardly 0.281325 0.238896 -0.212458 0.951074 -0.049720 -0.747621 0.426330 0.522805 0.057714 0.731585 0.426743 0.500661 -0.172446 0.305256 0.579154 -0.615298 -0.176570 -0.148510 0.524777 0.068724 0.412787 -0.009940 -0.584773 1.111166 0.164356 0.472562 0.794568 0.307888 1.068112 -0.543823 -0.166244 -0.595115 0.535984 -0.892663 -0.126788 -0.136872 -0.589255 0.477423 -0.140393 -0.127725 -0.091410 0.184625 -0.333338 -0.586191 0.017656 0.396178 -0.514628 -0.076049 -0.308995 -0.555853
any -0.091286 -0.168035 -0.481517 0.598720 0.050127 -0.382461 0.068928 0.860250 -0.294745 0.864716 0.023719 0.264725 0.292790 -0.366344 -0.237584 0.386632 1.235371 -0.563396 0.688356 0.008968 0.997671 -0.560190 0.556763 0.903562 -0.251407 -0.508766 1.289925 0.053885 0.307575 -0.321616 0.111429 0.129133 0.379041 -0.344078 0.390623 -0.484981 0.373280 -0.230225 -0.420489 0.073332 0.050979 -0.438833 0.562168 -0.937273 -0.163872 -0.209913 0.197665 0.320859 -0.945154 -0.278480
neck 0.448500 -0.539906 0.184744 0.031581 -0.280315 -0.125017 0.039979 0.087553 -0.546372 0.234742 0.494912 -0.466589 -0.711986 0.411831 -0.132675 -0.318593 -0.233106 -0.311099 0.693687 0.203616 0.103362 0.210869 1.011850 1.164564 -0.088034 0.400360 -0.149390 0.523953 0.179152 -0.015125 -0.450149 -0.260334 0.413332 -0.837319 0.133880 0.027777 0.298575 -0.018675 -0.182153 -0.970589 0.455535 -0.411825 0.034839 -0.203344 -0.216747 -0.433202 0.919024 0.027694 -0.936473 0.717043
although 0.218708 0.552542 -0.412248 0.731927 -0.152861 -0.132367 0.109005 0.658282 0.262280 0.159921 0.472326 0.258119 0.065317 -0.434683 0.081231 -0.247892 0.401771 -0.750346 0.435215 0.220771 0.135836 -0.089466 0.357245 0.885353 -0.547292 0.151848 0.605579 0.229333 0.532773 -0.415424 -0.154686 0.143343 0.527465 -0.502991 -0.082216 0.261171 0.196808 0.141597 0.073910 -0.498180 -0.079847 0.173743 -0.435237 -0.493595 0.631899 -0.298756 -0.412055 -0.066343 -0.243132 0.301145
he 0.567176 -0.212986 0.012425 1.434834 -0.102853 0.154517 0.371060 0.527606 0.311154 0.881881 -0.009189 -0.384982 0.272560 0.409855 0.005428 -0.463054 0.116983 0.063810 0.913925 0.116537 0.137980 -0.409411 0.075202 0.913762 1.031906 0.026670 1.125898 -0.194764 0.713338 0.514761 -0.691800 -0.716580 0.618289 -0.453868 -0.331723 -0.496837 0.315765 0.243299 -0.341163 -0.314356 -0.484170 0.178442 0.018078 0.093697 0.152168 0.001529 0.731823 0.329297 -0.796863 0.354589
did 0.323500 -0.238739 -0.761921 0.775367 -0.046995 -0.381445 0.708439 0.260661 -0.397448 1.009226 0.269231 -0.101872 0.391404 0.933299 -0.143980 -0.892895 0.531965 -0.758146 0.660351 0.932031 0.373434 -0.033333 0.792230 1.059327 0.656784 0.269401 0.281913 0.068950 0.294100 -0.007563 -0.549097 -0.669922 0.435257 -0.475812 0.803131 -0.108035 0.521779 0.124377 -0.156680 -0.120066 0.451795 0.466500 -0.196761 -0.453648 0.373256 -0.602831 -0.784235 0.601263 -0.772693 -1.302726
have 0.097048 0.280118 -0.988213 1.180526 -0.077082 -0.745392 0.343594 1.060916 -0.964704 -0.339890 0.683367 -0.121146 -0.175524 0.291774 -0.764364 0.263039 0.546107 -1.384421 1.440560 -0.017495 -0.816889 -0.832727 1.023131 0.552898 0.100581 -0.081048 1.067939 -0.310660 0.837889 0.117440 0.050694 -1.006085 0.377570 -0.193981 0.394850 -0.289184 -0.661976 -0.284348 0.005735 -0.149443 0.098315 0.334747 -0.059869 -0.083420 1.320296 -0.080462 -0.526306 0.276676 0.066907 -0.881542
large -0.943324 1.014884 0.472128 0.484773 0.161389 -0.671662 0.981633 0.441201 -0.065698 1.025682 1.080321 -0.357477 -0.626306 0.114337 -0.501214 -0.143274 0.137665 0.100467 0.363016 -0.195404 0.832106 0.660911 1.436917 0.602458 -0.610613 -0.091009 0.400926 0.676182 -0.764049 0.091143 0.383864 -0.274810 -0.370659 1.092818 0.871612 0.154393 0.145508 0.833076 -0.193131 -1.128519 -0.865432 0.266272 -0.114835 0.674224 -0.037100 -0.835139 -1.183734 0.433148 -0.594618 0.708418
mustache 0.390336 -0.364199 -0.118036 0.379829 0.020595 0.386238 0.413564 0.496984 0.148160 0.618899 -0.269602 -0.048508 -0.568871 0.114165 -0.054667 -0.476513 -0.246866 -0.217178 0.869098 -0.045002 0.091587 -0.075162 0.026867 1.095344 0.219836 0.209653 -0.140710 0.274326 -0.560764 -0.597789 0.139717 -0.517123 0.085167 0.063993 0.669075 0.289219 0.165018 0.111357 -0.510739 -0.946829 -0.473706 0.130215 0.273968 -0.595910 0.480413 0.037766 0.554724 -0.099409 -0.925663 0.448684
thin -0.409416 -0.132288 0.082698 0.432565 0.025895 -0.400087 0.590300 0.022297 -0.296555 0.498225 0.981596 -0.507700 0.101284 0.279879 -0.351708 -0.298493 -0.078812 0.173844 0.783924 -0.658697 -0.019269 -0.432564 0.576890 0.370120 -0.169147 0.424038 0.598729 0.384622 -0.188738 -0.943108 0.206073 -0.288480 -0.209103 -0.421316 1.042490 0.391510 0.122427 0.434454 -0.292958 -0.619753 -0.990100 -0.274122 0.120623 -0.603859 0.015929 0.105360 -0.352820 -0.173480 -0.276078 0.894059
blonde 0.520389 -0.468313 -0.329180 0.692562 0.219115 0.063477 0.214994 -0.320019 -0.365527 0.658249 0.359885 0.027669 -0.132496 -0.224905 -0.155972 -0.727496 -0.374519 -0.447191 0.425100 -0.367509 -0.035604 -0.568913 0.412438 0.096617 -0.110621 0.145142 0.775345 0.544189 0.128673 0.166594 -0.218568 -0.812269 -0.250560 0.365064 -0.167999 0.230966 -0.371112 0.638900 -0.069254 -0.194728 -0.363442 -0.413975 0.530292 -0.625769 0.067582 -0.547127 0.206789 -0.571169 -0.577225 0.392513
had 0.750278 0.123912 -1.148421 0.686382 0.586331 -0.268726 0.740647 -0.173490 -0.349107 0.787634 0.952316 0.494777 0.205102 0.036534 -0.367228 -0.813115 -0.150568 -0.878605 1.776208 -0.130454 0.622707 -0.373160 0.076107 0.505101 -0.091087 -0.777371 0.689086 -0.234790 0.184218 -0.364694 -0.006259 -0.910088 0.365681 0.010862 0.092358 -0.438681 -0.086102 0.350154 -0.478965 0.406982 0.675038 0.288484 -0.191713 0.118898 0.005371 -0.305450 -0.177961 -0.143039 0.244961 0.226729
nearly 0.579664 -0.100921 -0.248431 0.074441 0.392403 -0.324175 -0.169636 0.002303 -0.506183 0.273557 0.476838 0.017491 -0.363435 -0.097292 -0.527967 -0.597304 -0.320955 0.186182 1.128583 0.264445 -0.080572 -0.235022 0.297672 1.327414 0.001505 0.160519 0.046194 -0.184652 0.280140 -0.126526 -0.225259 -0.149042 0.420323 -0.335873 0.067823 0.427745 0.053767 0.190532 -0.365372 -0.513326 0.041460 -0.345116 0.121752 0.084987 0.370849 0.412246 -0.062804 0.414783 -0.971628 0.396222
twice 0.221738 -0.612692 0.481745 0.257986 0.298247 -0.838677 0.239280 -0.104265 -0.332764 0.979120 0.344231 0.077781 -0.543898 0.103553 0.220289 -0.461130 -0.261672 -0.309784 1.014236 -0.583078 0.084773 0.069657 0.465020 0.375214 -0.151588 -0.520992 0.494502 -0.035014 0.116359 0.137373 -0.333397 -0.754518 -0.086068 -0.641412 -0.039094 0.274465 0.244130 0.406222 -0.178079 -0.177188 -0.170096 -0.146223 -0.090093 -0.206906 -0.199967 0.044308 0.238058 -0.369783 -0.754014 -0.280626
usual 0.155393 -0.132842 0.492259 0.768042 -0.284265 -0.252473 0.134593 0.341612 -0.584054 -0.131351 0.758702 0.072126 0.346198 0.211167 -0.585969 -1.150325 0.587297 -0.196294 0.389069 -0.495606 0.687762 0.727770 0.328119 0.750961 0.411670 -0.015835 -0.229524 0.720947 0.316311 -0.032986 -0.394961 -0.087533 0.044461 -0.667788 -0.039927 -0.275578 -0.352863 0.487700 -0.324398 -0.478029 -0.273146 -0.151759 0.052070 -0.635597 -0.112682 -0.006144 -0.621544 0.033410 -0.683509 0.389622
amount -0.314077 0.026007 -0.217810 0.786138 0.138148 -0.040188 0.060717 -0.344496 -0.283954 0.359696 0.182567 -0.299938 0.114702 0.492787 0.335176 -0.344740 -0.024881 -0.389723 0.753036 0.317582 0.400166 0.295751 -0.046786 0.407287 -0.286199 0.336594 0.581972 0.422562 0.203096 0.235374 -0.085190 0.088492 -0.126704 -0.473526 0.310042 -0.198261 -0.164774 -0.199629 -0.218339 -0.815078 0.051870 -0.102931 0.430430 -0.058240 0.109462 -0.534558 0.077372 0.200958 -0.628638 -0.106833
came -0.327862 -0.372388 0.001938 0.617424 0.422838 -0.595427 0.347147 0.078285 -1.004786 0.302325 0.362654 0.466130 -0.268059 0.089482 -0.846787 -0.047686 -0.072673 -0.229323 0.728433 0.334318 -0.058877 -0.345805 -0.109326 0.781570 -0.656666 0.292972 0.533147 0.617488 0.649325 -1.190676 -0.999336 0.186890 -0.443362 -0.400257 1.228233 0.214979 0.152323 0.822338 -0.718557 -0.391588 -0.389354 -0.224108 -0.256188 0.375024 0.147288 -0.031763 0.870398 0.358497 -0.191178 0.315831
useful -0.074927 -0.009510 -0.114321 0.325918 -0.120702 0.281888 0.076550 0.687678 -0.215355 0.347247 -0.001870 -0.188346 -0.163100 0.400403 0.510843 -0.473207 0.040647 -0.955702 1.079173 0.248211 0.227185 -0.479470 -0.171254 0.522733 -0.478786 -0.337784 0.197189 0.425362 0.343234 -0.495782 -0.844763 -0.430082 -0.142995 -0.667245 0.307793 0.060502 -0.233740 0.471542 0.203225 -0.264954 0.250789 -0.594814 -0.267421 -0.314647 0.395376 -0.686001 -0.376587 0.039746 -0.825074 -0.073169
as -0.055012 0.006703 1.677291 0.363287 0.788231 -0.203164 0.459153 -0.533016 -0.163543 0.392169 0.154809 -0.080321 0.492416 1.106282 0.804249 -0.612923 0.022658 -0.441198 1.316996 -0.386993 -0.317420 0.323567 0.815795 0.463710 1.116941 -0.526110 0.767130 0.242761 0.497335 0.016912 -0.942525 -0.645983 0.505786 -0.750485 0.108368 -0.471903 -0.168555 -0.121946 -1.008607 -0.737387 0.464242 -0.874712 -0.039497 0.054473 0.406418 -0.966516 -0.574235 -0.016541 -1.239826 0.310632
she -0.295091 -0.115191 -0.330588 0.532868 0.444412 -0.329760 0.380843 -0.355486 -0.175590 1.835187 0.548794 -0.216942 -0.180192 0.148407 -0.018147 -0.665353 -0.110533 -0.226126 0.548041 -0.334413 0.680877 -0.449038 0.190534 0.178416 0.699557 0.018962 0.602908 0.614881 0.484243 0.539762 -1.441486 -0.503366 0.560346 -0.221972 0.048581 0.031702 0.526916 0.201245 0.256330 -0.945765 -0.643222 0.794335 -0.493429 0.084007 0.042927 0.446316 0.843102 0.627782 -0.632430 0.781461
spent -0.184699 0.220323 -0.443315 0.984101 0.417000 -0.055725 0.159574 0.056126 -0.718203 0.469494 0.625162 0.446606 -0.007989 -0.090870 -0.082650 -0.531124 0.141232 0.242054 0.303664 0.461202 -0.335562 -0.790261 0.265967 0.229196 -0.210410 -0.065365 0.767851 -0.129729 -0.025134 -0.767338 -0.410208 -0.596070 0.310529 -0.511397 0.177752 0.159901 -0.643837 -0.246440 -0.658502 -0.475888 -0.477751 -0.158908 -0.175575 -0.257994 -0.036657 -0.461065 -0.541407 -0.441933 -0.614558 0.042141
so 0.699492 -0.262504 0.778645 0.549038 0.021108 0.285637 0.058941 0.735627 -0.663839 0.659860 0.820709 0.582452 0.037194 0.282978 0.440461 0.285247 0.546490 -0.360596 1.921185 0.011930 0.114993 -0.807755 0.593896 0.151078 1.252402 0.090247 0.983580 0.227483 0.249041 -0.463128 -0.020962 0.067764 0.213381 -1.088090 -0.516509 0.032135 -0.400644 -0.108021 -0.888686 -0.901537 -0.401483 -0.015100 -0.149060 -0.097097 0.382189 0.699850 -0.599398 0.213664 -0.569895 0.288911
her 0.658108 -0.158377 -0.437698 0.265542 0.220940 -1.739985 0.832458 -0.042264 -1.314842 -0.340354 0.819827 0.440913 -0.255536 -0.574269 0.039469 -0.102233 0.824110 -0.363310 0.265655 -0.414853 1.200737 0.014462 -0.032902 0.044577 -0.134060 0.332286 0.801624 0.558723 0.792924 -0.962498 -0.385844 -0.197460 0.390136 -0.289967 0.637354 -0.357908 0.575557 1.111439 -0.190235 0.073081 -0.391233 -0.711145 0.174734 0.120769 0.782397 0.340672 0.471205 0.557572 -0.959226 1.005578
time -0.468737 0.395798 -0.409777 0.536287 -0.770337 -0.824650 1.196765 0.284015 -0.769421 0.349124 0.168492 0.046639 0.392292 0.852238 0.101775 -0.525917 0.079681 -0.508999 1.598705 -0.343383 0.363827 -1.100176 0.545003 0.403274 0.048699 0.732521 1.101027 0.135680 0.478911 0.278007 0.253222 -0.481052 -0.037996 -0.433354 0.643529 0.336172 -0.505355 -0.233089 -0.503697 0.024142 -0.992837 -0.842667 0.438808 -0.303123 -0.163832 -0.171795 -0.000722 0.368581 0.254188 -0.041164
craning -0.504333 0.355886 -0.465902 0.138753 0.353247 0.241573 0.211204 0.527244 -0.644968 -0.088235 0.517400 -0.452720 -0.374429 -0.346838 -0.030812 -0.030120 0.180207 -0.171022 0.543678 0.175018 0.346754 -0.162683 0.456913 0.687522 -0.724530 0.400886 0.194462 0.559821 0.357181 0.018536 -0.352494 -0.300784 0.855922 0.206869 0.658790 0.493901 0.074011 -0.185500 -0.380442 0.014370 -0.659005 0.388831 0.362374 -0.146952 -0.336340 -0.567487 -0.508012 0.392008 -0.863258 -0.122592
over 0.250061 0.297726 0.708675 0.513018 0.797411 0.220330 -0.442413 0.693032 -0.370336 0.407114 -0.286977 -0.519233 -0.101080 0.235639 -0.246282 0.148071 -0.310427 0.222321 1.776222 -0.166630 0.386108 0.195511 0.585546 0.852530 -0.150796 0.373847 0.077267 0.288765 -0.080808 -0.329947 -0.823376 -0.196400 0.601558 -1.855940 -0.602755 0.062444 0.018555 0.788917 -0.515236 0.401916 -0.231404 -0.221374 0.297574 -0.223479 0.984559 0.265181 0.703733 -0.636685 -0.378164 0.309826
garden 0.248466 0.405429 0.026386 0.189599 0.436301 -0.260427 0.474265 0.031412 -0.477424 0.465513 0.249668 -0.220873 -0.581551 -0.279165 0.029631 -0.546826 -0.637979 -0.616443 0.464778 0.488517 0.252880 -0.560073 0.134972 0.576766 -0.063497 0.148579 0.640447 1.284534 -0.168441 -0.336316 0.167938 0.690195 0.266912 -1.035921 0.209584 0.061108 -0.481365 0.364634 -0.134359 -1.016778 -0.754393 0.163057 0.114729 -0.415057 0.062353 0.156700 0.633429 -0.580111 -0.445603 0.006266
fences 0.736964 0.052027 -0.113188 0.151985 -0.623912 0.099637 -0.226053 0.185106 0.113499 0.194159 0.105578 0.183983 0.164028 -0.102299 0.042186 -0.176500 -0.462679 0.058364 0.409246 -0.550206 -0.175651 0.117574 0.594141 0.676073 0.060205 0.194862 0.348787 0.336110 0.111184 -0.241439 -0.206942 -0.572886 0.092625 -0.320193 0.331398 0.293233 -0.235740 0.545272 0.363580 -0.431487 -0.049765 -0.096108 -0.265117 0.158200 0.199666 0.268174 0.512233 -0.015430 -0.510250 0.321568
spying 0.626509 -0.428268 0.236712 0.481601 0.312806 -0.235837 0.250590 0.238896 -0.328552 0.669356 -0.152366 0.247128 0.101235 -0.434896 0.168767 -0.166756 0.466586 -0.639141 0.372771 -0.103251 0.057166 -0.341370 0.779424 0.594178 0.181535 0.160342 0.446447 0.167332 0.087778 -0.517844 -0.105082 -0.251565 0.460826 -0.675049 0.145582 -0.014948 -0.437806 0.569664 -0.140353 -0.911627 0.001213 -0.398618 0.149771 -0.733130 0.204287 0.315731 -0.063800 -0.123722 -0.135176 0.106891
on 0.302838 -0.236172 -0.047192 0.177541 -0.205342 -0.289353 -0.880998 0.346554 -0.676918 0.036039 -0.332406 -0.174748 0.231373 0.485996 -0.023774 -0.167262 0.448074 -0.134801 1.677955 0.023127 0.386493 0.115275 0.065312 0.141245 -0.254262 0.171648 -0.046077 0.775752 0.021793 -0.216445 -0.511474 -0.658663 -0.221562 -0.423683 0.453492 0.339612 0.291476 1.254846 0.027496 -0.176078 -0.696734 -0.262191 0.103706 0.216961 0.933006 0.384752 0.149333 -0.863909 -1.160306 0.163078
neighbors 0.109443 -0.285939 -0.628083 -0.030724 -0.332153 -0.398836 -0.493685 -0.089770 -0.610352 0.102610 0.267947 0.164533 -0.172639 -0.376649 0.098824 -0.683168 0.024878 -0.078639 0.383262 -0.358585 0.590489 0.326171 0.214820 0.054577 -0.476587 0.106771 0.686857 0.495239 0.236572 -0.870377 0.145405 -0.027910 0.729812 -0.124292 -0.105164 0.086039 0.351275 -0.316011 -0.189057 -0.745482 -0.069449 -0.002812 0.174693 -0.079155 0.595896 -0.748775 -0.179074 0.055541 -0.642465 0.146518
The 0.224762 0.774240 -0.522197 0.241089 0.090534 0.059117 -0.476981 0.351516 -0.590697 0.367803 0.774424 -0.239649 -0.606562 1.114505 -0.853241 -0.346597 1.139802 -0.518594 0.485072 -0.282180 0.584546 0.507742 0.043918 0.193774 -0.014743 -1.295764 0.099226 0.955492 -0.732086 0.035003 0.145312 -0.594820 1.560108 -0.973726 -0.158611 0.441496 -0.163852 1.054918 -1.048505 0.529958 -0.281877 0.488293 0.749366 -0.118727 1.014017 -0.718168 -0.733488 1.109156 0.000570 0.013094
Dursleys 1.040816 -1.137237 -0.378540 -0.099651 -0.111744 0.209468 -0.160621 0.294142 -0.827827 1.022241 0.300988 -0.390797 0.633731 0.069455 -0.676267 -0.950844 -0.439860 -1.546264 0.621777 -0.512723 0.251789 -0.509428 0.756363 0.714441 0.153035 0.757027 0.747695 -0.072369 0.452150 -0.616425 -0.077267 0.111992 0.510124 0.408256 -0.359472 0.472503 -0.591059 -0.068869 -0.552536 -0.896822 -0.673621 0.451488 -0.107853 -1.177913 -0.078568 -0.608749 0.488801 -0.180663 -0.293259 -0.087483
small -0.568037 0.190150 -0.534193 0.377837 0.101220 -0.306278 -0.308487 0.226830 -0.518156 0.578029 0.221340 -0.001439 -0.455746 0.029193 -0.767780 -0.351481 -0.026713 0.581102 0.951727 0.052675 0.040147 -0.381456 0.628470 0.309025 -0.648705 -0.084688 0.600699 -0.006604 -0.687951 0.001191 -0.184389 -0.223271 -0.027446 0.082113 0.294179 -0.871418 0.337067 0.985608 -0.327322 -0.203496 -1.017298 0.861760 -0.598071 -0.053658 0.118780 -0.225579 0.086991 0.003656 -0.889833 0.796898
son 0.097647 -0.214426 -0.415445 0.282210 -0.215964 -0.309521 0.013472 1.047293 -0.506172 0.956496 0.089286 0.132422 0.242694 0.354670 0.045515 0.079464 0.434904 0.160746 0.971857 0.233390 0.354813 -0.471658 0.243634 1.362751 -0.080632 -0.744864 0.549498 -0.462521 0.314220 -0.043972 -0.267585 -0.486099 0.574297 -0.498632 0.649025 0.347184 -0.434753 0.593857 -0.286840 -0.419491 0.173119 0.093989 0.087088 0.117689 -0.233248 0.601127 0.017002 -0.100298 -0.817578 -0.468025
Dudley -0.076740 -0.404746 0.066319 0.264638 0.378246 0.070276 0.953187 0.477747 -1.126641 0.198876 -0.028748 -0.546491 0.889967 -0.094493 0.159679 -1.545705 -0.232584 -0.168531 1.106317 -0.699420 -0.147055 -0.196325 0.810640 1.329041 0.308764 -0.000770 0.837359 -0.140910 0.521024 0.127160 0.371446 -0.996156 0.674392 -0.332528 0.261387 -0.227359 -0.093017 -0.674565 0.331410 0.009572 -0.728213 -0.295455 -0.563946 -0.393039 -0.082543 0.048670 0.830144 0.489491 -0.055455 0.949092
their -0.641389 -0.604005 -0.034102 0.313433 0.958572 -0.436620 0.532127 0.228457 -0.297860 0.798134 0.095078 -0.408740 -0.804373 -1.149054 -0.391062 0.119839 0.854142 0.357382 1.173028 0.082938 0.469672 0.491776 0.850104 0.135225 -0.258918 -0.350325 0.640588 1.050713 0.210191 -0.242715 0.323970 -0.370388 1.167540 -0.831728 -0.700401 -0.374041 0.665931 0.195689 -0.832864 -0.107976 -0.149931 -0.559026 -0.190042 -0.129275 -0.204904 -0.372013 0.794462 0.329435 -0.719427 -0.576466
opinion 0.153077 -0.113571 -0.438792 -0.405826 -0.121575 -0.155686 -0.004127 0.434194 -0.743984 0.059282 0.345956 0.573769 0.242557 -0.385248 -0.694129 -0.833152 0.468173 -0.597267 1.102563 -0.390162 0.378124 -0.057074 0.534920 0.991384 -0.111666 0.336882 0.245550 0.441428 0.099214 0.464332 -0.268256 -0.372666 -0.084569 -0.474583 0.048711 -0.642440 -0.042819 -0.057745 -0.554578 -0.817255 -0.242193 -0.202208 -0.027764 -0.051328 -0.059215 -0.481116 0.264538 0.438815 -0.095478 -0.078153
there 0.451988 0.251179 0.225585 -0.244639 -0.421713 -0.515535 0.414445 0.683016 -0.209416 1.089374 0.329276 -0.105684 -0.294775 0.447219 -0.231270 -0.019314 0.154494 0.165181 1.619842 -0.075576 -0.784594 -0.301878 0.232657 0.228842 0.217824 0.379293 0.897762 -0.598276 0.410515 0.287731 -0.401121 -0.336725 0.610518 -0.285766 -0.179086 -0.084945 -0.308447 -0.394152 -0.568961 -0.634714 -1.082802 -0.684107 -0.800746 -0.071672 0.705113 0.192203 -0.485360 0.375317 -0.942021 0.016270
no -0.648818 0.013212 -1.015095 0.686148 -0.182228 0.169409 1.065100 0.683031 -1.248860 1.005431 -0.641509 -0.307804 -0.297559 -0.563287 0.047894 -0.570379 1.158285 -0.210062 1.119323 0.033774 0.111506 0.356324 -0.290426 1.282405 0.782006 -1.851451 -0.087970 -0.093653 0.257570 0.393825 0.357584 -0.802449 0.348484 -1.183871 -0.281840 0.491894 -0.837817 -0.500315 -0.159619 -0.624789 -0.061677 0.287344 -0.473302 -0.458520 0.612645 -0.357157 -1.453202 0.680930 -0.689384 0.701870
finer -0.349775 0.069442 0.578318 0.643000 -0.028598 -0.012630 0.215858 0.167072 -0.338771 0.410982 -0.153288 -0.565121 -0.144993 -0.245941 0.163184 0.176426 0.320108 -0.013305 0.620504 -0.467223 0.167948 0.146902 0.383068 0.636977 -0.076220 0.072230 0.362996 0.279926 0.336726 0.022935 -0.116056 -0.131987 -0.069111 -0.398966 0.377983 0.549730 -0.027566 0.409068 -0.477586 -0.985195 -0.476922 -0.068534 0.354007 -0.690030 -0.362157 -0.615600 -0.337280 -0.364910 -0.266955 0.003907
boy 0.252403 0.282133 0.209567 -0.164519 0.108778 -0.169680 0.724811 0.394525 -0.881103 -0.304587 0.492547 0.619240 0.119071 0.699833 0.364147 -0.581627 -0.299379 -0.694536 1.203495 0.291762 0.393643 -1.624955 0.428820 0.709496 -0.380322 0.330690 0.514717 1.318868 0.110785 0.823590 0.121066 0.122101 0.547085 -0.012488 -0.221196 0.021509 0.284576 0.294045 0.078364 -0.047182 -0.600981 0.328545 0.062803 -0.003963 -0.268443 -0.519357 0.246818 0.027152 -0.937583 0.427510
anywhere -0.246808 -0.142827 -0.178197 0.631352 -0.325468 -0.645756 0.019578 0.046073 -0.426078 0.179033 0.385006 0.386765 -0.443614 0.005857 -0.375823 -0.353151 0.018925 -0.844973 0.487221 -0.275278 -0.117774 0.154160 0.495846 0.649473 0.181456 -0.125880 0.707743 0.760727 0.099119 -0.587530 0.185395 -0.134787 0.192399 -0.725054 0.203088 -0.273806 0.090458 0.217135 -0.127710 0.148570 0.124819 0.107612 -0.178761 0.123747 0.415705 -0.406892 -0.549768 0.612423 -0.809775 0.064521
everything 0.321873 -0.436088 -0.234511 0.578756 0.177147 -0.042817 0.951307 0.572086 0.170906 0.998949 0.353093 -0.721485 0.151298 -0.314355 0.014677 0.068258 0.406487 -0.870743 0.531592 -0.031690 -0.065788 -0.410535 0.244869 1.211885 -0.522640 0.173810 0.026764 0.226077 0.241522 -0.229839 0.078452 -0.241879 0.487822 -0.925935 0.266305 0.036301 0.167539 0.215028 -0.868205 -0.560505 -0.351427 0.331963 -0.087914 0.143515 0.590173 -0.142593 -0.385828 0.370159 0.198510 -0.049867
wanted 0.380670 0.053586 -0.146113 1.238950 -0.287516 -0.964959 1.152036 0.406232 -0.988548 0.839223 0.425071 0.104569 0.442667 0.094268 0.327680 -0.831332 -0.207788 -0.933572 0.794836 -0.213291 0.039941 -0.244826 0.438376 0.571118 0.543959 -0.236684 0.560270 0.231208 0.333164 -0.610768 -0.870045 0.261794 0.105558 -0.782158 0.959001 -0.107171 0.734381 -0.213047 0.752690 0.290537 0.660537 -0.160244 0.054095 -0.461527 0.222860 -0.378427 -0.779866 0.198064 -0.990347 -0.851054
but 0.443569 0.298327 0.741784 0.019940 0.051353 0.151047 0.405349 0.659060 -0.559920 0.484804 0.422238 0.224054 0.063236 0.443661 0.192348 -0.423848 0.085925 -0.454686 0.978625 -0.084123 0.550849 -1.412214 0.103839 0.892699 -0.235762 -0.549877 -0.120474 -0.425327 0.407153 -0.198766 -0.756635 -0.195136 0.663711 -0.490025 0.126107 -0.415470 0.183969 0.188039 -0.603361 -0.116457 -0.425201 0.706945 -0.786271 0.020265 0.313563 -0.123812 -0.359805 -0.182065 -0.510847 0.472872
also 0.735000 0.394021 0.250604 0.248915 -0.508743 -0.318083 0.792325 0.302087 -0.018172 0.844980 0.982694 0.319998 -0.141278 -0.292276 -0.363294 -0.202803 -0.210330 -0.598372 0.929411 0.225418 -0.169681 -0.664845 -0.239302 0.735639 0.241067 -0.076727 0.002375 0.380171 -0.178352 -0.435352 -0.088689 -0.633846 0.558424 -0.256140 0.769336 0.117752 0.074385 0.595879 -0.133307 -0.506349 -0.002147 0.533301 0.467157 -0.449881 0.245213 0.086307 -0.392881 -0.273602 -0.158824 0.574880
secret -0.160277 0.102450 0.105660 0.357693 -0.759756 -0.846748 0.494731 0.588702 -0.084507 0.350489 -0.238093 0.008445 0.155277 0.061263 0.068664 -0.861410 0.087946 0.060931 0.868481 0.753214 0.764973 0.075923 0.062276 0.763475 -0.420337 0.369784 -0.096952 0.100126 -0.318618 0.035623 0.252833 0.076323 0.261284 -0.849916 -0.099859 0.126929 -0.198865 -0.353218 0.271893 -0.544228 -0.340805 0.027005 -0.251587 -0.269506 0.524024 -0.495043 -0.597529 -0.034973 -0.087540 0.152233
greatest 0.585141 -0.198697 -0.610424 0.105608 0.285655 -0.782849 0.282253 -0.023761 -0.584487 0.394002 -0.040212 -0.687493 -0.192225 0.173796 -0.274915 -0.927238 -0.071898 0.103211 0.496192 0.229980 -0.240954 -0.230114 0.185789 0.633014 -0.292132 0.462838 0.990997 0.689904 -0.502505 -0.127561 -0.183550 0.149542 0.136211 -0.126471 -0.018854 -0.094064 -0.296368 0.476810 -0.497067 0.152950 -0.238307 0.011570 0.691681 -0.294884 0.662121 -0.703823 0.043941 -0.400500 -0.919367 0.480304
fear -0.087083 -0.064398 -0.521089 0.259151 -0.512284 -0.473257 -0.253118 0.642115 -0.364177 0.526279 0.208125 -0.162189 -0.735172 -0.090065 0.168487 -0.813589 0.247188 -0.249026 0.794980 -0.712778 0.343376 -0.259960 0.493949 0.184234 -0.136076 0.565641 0.381727 0.467217 -0.135383 -0.317343 0.493667 0.387452 0.235064 -0.480047 -0.124080 -0.198792 0.365205 0.310031 -0.469328 -0.069592 -0.403046 -0.560917 0.220954 -0.156380 0.099721 -0.377948 0.229031 -0.298816 -0.595708 0.347630
somebody 0.599154 0.617963 0.115372 0.087115 0.422298 -0.062733 -0.462821 0.093194 -0.042408 -0.229797 0.263663 -0.593700 0.469552 0.335820 -0.501913 -0.915815 0.047864 0.342024 0.318302 -0.216539 0.535684 0.078640 0.455958 1.126229 -0.331744 0.062914 0.621943 0.401833 -0.278959 0.211106 -0.274265 -0.542108 0.882528 -0.191898 -0.221404 0.173690 0.319871 0.290439 0.152998 -0.473572 -0.376313 0.303096 -0.494050 0.019879 0.298161 -0.125947 -0.219107 -0.355389 -0.271270 0.071305
would 0.840847 0.327675 -0.303099 0.300507 -0.257013 -0.760427 -0.243024 0.231785 0.440178 0.526938 0.118649 -0.252759 0.829479 -0.030879 -0.210207 -0.836622 -0.533386 -1.047653 1.533171 0.164673 0.002960 -0.729056 0.670694 0.709525 0.062001 -0.192706 0.512144 -0.044622 0.492217 0.748013 -0.690019 -0.672926 0.408255 -0.801901 1.264328 -0.735616 0.469638 -0.068168 -0.295395 -0.676330 0.708571 -0.169559 -0.658057 0.147240 0.332616 0.345705 -0.236014 -0.366513 -0.188031 0.288385
discover -0.057080 -0.482602 -0.382869 -0.071821 -0.410525 -0.229169 0.138531 -0.118704 -0.336303 -0.145004 -0.179870 0.605941 0.175120 -0.368353 0.522407 -0.756375 0.332818 0.096059 -0.027101 -0.365743 -0.127146 -0.257086 0.126960 0.668291 -0.158486 0.417694 0.186831 0.201881 -0.474658 -0.054092 -0.268963 0.017659 0.081009 -0.809602 -0.104430 -0.257779 -0.117058 -0.230770 0.159171 -0.905772 -0.342003 0.403408 0.053405 -0.205916 0.481923 -0.224712 -0.649117 0.548096 -0.321837 0.458620
it 0.682733 0.041849 0.452521 0.677764 0.083301 0.230273 0.580589 0.866467 -0.390767 0.638813 0.091590 -0.154595 -0.304331 -0.685509 -0.429959 -0.162683 -0.194638 -0.465997 0.799290 -0.524006 0.378620 -0.541525 0.617060 0.840222 0.036733 0.105994 0.089877 0.085641 0.577070 0.527125 -0.960925 -0.033815 0.770144 -0.594622 0.046537 -0.088194 0.466629 0.016411 0.020279 -0.148259 -0.502492 -0.155183 -1.180558 -0.019135 -0.037918 0.008409 -0.142748 0.682915 -0.597125 0.261516
think 0.408416 0.299531 -0.267291 1.128464 -0.764640 -0.954183 0.746527 1.386054 -0.526279 0.320280 -0.823312 0.412123 0.242809 -0.140156 0.359226 -0.178942 0.561349 0.537182 1.055986 -0.079479 -0.079936 -1.214210 0.560681 1.077596 0.691045 0.032374 0.069134 0.597233 0.623499 0.422421 -0.003788 -0.407305 -0.252559 -0.913566 0.618993 0.469247 0.583488 -0.114062 -0.106033 -0.895013 0.242524 0.158338 0.079594 -0.276787 0.509851 -0.331442 -1.406438 0.205413 -0.672559 -1.097588
could 1.301273 -0.235450 -1.291757 0.342949 0.256449 -0.663401 0.774505 -0.118536 0.443373 0.495491 -0.183609 0.498145 0.759948 0.118926 -0.075243 -0.482001 -0.524822 -0.872231 1.307397 0.378247 -0.552354 0.066396 1.021854 0.720878 0.075563 0.692124 0.650044 -0.280540 0.504606 -0.604648 -0.414784 -1.131931 0.197619 -0.681426 0.326338 0.191291 0.755174 0.513437 -0.276777 -0.581600 0.046002 -0.358851 -0.454995 0.022011 0.033522 0.165547 -1.283697 0.255395 -1.253243 -0.031153
bear 0.426085 0.555004 0.008382 0.865539 -0.175745 0.270095 0.234211 0.705359 -0.412343 0.269857 -0.286903 -0.370533 -0.209943 0.421756 0.641871 -0.972427 0.286072 0.089088 0.442611 -0.245479 -0.058867 -0.354690 0.105061 1.113773 0.376281 -0.008229 0.890690 0.278470 0.526857 -0.001117 -0.655947 -0.742529 -0.010167 0.026285 -0.354737 -0.170971 0.362225 0.105073 0.196999 -0.342030 0.275516 0.102574 -0.058251 -0.277070 0.404339 -0.104862 -0.369486 -0.130107 -0.514877 0.392774
if 0.233116 -0.714865 0.218297 0.507197 -0.362187 -1.925910 -0.108750 0.584968 -0.823120 0.846604 0.766070 -0.284990 0.374833 0.454075 0.270708 -0.702945 -0.121120 -0.147347 1.394003 0.186463 -0.915618 -0.533552 -0.456038 1.348987 0.815343 0.284985 -0.245417 0.229111 0.189593 0.282177 -0.580888 -0.604384 1.746533 -0.990933 0.057797 -0.415911 0.553593 0.005866 0.675626 -0.688198 -0.416855 -0.679731 0.093662 -0.637486 0.021997 -0.942693 -0.874673 0.431059 -0.607034 -0.655813
anyone 0.936818 0.266009 -0.872595 0.483981 -0.417286 -0.490302 0.603433 0.864926 -0.233283 0.357172 0.773187 0.497312 0.329082 -0.879394 -0.191280 -0.442011 0.039175 -0.326511 0.884112 -0.379225 0.292747 -0.107435 0.736209 0.135854 0.313364 0.375151 1.368851 -0.942464 0.252841 -0.089148 -0.644510 -0.178426 0.847621 -0.793174 0.064233 -0.873788 0.207409 -0.229188 -0.531210 -1.049334 0.089631 -0.075268 -0.356574 -0.128193 0.205225 -0.008574 -0.672391 0.515272 -0.590052 -0.456872
found 0.192397 -0.386535 -0.886398 0.607274 0.371561 -0.909454 1.074933 0.544261 -0.597144 0.762219 0.395323 0.113689 -0.090837 0.870784 -0.507368 -1.011658 0.290062 0.165878 0.277174 0.559562 -1.017456 -0.302600 -0.017318 1.157759 0.307059 0.208202 0.250452 -0.100859 0.231969 -0.650289 -1.426269 -0.722625 0.211145 -1.043913 0.526145 0.009111 0.020591 0.792734 0.091372 -0.441680 -0.576166 0.316267 0.298627 0.078704 -0.220635 -0.343814 -0.449753 0.414635 -0.223748 -0.114656
out -0.150901 0.562698 0.081107 1.001627 -0.803845 -0.111777 1.020933 0.369634 -0.094175 0.618811 -0.455205 0.084837 0.263687 -0.024693 0.091381 0.047590 0.397613 -0.526191 1.484005 -1.222439 -0.319152 -0.423175 0.852543 0.884456 -0.942179 0.500713 0.417445 -0.200739 -0.297312 -0.162965 -0.623906 0.055945 0.640867 -0.287359 -0.381918 0.325875 0.225000 0.142652 -0.682945 0.542791 0.064380 0.390629 0.379704 0.019505 0.945657 -0.441589 0.590292 -0.375590 -1.289116 -0.428614
about 0.225740 0.432531 -0.564392 0.054048 -0.645908 -0.749065 0.736208 0.014621 -0.330519 0.508018 0.674993 -0.478488 0.233213 -0.255701 0.060648 -1.262445 -0.373375 -0.663903 0.638627 0.370005 0.413196 -0.719015 0.089987 0.194319 0.233992 -0.166583 0.334901 -0.273939 0.086317 -0.132962 -0.759814 -0.228794 0.128289 -0.680969 0.615727 0.840729 0.494931 -0.360627 -0.296668 -0.096829 -1.024565 -0.415264 -0.530372 -0.654735 1.000971 -0.269012 -0.030170 -0.149267 -0.877681 -0.629733
Potters 0.235095 -0.954668 -0.348194 0.123010 0.491149 -0.123525 1.108591 0.263511 -0.936650 0.649970 -0.329813 -0.050213 0.052395 1.382941 0.241923 -0.655096 0.251926 -0.169724 1.399338 -0.101119 0.119315 -0.285063 0.667790 0.782703 -0.446941 0.042964 0.538992 0.773004 -0.388350 0.459402 -0.220651 -0.083615 0.061338 -0.388039 0.371906 -0.211282 -0.321336 -0.569703 -0.566478 0.223122 0.243446 -0.061284 -0.194996 -0.346424 -0.089361 -0.083690 -0.094189 -0.539090 -0.718430 0.317205
sister 0.106273 0.542622 -0.948541 -0.057449 0.146172 0.116021 0.534103 -0.231000 -0.468211 0.238897 0.279941 0.422649 -0.358230 -0.188297 0.120427 -1.287044 -0.438565 -0.028909 1.295582 0.683132 0.260432 -0.417487 0.192566 1.023072 -0.174621 0.156427 0.036121 -0.636056 -0.581063 -0.538237 0.078322 -0.112302 0.499061 -0.346037 -0.243896 0.173237 -0.129650 0.185111 -0.604911 -0.966561 -0.492597 0.673327 0.293801 -0.658723 -0.084716 0.408668 -0.032226 0.322983 -0.447524 -0.343108
hadnt 1.003556 -0.102436 -0.086084 1.193899 0.983021 0.257353 1.270174 0.024164 -0.289841 0.765361 0.380929 0.042220 -0.131095 -0.039903 -0.662492 -0.523226 -0.552886 -0.695621 1.639523 1.008060 0.008897 -0.660961 -0.048183 1.058900 0.732039 0.143129 1.075833 -0.163679 0.418661 -0.121597 -0.396016 -0.734574 0.890172 -0.265801 0.197656 -0.586341 -0.238381 0.317502 -0.977901 0.337056 -0.047028 -0.014908 0.290585 -0.249790 -0.230095 0.530360 -0.356989 -0.420071 -0.963691 -0.236440
met 0.293054 -0.447573 -0.683446 0.032704 0.017828 -0.681811 0.286352 -0.048283 0.200882 0.658126 -0.110415 0.462534 -0.831016 -0.010210 -0.276581 -0.803797 0.167645 -0.857027 0.393002 0.227934 -0.102353 -0.083818 0.224595 1.747139 0.397685 -0.173661 0.588321 0.064755 -0.049672 -0.743217 -0.724410 0.213293 0.339204 -0.474392 0.256071 -0.495026 0.252480 0.190793 0.024834 -0.314792 -0.288617 -0.411092 -0.115008 -0.629862 0.173840 0.082262 -0.144273 0.449177 -0.431603 -0.290348
for -0.122336 0.855568 0.314750 -0.802365 0.394163 -0.612416 -0.819761 0.100106 -0.237287 0.820541 -0.369739 0.253152 -0.270566 -0.020815 -0.959788 -0.871842 -0.204594 -0.412286 1.613675 -0.145307 0.385799 -0.781133 0.457864 1.114325 -0.990242 0.222566 0.684185 -0.941962 0.124259 -0.034029 0.178068 -0.205033 0.468567 -0.678969 0.748621 0.468338 0.147849 -0.808638 -0.520686 -0.483402 -0.363879 -0.161643 0.431369 0.405346 0.124857 -0.356073 0.412936 0.338199 -0.481526 -0.847357
several 0.176687 -0.090589 -0.040765 -0.088496 0.435919 -0.229022 0.563654 0.203540 -0.043411 0.770780 0.482037 0.297684 -0.667696 -0.005915 -0.674306 -0.002793 -0.106212 -0.272240 0.665848 -0.364463 0.973405 -0.256594 0.026827 0.280699 -0.313724 0.029754 0.901409 -0.221785 0.202297 -0.199587 0.246132 -0.238481 0.367085 0.334453 0.360190 -0.127345 -0.341528 0.223223 -0.179020 -1.004263 -0.510332 -0.735498 0.186104 -0.483707 0.050229 -0.508664 -0.351740 0.133027 -0.945387 -0.397361
years 0.682222 -0.374507 -0.488315 0.306396 -0.382770 -0.840463 -0.183752 -0.298855 0.270640 -0.024362 0.542968 1.122745 -0.682874 -0.067029 -0.870875 0.203557 0.224760 -0.530575 1.230969 0.971672 0.672361 -1.273150 -0.349082 0.495933 -0.329153 -0.063680 0.802250 -0.233431 -0.400835 0.590943 -0.508549 -0.063772 0.052110 -1.191435 0.612307 -0.138194 -0.238171 -0.613036 -0.822007 -0.587434 -0.924583 -0.632717 0.278249 -0.769196 -0.089471 -0.697271 -0.257027 0.654452 0.302768 0.276592
fact -0.440597 0.213588 -0.903752 0.643892 0.486865 0.225996 0.516393 0.454949 -0.103898 0.792699 0.407656 0.099825 0.027919 0.346046 -0.499787 -0.857737 0.004566 -0.215559 1.189005 -0.378780 0.228973 -0.374195 -0.307021 0.619235 -0.145931 0.423928 0.096451 0.823675 0.623600 -0.612239 0.239775 0.367233 0.443667 -0.790016 0.228778 -0.274895 0.206471 0.400136 0.234969 0.103492 -0.342267 -0.296289 -0.463311 -0.507570 0.660371 -0.111271 -0.838309 0.586950 -0.236665 -0.128518
pretended 0.333525 -0.010239 -0.428189 0.509622 0.350492 0.220750 0.360456 0.678278 0.255092 -0.136752 -0.163094 0.237849 -0.515026 -0.555509 -0.215814 -0.187735 -0.490281 -0.083208 0.534396 -0.153961 0.108143 -0.021858 0.720782 0.743425 -0.058630 0.190136 0.833543 0.197378 0.391476 -0.594197 -0.162105 0.165421 0.300153 -0.600831 0.401233 0.058670 -0.155862 0.323223 -0.736020 -0.145483 0.351724 -0.231135 -0.401683 -0.104295 0.108728 -0.003080 -0.484768 0.416399 -1.044939 0.225188
goodfornothing -0.258049 0.412691 -0.196383 0.385696 0.137684 -0.198000 -0.070784 0.274539 -0.739155 0.635847 0.190514 -0.120897 -0.071607 0.401355 -0.506123 -0.148995 -0.400587 -0.339336 0.487421 -0.372526 0.057629 -0.292992 0.495822 0.022410 -0.236979 0.203370 0.049370 -0.049917 -0.149981 -0.471395 -0.131472 -0.514024 -0.274052 -0.843370 0.377009 0.387139 -0.364891 0.031864 0.352474 0.018900 0.411986 -0.404144 -0.272188 0.247529 0.613494 -0.499470 -0.331551 0.437692 -0.145474 0.499861
husband 0.211715 0.457428 -0.575168 0.640892 -0.023449 0.123784 0.284744 0.648445 -0.450073 0.052040 0.664722 0.220461 -0.352475 -0.506278 -0.185367 -0.344048 0.125330 -0.321137 0.032945 0.154362 0.428099 -0.015099 -0.100830 0.033647 -0.397276 0.203168 0.188195 0.658004 -0.472157 -0.723551 0.515568 -0.378111 -0.027684 -0.346608 -0.548243 -0.144542 -0.209499 0.557215 0.391203 -0.277807 0.325261 -0.047899 -0.490293 -0.095420 -0.077453 -0.276805 0.332089 -0.265636 -0.140450 0.436709
unDursleyish 0.198799 0.381986 -0.011107 0.199046 -0.068237 -0.572713 -0.221842 0.096621 0.065932 0.489334 -0.128268 0.265127 -0.529073 -0.220812 -0.311302 -0.169339 -0.499473 0.247059 0.500610 0.629160 -0.214282 -0.424716 0.145429 0.456140 -0.333373 -0.332958 0.000018 -0.119590 -0.164654 0.029926 -0.365137 -0.094440 0.605406 -0.370457 0.216407 0.300425 -0.492073 -0.434132 0.065888 -0.282177 -0.525843 -0.536856 0.559585 -0.666900 0.697771 -0.034971 -0.339489 0.560736 -0.166161 0.236805
possible 0.197808 -0.304923 0.188810 0.145125 0.165127 -0.415751 0.613845 0.538098 -0.818134 0.582005 0.065632 -0.037192 0.012270 0.486077 0.599645 -0.816062 0.492465 -0.242640 1.228493 -0.145980 0.368963 -0.012446 0.105445 0.831525 0.708927 -0.009580 0.118075 0.915312 0.741209 0.145608 0.011329 0.031333 0.281852 -0.481829 0.305344 0.335403 -0.299181 0.533496 -0.538034 -0.620100 -0.908175 0.017563 0.099382 -0.084264 0.207833 -0.412062 -0.586414 0.308807 -0.725168 0.122128
shuddered -0.251248 0.492721 -0.111586 0.154835 0.204684 0.196918 -0.020988 -0.036436 -0.474164 0.732127 0.043404 -0.487902 0.382690 -0.458877 0.305830 -0.178014 0.441919 -0.476365 0.368177 0.003494 0.311801 -0.837015 0.315323 0.751119 -0.313456 -0.111725 1.024111 0.094822 -0.428453 -0.283984 -0.167062 -0.235997 0.350363 -0.309835 0.036355 0.265925 0.393094 0.319155 -0.160273 -0.625581 -0.248279 -0.270012 0.132132 0.094107 0.223297 0.063486 -0.179728 0.465203 -0.526513 -0.106189
what 0.543798 -0.470466 -0.095408 0.932720 -0.489491 -0.260509 0.282928 1.399687 -0.224263 1.168237 0.464932 0.121061 0.254866 -0.104814 -0.180684 -0.522883 0.588282 0.249885 0.704234 0.298820 0.278100 -1.292198 0.132204 0.782546 0.953367 0.368145 0.459259 0.556199 -0.178360 0.326461 -0.460814 -0.805135 0.337991 -0.821746 0.201042 0.028774 0.575082 0.207495 -0.760244 0.015765 -0.157899 -0.555226 0.365621 -0.640830 0.462766 0.501385 -0.509878 0.606807 -0.258585 -0.586818
arrived 0.098737 0.376721 -0.687431 0.376125 0.311620 -0.414866 0.089716 0.574643 -0.577955 0.530537 0.191572 0.761009 -0.075326 0.216583 -0.475229 -1.261898 0.272987 -0.194846 1.599837 -0.258496 0.012973 -0.067112 0.253253 1.412595 -0.149122 -0.261313 0.518613 0.109475 0.146590 -0.247421 0.063832 -0.111851 0.019296 0.087651 0.344243 0.183056 -0.767779 0.686080 -0.117228 0.591279 -0.163749 0.219689 0.483531 -1.019370 -0.460815 -0.430590 -0.145286 0.122830 -0.144985 -0.015194
street 0.764915 0.351721 -0.394532 0.781995 -0.095715 0.602220 0.133784 0.741888 -0.732791 0.272832 0.364147 -0.393139 0.290078 0.091859 0.180831 -0.363449 0.173565 -0.190300 1.401101 -0.149535 -0.370182 -0.283835 -0.198634 0.279155 -0.942068 -0.059496 0.306386 0.475573 0.475833 0.033170 -0.416648 0.579425 0.809133 -1.091097 -0.049821 1.169937 -0.141603 0.419141 -0.598651 -0.511688 -1.130484 -0.024902 0.828369 0.040944 0.256744 -0.990186 -0.346454 -0.514965 -0.249676 0.327472
knew 1.450772 -0.241141 -0.402466 0.236054 0.070002 -0.044477 1.145813 0.376341 -0.332132 0.716753 0.473658 0.855526 0.050490 -0.128793 -0.128082 -1.055236 -0.306124 -0.319518 1.150233 0.245706 0.442474 0.210659 -0.442577 1.089584 0.373318 0.319928 0.517944 -0.556226 0.295310 0.010524 -0.052250 -0.485618 0.634446 -1.423996 0.631792 -0.457459 -0.119559 -0.664026 -0.354399 -0.518082 0.248000 -0.496773 -0.180581 -0.115982 0.149215 0.204873 -0.922105 -0.205021 -0.394502 -0.243479
too 1.148789 0.540021 -0.400684 -0.347413 0.195017 -1.072712 0.073643 0.297560 -1.804097 0.999857 0.598789 0.754485 0.016049 -0.243108 -0.189318 -0.903723 0.080900 -0.243211 0.978224 -0.515383 0.077608 -0.317657 0.467805 0.741440 0.789120 -0.249916 0.254139 0.416355 0.196372 0.023553 -0.024138 0.100801 0.267291 -0.642057 0.212914 0.191530 -0.053911 -0.066004 -0.894020 -1.164879 0.275245 -0.296672 -1.011414 0.164149 0.034178 0.366718 -0.566619 -0.129385 0.038235 0.126183
never 0.289594 -0.851225 -1.468996 1.637740 0.085388 -0.929168 0.742645 0.920228 -0.799534 0.711134 -0.110054 0.339534 0.356917 0.693684 -0.341019 -0.138316 -0.406725 -1.350014 1.008481 0.045592 -0.068779 -1.554039 -0.606954 1.093347 0.889950 -0.522390 0.848578 -0.052681 0.909257 -0.728803 0.444905 -0.289443 1.052114 -0.294292 0.782169 0.208364 -0.383818 0.312992 -0.521272 0.251517 0.112138 -0.757665 0.000016 -0.326148 0.358329 0.872325 -0.669483 0.186044 -0.034095 0.709323
even 0.172459 -0.328580 -0.519596 0.111836 -0.264074 -0.619615 0.737825 -0.122528 -0.445456 0.664462 0.915957 0.065153 0.060800 -0.683251 -0.347651 -0.053659 0.476737 0.175024 1.230646 0.255505 0.095392 -0.384831 0.115743 0.835743 0.162248 -0.476806 0.686913 0.119370 0.309012 0.016700 -0.273422 0.088560 0.950964 -0.505005 0.683922 -0.317870 0.371166 -0.386560 -0.197504 -0.738352 0.258755 0.077699 -0.208374 -0.001207 0.295377 -0.311737 -0.209264 -0.256505 -1.131532 -0.228733
seen 0.510069 -0.358287 -0.689723 0.330084 -0.596956 -1.133591 0.690661 0.600514 0.348222 0.416466 0.625854 0.055157 -0.840657 -0.250291 0.090551 -0.601732 -0.059784 -1.121857 0.989266 -0.412320 -0.469154 -0.996793 0.262006 1.064708 0.960095 -0.469174 0.759686 -0.399356 0.414731 -0.156438 -0.126776 -0.426504 1.081986 -0.812858 -0.078982 0.179311 0.147131 0.677382 -0.007319 -0.367526 -0.578905 0.400277 0.138293 -0.421593 -0.326405 0.911716 0.251618 -0.324157 -0.627941 -0.036944
him 0.262538 -0.910852 0.408789 0.394809 0.436171 -0.428974 0.162602 -0.142161 -0.694065 0.516384 0.226149 0.083094 -0.114499 -0.701285 0.368570 0.652012 -0.035259 -0.354918 1.061965 -0.255676 -0.036927 -0.669872 0.726555 0.730226 0.270635 -0.054214 0.647173 0.325925 0.408683 -0.740936 -0.816347 -0.269639 0.397330 -0.097147 0.059799 -0.903972 0.114451 0.394885 -0.351108 -0.072858 -0.359798 0.082908 -0.103482 -0.460632 0.575321 0.041723 0.085236 0.375830 -0.747583 0.378032
This 0.170989 0.855153 0.137990 0.297907 0.028573 0.504270 0.790070 -0.114566 -0.827493 0.845064 0.359962 -0.368543 -0.268047 0.527717 -0.220662 -0.185300 0.076255 -0.807772 0.525450 0.330095 0.247981 -0.439299 0.412960 1.060343 0.201967 -0.119782 -0.430183 -0.028647 0.428848 0.101529 -0.103118 -0.946256 1.429368 -0.194095 0.234070 0.696964 0.742337 -0.645949 -0.299548 -0.044899 -1.025827 -0.364594 -0.285755 -0.762061 0.262764 -0.248836 -0.183008 -0.016963 -0.257466 -0.118224
another 0.477365 -0.396613 -0.231862 0.192777 -0.429173 -0.408723 0.077308 -0.470062 -0.156550 0.849295 -0.209033 -0.062439 -0.552937 -0.145733 -0.462938 -0.157017 0.631450 0.510055 0.914725 -0.415630 0.491367 0.387866 0.675029 0.926243 -0.284735 -0.101361 0.106082 0.445079 0.159167 -0.070031 -0.300532 -0.222938 1.179240 -0.298467 0.323094 -0.392325 0.352228 -0.479220 -0.466618 -0.239345 0.420342 -0.034527 0.566359 -0.073274 0.264581 -0.148277 -0.396614 0.464918 -0.916492 -0.349014
good -0.352396 0.974026 0.281280 0.355533 -0.795206 -0.218610 0.577986 0.428456 -0.784809 1.374370 0.628732 -0.028371 -0.056672 -0.537261 -0.474980 -0.319017 -0.476206 0.006390 1.165581 0.439667 -0.155744 -0.890745 0.723924 0.594343 0.616335 -0.020251 0.719394 -0.019235 0.097718 -0.575876 -0.113623 -0.258651 0.081192 -0.311707 0.124159 0.117771 -0.362755 -0.166006 0.077577 -0.555216 0.246152 0.232619 0.139033 -0.940746 -0.629268 -0.729466 -0.940479 0.739099 -0.591197 -0.422161
reason 0.377046 -0.240122 0.193566 -0.028708 -0.501254 -0.503039 0.240720 -0.125693 -1.237413 1.360762 0.159248 0.565086 0.237527 -0.486376 0.225213 -0.456184 0.216899 -0.244290 1.251294 -0.185929 0.419753 -0.244358 0.382111 0.945213 -0.461754 -0.215414 0.753799 -0.553937 -0.093034 -0.134239 -0.076800 -0.140588 0.432500 -0.077729 0.135867 0.157509 -0.141141 -0.652170 -0.307347 -0.494008 -0.231167 -0.119386 0.113644 -0.379723 0.702133 -0.350173 -0.722221 -0.034379 -0.788592 0.148076
keeping 0.139254 0.427107 -0.137435 -0.224244 0.070119 -0.555801 -0.142579 0.334665 -0.620674 0.422721 -0.293589 -0.046118 -0.043558 -0.220645 0.076948 -0.376419 -0.393470 0.038146 0.972462 -0.416029 0.313334 0.014042 0.073961 0.817539 0.215500 -0.326132 0.174470 0.363723 -0.544754 0.010257 -0.004323 0.205384 0.632467 -0.204294 -0.089009 0.062944 0.473132 0.314421 -0.186589 -0.785235 -0.507698 -0.079105 0.412912 0.090509 0.765262 -0.088177 0.054495 0.207899 -0.814411 0.322596
away 1.331664 0.038010 -0.927090 -0.145419 0.229772 -0.307865 0.102902 0.268471 -0.428001 0.167557 -0.293108 -0.848706 0.452995 -0.039262 -0.516077 -0.060320 -0.901495 -0.194162 0.913543 0.249808 0.575577 -0.322068 0.659537 1.115691 -0.220199 -0.271300 -0.178244 -0.075540 -0.408423 0.213962 -0.536205 -0.158796 0.526383 -0.106294 -0.302364 -0.147966 0.503499 0.958645 -0.144613 0.231090 -0.201043 -0.111770 0.051605 0.027310 0.434412 -0.110199 -0.410490 -0.015520 -1.060526 0.375365
want 0.717212 0.355901 -0.957281 1.575225 -0.497299 -0.646961 0.104446 1.483420 -0.548051 0.880168 -0.110370 0.155787 -0.792449 -0.683716 0.031978 -0.266393 0.475061 -0.511758 0.744522 0.043216 0.232279 -1.013871 0.591237 0.393847 -0.015718 0.554493 0.778311 0.036922 1.073151 0.068260 -0.739892 -0.788477 0.213752 -1.142319 0.731448 -0.091389 1.206217 -0.379741 0.329850 -0.638627 0.393316 -0.222849 0.408902 -0.102819 0.667286 -0.073592 -0.583613 -0.344986 -0.262636 -0.258371
mixing -0.092320 0.304199 -0.268867 0.857106 -0.261237 -0.295154 -0.005679 -0.111453 -0.133746 0.910985 0.068444 0.286257 -0.430290 0.457631 0.601078 -0.864531 -0.050234 -0.587509 0.040857 -0.212328 0.630120 0.087163 -0.270967 0.639413 -0.341548 -0.123218 0.158575 0.374899 -0.296320 -0.062900 -0.278455 -0.022442 0.041698 -0.818732 0.389577 -0.044735 -0.048742 -0.017421 -0.108427 0.014026 0.084583 0.206926 -0.310496 -0.439270 0.134543 -0.377785 -0.172831 0.432107 -0.052584 0.398637
child 0.292328 0.235647 -0.465397 0.676975 -0.319682 -0.751016 -0.198220 0.536586 -0.079570 0.248266 0.190081 -0.310113 -0.601363 -0.678937 0.114488 -0.006158 -0.050713 0.667126 0.694683 -0.343279 0.297029 -0.506729 0.413211 0.732333 0.129364 -0.137212 0.043073 0.712440 -0.436024 0.152632 -0.191972 0.137598 0.336592 -0.691833 0.332462 0.226145 -0.624259 -0.343705 -0.642604 -0.069445 0.338784 -0.045901 -0.129741 -0.090059 -0.276546 -0.468984 0.017973 0.108052 -0.735976 -0.073569
like 0.480436 0.620402 0.117228 0.478805 -0.140561 -0.899207 0.650474 1.782066 -0.488941 -0.404522 0.962460 0.518375 0.808971 0.157734 -0.382770 -0.603970 -0.913666 0.664727 0.312291 -0.283738 0.156062 0.364934 -0.075891 0.460505 0.001514 -0.062348 0.655720 0.431897 0.474914 -0.864817 -0.414434 -0.609336 0.318902 0.274227 0.303727 -0.150704 0.673691 -0.115684 -0.677984 -0.884879 -0.760941 0.036758 0.577496 -0.606200 0.692041 0.404309 -0.748680 -0.682370 -0.462399 -0.208870
When 0.425102 -0.297764 -0.503631 -0.030069 0.460781 -0.649528 0.401964 0.241703 0.015175 0.701018 0.471056 -0.494899 0.192265 0.314257 0.316745 -1.013155 -0.180971 -0.418587 1.158833 -0.052144 -0.141122 -0.427520 -0.268123 0.659139 -0.429527 0.065828 -0.023685 -0.069786 0.052299 -0.267621 -0.674083 -0.614670 0.515104 -0.711819 -0.003313 0.154495 -0.207699 0.271988 -0.093675 0.233411 -0.408947 -0.910825 -0.477712 -1.012085 0.134074 -0.098766 -0.178817 0.592288 -0.076054 0.082083
woke 0.334662 0.197426 0.152317 0.353004 0.445253 -0.338476 0.427010 0.389332 -0.546412 0.660067 0.349856 0.156988 0.024506 -0.182045 0.382714 -0.193842 0.614850 -0.236922 1.052381 0.476669 0.667816 -0.568300 0.774975 0.439433 -0.311070 -0.027223 0.548887 0.486890 -0.405748 0.185628 0.217855 -0.820029 0.267557 0.000544 0.352804 0.631943 -0.571862 -0.104022 -0.046147 -0.434964 -0.578184 -0.427970 0.098071 0.120537 0.072763 0.237562 0.141410 -0.285694 -0.468669 -0.025937
up 0.177437 0.469855 -0.812122 0.513222 0.641076 -0.410419 -0.228721 -0.104450 -0.747211 0.607981 0.434377 -0.109091 -0.786073 0.058250 0.396208 0.363805 -0.502163 0.667732 0.800225 -0.683942 0.151498 -0.047258 0.877888 0.939400 0.047038 0.459857 0.257071 0.011249 -0.485758 -0.163499 -0.849413 -0.177892 0.515654 -1.127205 0.026977 -0.272074 -0.659598 -0.001547 0.185378 -0.006350 -0.978229 -0.345583 0.230494 0.244673 0.649498 -0.167845 0.431510 -0.067227 -0.761659 -0.223149
dull 0.254589 0.425325 -0.102008 0.123888 0.031090 -0.426073 0.128703 0.699250 -0.791284 0.014552 0.326774 0.301134 -0.196889 0.182987 -0.390515 -0.181727 -0.566875 -0.391377 0.233140 -0.184933 0.480286 0.544126 0.128600 0.631213 -0.223912 -0.509216 0.635976 0.248826 -0.341376 0.075949 0.005188 -0.129885 -0.147228 -0.090169 0.321996 -0.114117 0.071834 -0.016365 -0.255924 -0.977889 -0.379772 0.539766 -0.240181 -0.615967 0.029524 -0.340821 0.018155 -0.143363 -0.110239 0.499902
gray -0.314604 0.161707 -0.256727 0.163402 -0.599837 -0.433458 0.220774 -0.198191 -0.562279 0.176141 0.767639 0.251991 -0.309170 0.611714 -0.500114 -0.383075 -0.022986 -0.009498 0.529668 0.222686 0.322975 0.051958 -0.031045 1.000396 -0.372499 -0.750486 0.608358 0.429473 -0.194520 0.262172 -0.257341 0.269342 0.151918 0.320791 -0.131880 0.199302 0.020172 0.147806 0.008835 -0.306422 -1.113761 0.089010 0.075999 -0.408588 0.268419 -0.310709 -0.554961 -0.316190 -0.766524 -0.363454
Tuesday -0.205597 -0.178056 0.377899 0.692768 0.418515 -0.192669 0.074795 0.599106 -0.882351 0.251713 0.391471 -0.722252 -0.117319 0.547776 -0.178560 -0.634963 -0.459825 0.331150 0.196558 -0.444752 0.390254 -0.002357 -0.033245 0.568925 -0.849618 -0.580511 -0.289211 0.175037 -0.272486 -0.293254 -0.060916 -0.653015 -0.095645 0.344048 0.225947 0.564002 0.395973 0.229849 0.282247 -0.562681 -0.520246 -0.075886 -0.349165 -0.259113 -0.248344 -0.773954 -0.164404 0.440002 -0.518706 0.458995
our -0.483369 0.480952 -1.066721 0.867642 0.115297 -0.979182 -0.195573 0.718823 0.026460 0.373526 -0.169767 0.445491 -0.701624 -1.127742 -0.547274 0.071211 0.841737 -0.381829 0.391321 0.003171 0.646198 -0.622104 0.638290 0.871343 -0.432672 0.362585 -0.393293 0.062597 0.576811 -0.182912 0.118655 -0.095347 0.425305 -0.320922 -0.209383 0.256408 0.541232 0.245375 -0.385862 -0.310649 -0.542999 -0.508238 0.263230 -0.375349 -0.078534 0.316475 0.666758 0.320098 -0.481791 0.259289
story 0.500394 0.444104 -0.014202 0.339401 -0.195574 0.010570 0.647820 0.114834 -0.488491 -0.060348 -0.060293 0.288920 -0.169362 -0.254258 -0.351622 -0.681893 -0.844066 -0.805667 0.658703 0.437166 0.549401 -0.204440 0.246570 0.529984 -0.070871 -0.126889 0.610827 -0.270439 0.182275 0.285668 -0.593622 0.303197 0.376961 -0.567956 0.400807 0.334547 0.161663 0.031209 0.070511 -0.688199 -0.560667 -0.640691 -0.254265 -0.202079 -0.274262 0.017037 -0.336558 0.175998 -0.576729 -0.104705
starts 0.383329 0.054685 -0.348567 0.756599 0.220182 0.339609 0.253824 -0.177497 -0.001592 0.023304 0.332429 -0.052078 -0.118426 0.237284 -0.187906 -0.109244 0.114278 -0.139702 0.122978 -0.472594 0.122745 -0.755504 0.152943 1.123232 -0.626733 -0.368789 0.800428 0.789716 0.001411 -0.210657 -0.345335 0.089906 0.005889 -0.026540 0.418210 0.122650 -0.087429 -0.393794 -0.482380 -0.268526 -0.451676 0.045877 -0.247480 -0.770030 -0.069350 -0.243904 0.689115 0.137368 -0.629081 -0.200958
nothing 0.544768 -0.414584 -0.037004 0.356699 -0.531618 0.032145 0.301411 0.691681 -0.285027 1.373740 -0.019213 0.531527 0.304056 0.042858 -0.384381 -0.807224 -0.137648 -0.007682 0.376467 0.387381 0.570312 -0.072978 0.161565 0.853778 0.640577 0.126056 0.482257 -0.177464 0.283285 -0.101790 -0.384929 0.168046 0.304254 -0.410659 0.122831 -0.141154 -0.110458 -0.400202 -0.711038 -0.227501 -0.863916 -0.393873 -0.470547 -0.592269 0.578507 0.156857 -0.211116 -0.151891 -0.959244 -0.584584
cloudy 0.035536 -0.373920 -0.566865 0.362557 0.380870 -0.530047 0.250507 0.149223 -0.068928 0.963155 0.878492 -0.392297 -0.185481 0.464864 -0.516075 -0.110894 -0.005587 0.549285 0.833657 -0.043549 -0.092903 -0.442420 0.557906 0.407049 -0.135899 0.375461 -0.069986 0.035336 -0.104607 0.252866 0.404005 -0.038927 -0.249658 0.076620 0.191740 0.505931 -0.297461 -0.366439 -0.079080 -0.353298 -0.744060 0.067091 -0.288161 -0.317504 0.316180 0.310595 -0.119862 0.174191 -0.742488 0.049242
sky 0.281021 -0.146481 -0.137367 0.256562 -0.780150 0.202358 -0.389273 0.017262 -0.762751 0.589081 0.629117 0.142409 -0.165064 0.959308 -0.444857 -0.267738 -0.432170 0.092047 1.089688 -0.808062 0.050571 -0.434855 0.366329 0.519805 0.044724 -0.284095 0.381954 1.091952 -0.720966 0.203697 -0.118904 -0.322759 0.186373 -0.167196 0.456288 -0.274105 -0.343276 0.435148 -0.479338 0.107894 -0.557805 0.411644 -0.160886 -0.196342 0.334160 -0.772518 -0.250365 -0.287602 -0.880175 -0.236298
outside -0.102564 0.002560 -0.547985 -0.237108 0.109096 -0.190052 0.126928 -0.032783 -0.303232 1.095666 -0.177581 -0.619122 -0.294304 0.222758 0.015150 -1.087988 0.237074 -0.402039 0.731549 0.474179 0.760727 -0.560008 0.380589 0.233666 -0.670104 -0.489234 0.213484 0.633493 0.417611 -0.213028 0.315086 0.470562 0.229784 -0.488775 -0.213377 0.042256 -0.030321 0.065146 -0.423581 -0.824020 -0.835326 -0.013690 0.568284 0.428319 0.637538 -0.235342 0.085492 -0.555355 -0.697032 -0.099695
suggest 0.145622 0.518301 -0.079972 0.720561 -0.075962 -0.021286 0.269226 0.752791 0.060351 0.476610 -0.617075 -0.162191 -0.196286 -0.371815 -0.684813 -0.208783 -0.255227 -0.292520 0.569869 0.052510 -0.023367 -0.114349 0.294182 0.646778 -0.926017 0.345922 -0.140173 0.552945 0.141974 -0.597372 -0.428831 0.055043 0.025056 -0.378528 0.065244 0.318684 0.079441 -0.383833 -0.493071 -0.264816 -0.087164 -0.098943 0.664664 -0.400199 0.467527 0.575470 0.047776 0.394363 -0.740135 -0.179153
things -0.356203 -0.549577 -0.923020 1.121641 -0.565989 -0.098127 0.246257 0.894667 -0.249068 1.250884 0.048575 1.149657 0.555561 -0.120181 -0.273176 -0.264064 0.604812 -0.072056 0.181943 -0.052559 0.121621 -0.135474 0.416863 0.342987 -0.266008 0.658947 0.357698 -0.244106 0.257917 0.141042 -0.318178 0.181896 -0.203812 -1.262498 -0.069078 0.063558 0.537626 0.314543 -0.236125 -0.649367 -0.574052 -0.280639 0.255428 -0.140240 0.472116 -0.520144 -0.307508 -0.218902 -0.763446 -0.092142
soon 0.728415 -0.240186 -0.151577 0.533099 0.276236 -0.704445 0.652114 0.392898 -0.032620 0.600356 0.141994 0.427312 -0.593102 -0.240762 -0.119137 -0.177790 -0.654670 -0.288677 0.132641 -0.149250 0.385156 0.025288 0.712546 0.688161 0.182178 0.177202 0.380659 0.358143 0.292693 -0.122231 -0.575245 -0.482149 0.564199 0.112203 0.436359 -0.137709 0.021237 0.513969 -0.007310 -0.205403 -0.051669 -0.524961 -0.223356 -0.460991 0.178317 0.084493 -0.230024 0.334292 -0.675302 -0.411480
happening 0.716154 -0.246246 0.503686 0.378087 0.160734 -0.474300 0.131452 -0.034155 -0.876950 -0.056488 -0.131694 0.334878 -0.461391 0.042999 -0.639709 -0.361156 0.120141 -0.248976 0.617048 -0.376883 0.619537 -0.458045 -0.099568 0.342111 -0.338687 -0.652706 0.644691 0.379020 0.302893 0.091089 0.120979 -0.894040 0.309562 -0.258086 0.456203 0.477894 0.283148 0.796851 -0.572772 -0.804122 -0.190546 0.115444 0.148144 -0.188815 0.053528 0.322188 0.557630 -0.041009 0.117198 0.555756
all 0.211336 -0.391436 -0.532656 -0.338848 0.061984 -0.460694 0.815750 0.323233 -0.317401 0.938908 -0.268585 0.179420 -0.386501 0.304267 -0.162454 0.566072 0.089043 0.430670 1.336925 0.210580 -0.050763 -0.657647 0.284223 0.229228 0.221810 0.256956 0.723833 0.549152 0.472168 -0.618991 0.632866 0.041553 0.723511 -1.801444 -0.259468 0.296390 0.433602 0.426745 0.170177 -0.207265 -0.723904 -1.016194 0.227345 -1.199067 0.083281 -0.058761 0.346624 -0.111927 -0.795242 -0.877384
country -0.099006 -0.083001 0.003661 0.555833 -0.251910 -0.483220 0.726658 -0.144855 -0.565352 0.027662 0.603454 0.326499 0.203761 0.608678 -0.106568 -0.452577 0.035428 -0.334305 0.422210 0.019890 -0.051467 -0.161354 0.214044 0.408268 -0.408691 0.044457 0.422443 1.319059 -0.036602 0.361152 -0.743149 -0.363809 0.206869 -0.372067 -0.167117 -0.491756 -0.757796 0.540594 -0.067900 -0.845727 -0.223888 0.123544 0.393738 -0.653566 0.329452 0.277168 -0.514842 -0.001610 -0.475150 -0.165440
hummed -0.176664 0.142106 -0.324800 0.972278 0.154305 -0.291083 0.220719 0.099782 0.012810 0.620206 0.522702 -0.387081 -0.453879 0.151687 -0.291741 -0.172228 -0.245046 -0.130203 0.776913 -0.199968 0.326711 -0.013447 0.185100 1.095124 -0.384143 0.536898 0.252135 0.152124 0.253589 0.255838 -0.578818 -0.023511 -0.037154 -0.243425 -0.152876 -0.129432 0.259901 0.393030 0.034877 -0.727252 -0.616843 0.215212 -0.275002 -0.812661 -0.466957 -0.392133 0.040721 -0.082956 0.246972 0.357225
picked 0.325326 -0.624736 -0.095548 0.748606 0.186701 0.371167 -0.605911 0.542058 -0.663543 0.486860 0.573704 -0.100943 0.385991 -0.064243 0.550392 -0.828325 -0.611399 0.828338 0.801746 0.156293 0.546305 -0.493500 0.553191 1.151477 -0.758961 0.494714 0.627929 0.351202 0.294115 -0.286449 -0.772871 -0.048195 -0.006899 -0.168918 0.315392 0.834608 0.091710 0.506326 0.300532 -0.353975 0.090026 -0.825675 0.286418 0.336138 -0.200140 -0.275091 -0.109019 -0.455474 -0.494740 0.194748
his 0.405747 0.389005 0.625429 1.050931 0.730316 -0.437799 0.721575 0.418754 -1.415719 0.886900 0.190537 0.035298 0.073880 -0.730050 -0.048224 -0.338367 0.797128 0.089493 0.786781 -0.703951 0.970326 0.679670 -0.479757 0.445145 -0.887648 0.794450 0.260101 0.697024 0.275356 -0.075323 0.128317 -0.896674 0.596990 -0.333950 0.224854 -0.850910 0.286519 0.367069 -0.110573 0.560666 -0.004256 -0.616133 -0.233373 0.110263 0.654359 0.340757 1.125483 0.365840 -0.498269 0.545908
most 0.481042 0.077140 -0.011807 0.316542 -0.305922 0.237080 0.351430 0.066243 -0.786910 0.441888 0.360146 -0.131431 -0.407254 0.822930 0.030210 -0.167606 -0.427026 -0.475545 0.967808 -0.835848 -0.176865 0.144384 0.063826 0.559209 -0.042314 0.288379 0.159470 0.445462 -0.015923 -0.226302 0.240239 0.569000 -0.069595 -0.606174 -0.311762 -0.242241 0.184161 0.174777 -0.320388 -0.996547 -0.535830 -0.712894 -0.207684 -0.396347 0.773658 -1.024446 -0.620577 -0.185032 -0.219501 -0.152652
boring -0.066137 0.449548 -0.154645 0.572603 -0.801183 -0.500179 0.235005 -0.394288 -0.294520 0.208483 0.417681 0.146920 -0.253698 -0.396084 -0.005928 -0.014873 0.105383 0.283299 0.812930 0.184319 0.206282 -0.029604 0.260631 0.422836 -0.588356 0.416246 0.818252 0.047793 0.312917 -0.418344 -0.082968 -0.183894 0.574127 -0.690055 -0.021809 0.777799 -0.592223 0.398759 -1.037194 -0.023684 -0.720221 -0.000722 -0.255974 -0.073624 0.784872 -0.160184 0.228179 -0.209803 -0.257477 0.112002
tie 0.335490 -0.023673 -0.364026 0.225458 -0.582675 -0.435396 0.003230 -0.128416 0.135702 0.826685 0.150650 -0.155922 0.352991 0.430634 -0.295285 -0.074827 -0.166645 -0.143986 0.139941 0.259993 0.053224 -0.030584 0.382275 0.213185 -0.521609 -0.238143 0.783833 0.114598 0.265902 -0.462983 0.073341 -0.217633 0.439925 -0.608772 0.405766 0.016287 -0.429327 0.241084 -0.458229 -0.209772 -0.097586 -0.214119 0.164154 -0.610672 0.504163 0.232908 -0.001077 0.157427 -0.237131 -0.149385
work 0.051410 -0.182634 -0.238646 0.706668 -0.358597 -0.037765 0.152312 0.130061 -0.063768 -0.106539 -0.121822 0.095689 -0.859112 -0.470254 -0.178773 -0.057921 0.114292 -0.222644 0.862760 0.314298 0.631776 -0.640384 0.483792 0.541292 -0.280671 1.208732 0.089375 0.293208 0.312767 0.050677 -0.565416 -0.055718 0.294131 -0.880522 0.880871 -0.368999 0.376361 -0.167527 -0.340444 -0.877310 -0.126508 -0.001814 -0.217016 0.266130 0.117446 0.045925 0.001223 -0.312505 -0.067467 0.291607
gossiped -0.258986 0.537205 -0.442495 0.322473 -0.159988 0.189321 -0.645440 -0.194463 -0.111556 0.444983 -0.178495 -0.222484 0.112788 0.388576 0.430456 -0.024921 -0.367628 0.279054 0.138932 -0.296927 -0.154081 0.138461 0.204220 0.343999 0.193563 -0.644525 0.780251 0.395680 -0.178898 -0.211119 -0.614404 -0.307262 -0.257540 0.087864 0.147735 0.380254 0.281718 0.487204 -0.353941 -0.098340 -0.458910 -0.370619 0.332385 -0.382093 0.609329 0.021950 -0.253842 -0.160336 -0.848671 0.193707
happily 0.482658 0.173260 0.215387 0.397806 -0.066782 -0.485024 0.115377 0.768453 -0.350544 -0.241679 0.518502 -0.186051 -0.196223 -0.101508 0.429356 -0.570154 0.032617 0.439171 0.967853 -0.046092 0.722766 -0.656518 0.195353 0.571681 -0.197358 -0.372299 0.221334 0.331095 -0.250732 -0.350504 0.085671 0.470751 0.401648 -0.271213 0.156030 -0.020059 -0.270847 -0.049165 -0.779907 -0.794107 0.059566 -0.240164 0.249645 -0.681056 -0.063292 0.526304 0.321268 0.044374 -0.254422 0.445734
wrestled 0.047600 -0.475102 0.024751 0.090940 0.318619 -0.025265 0.622262 0.258485 0.011207 0.290074 -0.300585 -0.151818 -0.400416 -0.384590 -0.526819 -0.287097 -0.095863 -0.077692 0.498302 -0.267375 0.206385 -0.019246 0.782548 0.625507 -0.534711 0.242113 0.257604 0.814638 0.078881 -0.299664 -0.319189 0.368084 -0.076681 0.293745 -0.086792 0.514268 -0.316094 -0.037060 0.240105 -0.327563 0.019808 0.154862 -0.312429 0.223645 0.531558 0.246084 -0.322099 0.418463 -0.126914 0.315576
screaming 0.268469 0.480478 -0.144493 0.362942 -0.347538 -0.481605 0.318945 0.271457 -0.584280 0.206600 0.293508 -0.424811 0.517884 -0.309020 0.072025 -0.577685 0.326048 -0.547010 0.705645 -0.384763 0.710059 -0.407448 0.274041 0.780094 -0.203393 0.079403 0.307104 0.345178 -0.166014 -0.438760 -0.178849 0.310975 0.258767 -0.861018 0.753092 0.290556 -0.092372 0.154551 -0.112042 -0.372788 -0.159644 -0.531669 -0.449638 -0.151517 0.190676 0.185186 0.162626 -0.436099 0.139540 -0.424875
into -0.518236 0.395330 -0.587016 0.502635 0.936438 -0.484193 -0.046904 0.930897 0.332381 0.724246 0.525400 -0.228759 0.076404 0.838039 -0.358587 -0.370573 -0.295239 -0.274666 1.218191 -0.277258 -0.483715 -0.130300 0.461742 0.419270 -0.951773 -0.269193 0.354658 0.306597 -1.278869 -0.152239 0.103465 -0.233115 1.594999 0.114723 -0.277275 -0.318040 0.106332 0.111340 -0.691361 -0.641298 0.033949 -0.269626 0.025505 0.115946 0.074932 -0.511377 0.563544 -1.001040 -0.556591 0.361315
high 0.745207 -0.369841 0.104784 0.290923 -0.134058 -0.617345 0.105166 0.373367 -0.797173 0.766096 0.466525 -0.797544 0.080824 0.196627 -0.280408 -0.331714 0.364683 0.270446 0.932651 -0.343432 -0.202211 0.599043 0.501664 0.251647 -0.869808 -0.271266 0.451476 0.155981 -0.070338 -0.029098 0.167847 -0.154607 0.152883 -0.553992 0.322348 -0.031984 -0.189034 0.741730 0.267823 -0.492452 -0.715447 -0.001476 -0.111603 0.448579 -0.062275 -0.947432 -0.051722 -0.003457 -0.494935 0.465611
chair 0.298213 0.658059 -0.421708 0.906767 0.247968 0.539889 -0.167055 0.455281 -0.170257 0.221988 0.236032 -0.277890 -0.366329 -0.012944 -0.350378 -0.685327 -0.017523 -0.107231 0.616805 0.698090 -0.134943 -0.486022 1.007685 0.476403 -0.749453 0.348904 0.283204 0.826484 0.048348 -0.136016 -0.352839 0.539105 0.482362 -0.271975 0.530665 0.283660 0.166309 -0.043667 -0.403320 -0.230793 -0.313377 -0.108577 -0.060652 -0.000255 0.022130 -0.468581 0.011277 -0.047398 -0.583902 -0.174760
None -0.172903 0.326754 -0.204528 0.340664 -0.292953 0.206504 -0.318182 0.827241 -0.058461 0.178036 0.245264 -0.446418 -0.334344 -0.005685 -0.087729 -0.092098 -0.408180 -0.126499 0.574657 0.175693 0.329870 0.126498 0.496842 0.742033 -0.368928 0.277973 0.040599 0.134571 -0.430394 0.142717 0.157267 0.039451 -0.056879 -0.159917 0.187313 0.323364 0.510949 0.284046 0.258484 -0.463141 -0.599949 0.463740 -0.186960 -0.307736 0.073019 -0.213912 -0.640143 -0.593934 0.144642 -0.276999
them 0.742156 -0.611675 0.367091 0.774934 0.639218 -0.365570 -0.010748 0.547789 -0.957948 0.208215 -0.163762 0.482654 0.331487 -0.507524 0.474754 0.456658 0.322984 0.555580 0.151580 -0.158852 0.222836 -0.051058 0.560207 0.893089 -0.926670 0.101213 0.752641 0.323822 0.681846 -0.711579 -0.153306 -0.523063 0.569070 -0.975630 -0.440201 -0.071255 -0.205443 0.538246 -0.789221 0.138321 -0.680463 0.267040 -0.061100 0.068411 0.551276 -0.204000 0.022824 -0.090411 -1.168463 -0.429341
noticed 0.028677 0.257278 -0.823715 0.662189 0.059598 -0.199619 0.990513 0.649036 -0.361120 0.287705 0.010988 0.616695 0.066396 -0.142289 -0.155395 -0.458997 -0.804782 -0.425476 0.739166 0.195852 0.019544 -0.794658 0.249856 1.244995 0.594649 0.384281 1.049558 -0.554550 -0.408241 -0.478695 -0.429761 0.165265 0.742097 -0.817710 1.215350 -0.053201 -0.060259 0.970021 -0.180357 0.260803 -0.162937 0.043861 0.239968 -0.363385 -0.225416 -0.057460 -0.023836 0.519267 -0.306401 0.531427
tawny -0.301086 0.211173 0.309698 0.542505 -0.352041 0.344552 0.527779 0.533708 0.090275 -0.112801 0.094791 -0.039854 0.054997 -0.327715 -0.391850 -0.392816 -0.049666 -0.138711 0.091059 -0.376520 0.215711 -0.295803 -0.172817 0.867676 -0.175899 -0.188145 0.478364 -0.033541 -0.311217 0.064007 -0.130471 -0.536685 0.402363 -0.433360 0.381708 0.039367 0.115651 -0.340724 -0.671037 -0.446977 -0.081852 0.032887 -0.053682 -0.454140 0.584984 0.215749 -0.295429 0.336616 0.144150 -0.522679
owl -0.414761 -0.815115 1.001966 0.088693 0.181275 -0.110604 -0.094473 0.836892 -0.673072 0.514956 0.891538 -0.436668 -0.425224 0.643942 -0.294409 -0.565085 -0.212455 -0.066539 2.061847 0.045796 0.669011 0.123417 -0.187921 0.707350 0.001790 0.314585 1.351107 0.535714 -0.418478 0.029163 -0.291328 -0.018496 -0.400706 -0.079070 0.546207 -0.522023 0.463657 -0.085318 0.327798 0.175806 -0.468913 0.119782 1.081902 -0.483361 0.090763 -0.916192 -0.545412 0.379082 -0.436281 -0.239339
flutter 0.077478 -0.535956 0.111571 0.767651 -0.282305 -0.031545 0.178706 0.244639 0.179931 0.345623 -0.056772 0.170418 -0.174042 -0.182606 -0.331312 -0.718520 0.125619 -0.347486 0.298447 0.195721 -0.025037 -0.035033 0.753814 0.607550 0.008367 -0.086467 0.501593 0.209669 -0.506616 -0.382448 -0.346319 -0.154122 0.076161 -0.059606 -0.028138 -0.184594 0.387497 0.378249 -0.818761 -0.431560 0.057742 -0.513209 0.393683 -0.643648 -0.024976 0.102694 -0.352848 -0.088111 -0.908211 -0.131991
past 0.067566 -0.216182 0.025061 0.791122 0.982083 -0.191142 0.564873 -0.408288 -0.235184 -0.148635 0.306149 -0.227123 0.317117 0.608252 -0.065010 -0.316104 0.129852 -0.443094 1.030130 -0.572773 0.672443 -0.917145 0.784093 1.061692 0.143601 0.093083 1.001892 -0.219897 -1.398374 -0.044950 -0.069111 -0.920251 0.654627 0.364581 0.310522 -0.399745 0.454384 -0.438372 -0.678039 0.331288 0.258732 -0.337408 0.704327 -0.027980 0.541684 0.484092 -0.315177 -0.540434 -0.787880 -0.195838
window 0.259349 -0.461965 0.406755 0.188499 -0.252580 -0.381541 0.447023 -0.039215 -0.681462 0.434907 0.371177 -0.405944 0.075250 0.831052 -0.194638 -0.707155 0.246456 -0.584083 0.177735 0.158092 0.809267 -0.518410 0.544448 0.609920 -0.132607 0.124842 0.174393 0.413869 0.301713 0.065923 -0.303559 0.711423 0.302434 -0.031181 0.623056 0.694824 -0.332025 0.547226 -0.550038 -0.154727 -0.779086 -0.448456 0.402569 -0.291362 0.940115 -0.264449 -0.013723 -0.921508 -1.246360 0.224157
At 0.326230 0.019737 -0.687282 -0.140385 0.167668 -0.681738 0.337651 0.200971 -0.622415 1.144173 0.130221 0.031900 0.413837 0.801189 0.102302 0.170715 -0.179217 -1.119594 1.294343 0.403372 0.677342 -0.170382 1.175631 0.414207 0.394437 -0.103244 0.740646 0.241446 -0.094710 -0.192156 0.173453 -0.833901 0.441315 -0.655261 0.435354 0.239975 -0.094185 -0.050905 -0.732244 -0.285665 -0.546771 0.496561 1.084228 0.148590 0.469294 -0.563639 0.805836 -0.133653 0.251363 0.692613
half -0.065238 -0.134844 0.335573 0.658496 0.046514 -0.546695 0.421250 0.250858 0.052167 -0.189119 0.550630 0.402926 -0.050023 0.070377 0.059298 -0.378509 -0.395164 0.160398 1.089150 -0.327979 0.586242 -0.121882 -0.225434 0.402593 0.168630 0.368827 0.609220 0.740820 -0.261443 -0.538846 0.256773 -0.953986 0.193903 -0.204528 -0.254738 -0.469743 0.205551 -0.405449 -0.036627 -0.340869 -0.261542 -0.823453 0.171456 -1.022703 0.964080 0.303505 -0.445625 0.125145 -0.487303 -0.148018
eight 0.370661 -0.583360 0.460195 0.074596 -0.091697 -0.497196 -0.117326 0.619710 0.046513 0.030484 -0.098217 -0.082687 -0.439514 -0.135821 -0.493453 -0.201088 -0.446686 -0.410429 0.400369 0.130149 0.605187 -0.491403 -0.076705 0.816606 -0.505305 0.223331 0.835781 0.311924 -0.103383 -0.230231 -0.528598 -0.790874 0.378632 -0.139006 -0.200276 0.441938 0.366658 0.302143 -0.091201 -0.901715 -0.239640 -0.118826 0.351442 -0.324783 0.289714 0.265194 -0.339329 -0.476295 -0.530903 0.271822
briefcase -0.190043 0.319219 0.501979 0.120467 -0.251826 -0.317892 0.256124 0.198223 0.041214 -0.085863 -0.214090 -0.302428 -0.462595 -0.336083 0.058885 -0.477971 0.376834 0.228276 0.489436 -0.376872 0.346622 -0.034681 -0.082323 0.220524 -0.018792 0.158547 0.286174 0.618379 -0.192206 -0.246927 -0.433790 -0.084105 0.569698 -0.757857 0.249328 0.373035 0.439431 0.211812 -0.050455 -0.160896 -0.150822 -0.469611 0.283793 -0.411130 0.021902 0.227050 -0.494910 0.384770 -0.760613 0.414390
pecked -0.415380 0.504473 -0.051412 -0.002250 -0.088551 0.242477 -0.066851 0.658475 -0.095237 0.468677 -0.161180 -0.136264 -0.159087 0.501036 0.091611 -0.384326 -0.090752 0.433788 0.504151 0.126928 0.261726 0.124187 0.193925 -0.034426 -0.195089 -0.240521 0.443757 -0.009554 -0.124044 -0.145534 0.169500 -0.083531 0.267118 -0.180142 0.262076 0.401034 0.486208 -0.454213 -0.134218 -0.727302 -0.257623 -0.498344 -0.543014 -0.568314 0.270298 -0.326738 -0.421630 0.506960 -0.085021 0.734124
cheek -0.014939 -0.193146 -0.084463 0.491696 0.223692 0.095013 0.320828 0.566180 -0.927359 0.595137 0.396114 -0.330137 -0.445032 0.010382 -0.045016 -0.442242 -0.617402 0.050152 0.866003 0.143701 0.166096 0.112807 0.195524 0.059085 -0.224864 -0.039269 0.674686 1.037209 0.213957 -0.242685 0.032599 -0.266153 -0.111985 -0.918402 0.485531 0.066758 -0.121927 0.079228 -0.358712 -0.522355 -0.070269 -0.182048 -0.295394 -0.366052 0.426838 -0.142862 0.407217 -0.444691 -0.152737 -0.187526
tried 0.503202 -0.738848 0.273925 0.879652 0.135539 -0.354718 0.322644 -0.035969 -1.053375 1.471386 -0.170110 -0.015876 0.355281 -0.202433 -0.032115 -0.031338 -0.516090 -0.497338 1.245281 -0.037548 0.544325 -0.805408 1.396750 1.457421 0.256624 0.103594 0.765276 0.148766 -0.831082 -0.239498 -0.337003 -0.796692 0.926827 -0.210056 1.324031 0.905905 0.173955 -0.062083 -0.128890 1.281697 -0.371884 -0.403243 -0.661545 0.847610 0.035098 0.807141 -0.220869 0.654835 -0.370342 -0.115718
kiss -0.221057 0.222301 -0.412729 0.795871 -0.381340 0.467203 0.215714 0.270810 0.018241 0.661831 0.559047 -0.387791 -0.621772 0.065512 -0.195389 -0.355522 0.205113 -0.372285 0.337322 -0.133602 -0.116722 0.254153 0.142356 0.415980 -0.460795 -0.390372 0.336754 0.152761 -0.362821 -0.234461 -0.597056 -0.386534 0.251437 0.090031 0.203626 -0.321267 0.406741 0.107061 -0.520770 -0.279045 -0.228851 -0.159445 -0.480156 -0.447739 0.543079 0.210882 0.416185 -0.071212 -0.679077 -0.052289
